{
    "layers": [
        13,
        9,
        2
    ],
    "weights": [
        0.06865213811397553,
        -0.28950628638267519,
        0.06001845747232437,
        0.13576912879943849,
        0.22613289952278138,
        -0.44695770740509035,
        -0.05835507810115814,
        -0.2544539272785187,
        0.33046644926071169,
        0.13390333950519563,
        0.45034992694854739,
        -0.36593103408813479,
        -0.20741526782512666,
        -0.21053840219974519,
        0.16674824059009553,
        0.5435781478881836,
        0.02354475110769272,
        0.22701013088226319,
        0.5356001257896423,
        -0.04450727999210358,
        -0.38181617856025698,
        -0.35914671421051028,
        -0.1877836436033249,
        0.46682557463645937,
        0.534557580947876,
        0.35541605949401858,
        0.5942978858947754,
        0.23625966906547547,
        -0.3905472755432129,
        -0.21936090290546418,
        0.34248295426368716,
        -0.287641316652298,
        -0.26163986325263979,
        0.32289499044418337,
        0.21551093459129334,
        -0.5439307689666748,
        -0.22571472823619843,
        -0.13857847452163697,
        -0.08468037843704224,
        -0.2955860495567322,
        -0.38640427589416506,
        0.335437148809433,
        -0.371422678232193,
        0.5965567827224731,
        0.1789163053035736,
        -0.15883305668830872,
        -0.03314334154129028,
        0.43350109457969668,
        0.17522570490837098,
        0.10906243324279785,
        -0.008671063929796219,
        0.35105666518211367,
        -0.20209845900535584,
        -0.16187769174575807,
        0.18557842075824738,
        -0.4750852584838867,
        -0.14135026931762696,
        -0.17861710488796235,
        0.10087002068758011,
        0.26030251383781435,
        0.30351245403289797,
        -0.611316978931427,
        -0.35305944085121157,
        -0.2640267312526703,
        0.31785866618156435,
        -0.4886144995689392,
        -0.7069061994552612,
        0.01644771546125412,
        0.0781812071800232,
        0.09502875059843064,
        -0.3476909399032593,
        0.22540687024593354,
        -0.30415046215057375,
        -0.25757336616516116,
        -0.261297345161438,
        -0.3356892168521881,
        -0.15074095129966737,
        -0.18477413058280946,
        0.24285030364990235,
        0.061465583741664889,
        -0.25792020559310915,
        -0.30019891262054446,
        -0.15909403562545777,
        -0.4036567211151123,
        -0.18884220719337464,
        0.4355020523071289,
        0.18220357596874238,
        0.04141515493392944,
        0.06387652456760407,
        -0.39604252576828005,
        0.2522847652435303,
        0.3028051257133484,
        -0.47459176182746889,
        0.29334181547164919,
        0.2739647924900055,
        0.3326607942581177,
        0.24514199793338777,
        -0.19971756637096406,
        0.27637940645217898,
        -0.5218941569328308,
        -0.1210288405418396,
        -0.24011796712875367,
        0.16487891972064973,
        0.52916419506073,
        -0.25090721249580386,
        0.48204976320266726,
        0.2790735960006714,
        0.4396613836288452,
        0.001893840730190277,
        0.1920699030160904,
        -0.2863242030143738,
        -0.23595541715621949,
        -0.25299468636512759,
        0.40821409225463869,
        0.5696955323219299,
        -0.060700103640556338,
        -0.18829485774040223,
        -0.028413593769073488,
        -0.5843101143836975,
        -0.44467753171920779,
        0.2552744746208191,
        -0.4469393193721771,
        -0.2900351881980896,
        -0.3169422447681427,
        -0.04092398285865784,
        0.16017761826515199,
        -0.12185686826705933,
        -0.23334912955760957,
        -0.026053309440612794,
        0.20524057745933534,
        -0.5193457007408142,
        -0.2909002900123596,
        -0.0816711038351059,
        -0.23610836267471314,
        0.39727938175201418
    ],
    "biases": [
        -0.41694962978363039,
        -0.23826724290847779,
        -0.2570835053920746,
        -0.05973559617996216,
        -0.39382198452949526,
        -0.516348123550415,
        0.3809816837310791,
        -0.04615987092256546,
        0.13731971383094788,
        0.32321691513061526,
        -0.29193708300590517
    ]
}