{
    "layers": [
        13,
        9,
        2
    ],
    "weights": [
        0.2869751453399658,
        -0.24745555222034455,
        -0.17791683971881867,
        -0.08699535578489304,
        -0.25898975133895876,
        -0.32562336325645449,
        0.6005191802978516,
        -0.2229173332452774,
        0.11550946533679962,
        0.4040288031101227,
        0.2949214279651642,
        -0.7424258589744568,
        0.5063877701759338,
        -0.3837888538837433,
        -0.2394571304321289,
        0.672272264957428,
        0.3602628707885742,
        -0.3230583071708679,
        -0.847588062286377,
        -0.2975986897945404,
        0.12824423611164094,
        -0.4627331793308258,
        -0.1817726194858551,
        0.20287922024726869,
        -0.5622488856315613,
        0.9411745667457581,
        -0.4010331928730011,
        -0.48567602038383486,
        0.15010778605937959,
        -0.45003238320350649,
        0.48421013355255129,
        -0.5156293511390686,
        -0.01636487990617752,
        0.3228570520877838,
        -0.7466577887535095,
        -0.8349965810775757,
        -0.3837551474571228,
        0.5611740350723267,
        -0.07019615918397904,
        -0.6455093622207642,
        -0.22355282306671143,
        0.12342910468578339,
        0.055219948291778567,
        0.20345114171504975,
        0.38823312520980837,
        0.7405444383621216,
        -0.41377225518226626,
        -0.14320242404937745,
        -0.45287024974823,
        0.33767956495285036,
        0.11466780304908753,
        0.5831299424171448,
        -0.42244771122932436,
        -0.34506770968437197,
        0.44574278593063357,
        -0.23603755235671998,
        0.7036720514297485,
        -0.21411080658435822,
        -0.24206048250198365,
        -0.2667331099510193,
        0.22622150182724,
        0.27792707085609438,
        0.44589003920555117,
        -0.05980512499809265,
        -0.10496364533901215,
        0.16127845644950868,
        -1.195479393005371,
        0.34719154238700869,
        0.2210681140422821,
        0.16016919910907746,
        -0.39798906445503237,
        0.0946507379412651,
        0.20546598732471467,
        -0.15673208236694337,
        -0.10697320103645325,
        0.48464134335517886,
        0.0567639097571373,
        0.04427270591259003,
        0.37728554010391238,
        0.13738760352134705,
        -0.015264149755239487,
        -0.08863678574562073,
        0.009739764034748078,
        -0.7876995801925659,
        0.23839962482452393,
        0.015186101198196411,
        -0.01990235224366188,
        0.3605765104293823,
        -0.08648039400577545,
        -0.7570561170578003,
        -0.032322466373443606,
        0.03910094127058983,
        0.4403049051761627,
        -0.02058376371860504,
        -0.31019121408462527,
        0.6219791769981384,
        -0.4030929207801819,
        0.13502392172813416,
        -0.2064058780670166,
        0.23507541418075562,
        -0.8004717230796814,
        0.2010645866394043,
        0.5185903906822205,
        0.42050299048423769,
        0.523526132106781,
        0.08952052891254425,
        0.7095988988876343,
        -0.6398622393608093,
        -0.22267714142799378,
        0.15656277537345887,
        0.2461785078048706,
        -0.12608572840690614,
        0.3869847357273102,
        -0.40495580434799197,
        0.08283311873674393,
        0.1018613949418068,
        -0.20430830121040345,
        0.2375648319721222,
        -1.1629664897918702,
        -0.2441789209842682,
        0.24573707580566407,
        -0.6372560858726502,
        0.016772836446762086,
        -0.5905285477638245,
        0.55417400598526,
        0.1673387736082077,
        0.9152660369873047,
        -0.16804711520671845,
        -0.7932866215705872,
        -0.383150190114975,
        0.35697340965270998,
        0.0014624670147895814,
        0.2208542376756668,
        -0.24749332666397096,
        -0.7552672624588013
    ],
    "biases": [
        0.3384842872619629,
        -0.21724316477775575,
        0.44061028957366946,
        0.22775930166244508,
        -0.03352051600813866,
        0.32731133699417117,
        0.5179159641265869,
        0.050491999834775928,
        -0.34030795097351076,
        0.2957909107208252,
        0.2585446238517761
    ]
}