{
    "generation": 0,
    "worldType": 0,
    "worldGenSeed": 717.6078491210938,
    "mapChanges": [],
    "creatures": [
        {
            "speciesName": "Big Black Fish",
            "position": {
                "x": -50.00424575805664,
                "y": 7.993332862854004,
                "z": 0.0
            },
            "velocity": {
                "x": 0.0,
                "y": 0.0
            },
            "brainData": {
                "layers": [
                    11,
                    8,
                    2
                ],
                "weights": [
                    0.17784260213375092,
                    -0.18211215734481812,
                    -0.07383257150650025,
                    -0.0749397873878479,
                    -0.049789607524871829,
                    -0.114329993724823,
                    0.2089749425649643,
                    -0.3376041650772095,
                    -0.127743661403656,
                    -0.36564576625823977,
                    -0.10048872232437134,
                    -0.172929584980011,
                    -0.154291570186615,
                    -0.346083402633667,
                    0.14427660405635835,
                    -0.42990708351135256,
                    -0.3633265495300293,
                    0.004368841648101807,
                    -0.0143471360206604,
                    -0.14466363191604615,
                    0.3579065799713135,
                    -0.24504894018173219,
                    0.3111158609390259,
                    -0.4801396131515503,
                    0.21466074883937837,
                    0.17281197011470796,
                    -0.12452977895736695,
                    -0.14763230085372926,
                    0.06595546007156372,
                    -0.31775081157684328,
                    -0.4663196802139282,
                    -0.47141313552856448,
                    0.4869500398635864,
                    0.11909586191177368,
                    -0.077037513256073,
                    -0.443400502204895,
                    0.4301947355270386,
                    0.33812546730041506,
                    -0.3688628673553467,
                    0.17729364335536958,
                    0.08716744184494019,
                    -0.076954185962677,
                    0.07779878377914429,
                    -0.09787195920944214,
                    0.48044466972351076,
                    -0.20228582620620728,
                    -0.2584826946258545,
                    -0.16561323404312135,
                    0.13758276402950288,
                    -0.12452143430709839,
                    0.32342529296875,
                    -0.1826344132423401,
                    -0.028668582439422609,
                    0.05074971914291382,
                    0.3411821126937866,
                    -0.23486632108688355,
                    -0.36243200302124026,
                    -0.24785417318344117,
                    0.14565370976924897,
                    0.21239136159420014,
                    0.01403433084487915,
                    -0.40168845653533938,
                    0.4999033212661743,
                    0.04627329111099243,
                    0.04040485620498657,
                    0.07277196645736695,
                    -0.034422099590301517,
                    0.018204867839813234,
                    -0.21141892671585084,
                    -0.24941414594650269,
                    -0.16768747568130494,
                    -0.3719348907470703,
                    0.4371687173843384,
                    0.014512598514556885,
                    -0.43711984157562258,
                    -0.2940894365310669,
                    -0.2825887203216553,
                    -0.42474424839019778,
                    0.49661946296691897,
                    -0.24234110116958619,
                    0.10628896951675415,
                    0.20266114175319673,
                    -0.044670045375823978,
                    0.05446499586105347,
                    0.23379145562648774,
                    -0.1037711501121521,
                    0.39470601081848147,
                    -0.19277125597000123,
                    0.1927710622549057,
                    0.4621812105178833,
                    0.023190319538116456,
                    -0.20402032136917115,
                    -0.17435091733932496,
                    0.040546953678131106,
                    -0.22182530164718629,
                    -0.3670661449432373,
                    -0.03293043375015259,
                    -0.41071343421936037,
                    0.2011091560125351,
                    -0.055798232555389407,
                    0.4613673686981201,
                    0.3592261075973511,
                    0.2610131502151489,
                    0.1020539402961731
                ],
                "biases": [
                    -0.45751941204071047,
                    -0.24841159582138062,
                    0.004104793071746826,
                    0.12147742509841919,
                    -0.3114316463470459,
                    0.23475371301174165,
                    0.3086283206939697,
                    0.3080275058746338,
                    -0.359053373336792,
                    -0.25387585163116457
                ]
            }
        },
        {
            "speciesName": "Big Black Fish",
            "position": {
                "x": 50.00096130371094,
                "y": 13.92077350616455,
                "z": 0.0
            },
            "velocity": {
                "x": 0.0,
                "y": 0.0
            },
            "brainData": {
                "layers": [
                    11,
                    8,
                    2
                ],
                "weights": [
                    -0.08939927816390991,
                    0.271683931350708,
                    0.4083186388015747,
                    0.2688901424407959,
                    0.39561378955841067,
                    -0.07060354948043823,
                    -0.23825114965438844,
                    0.49778568744659426,
                    -0.15915066003799439,
                    -0.2228410840034485,
                    0.11489850282669068,
                    -0.036827027797698978,
                    0.13150225579738618,
                    -0.28195106983184817,
                    -0.10253030061721802,
                    0.15059493482112885,
                    0.2575409412384033,
                    -0.47313642501831057,
                    -0.34780287742614748,
                    0.06899553537368775,
                    0.4620305299758911,
                    -0.019545018672943116,
                    0.44654810428619387,
                    0.37425899505615237,
                    -0.18557757139205934,
                    0.34001100063323977,
                    -0.32857275009155276,
                    0.05037611722946167,
                    -0.2461654543876648,
                    0.06938296556472779,
                    0.06407183408737183,
                    -0.3025670051574707,
                    0.24884651601314546,
                    0.17420469224452973,
                    -0.345020055770874,
                    0.16433797776699067,
                    -0.31735825538635256,
                    -0.010120213031768799,
                    0.18986199796199799,
                    0.4799240827560425,
                    0.43358051776885989,
                    -0.23152679204940797,
                    -0.18306642770767213,
                    -0.399471640586853,
                    -0.13611716032028199,
                    0.2625821828842163,
                    0.4599546194076538,
                    0.11910492181777954,
                    0.3135833740234375,
                    0.33164453506469729,
                    0.14818154275417329,
                    -0.036840975284576419,
                    -0.08683973550796509,
                    -0.15660589933395387,
                    0.14543913304805757,
                    -0.4273415803909302,
                    -0.27723753452301028,
                    0.2800452709197998,
                    -0.2433646321296692,
                    0.12954972684383393,
                    0.4594050645828247,
                    0.0828825831413269,
                    0.2447061389684677,
                    0.03161090612411499,
                    0.09382742643356323,
                    0.13059447705745698,
                    -0.058447062969207767,
                    0.22325299680233003,
                    0.2989788055419922,
                    -0.27578818798065188,
                    -0.16931825876235963,
                    0.23750923573970796,
                    -0.14782756567001344,
                    0.21816037595272065,
                    -0.39689862728118899,
                    -0.3654167652130127,
                    0.4836689233779907,
                    -0.4251624345779419,
                    -0.2510417699813843,
                    0.09345787763595581,
                    0.2954612970352173,
                    0.17401467263698579,
                    0.20708392560482026,
                    -0.35950779914855959,
                    -0.33422303199768069,
                    -0.28175342082977297,
                    -0.0006287693977355957,
                    0.31568634510040285,
                    0.042429983615875247,
                    -0.016687214374542238,
                    -0.14620381593704225,
                    -0.28955602645874026,
                    0.2538536787033081,
                    -0.2422206997871399,
                    0.3733018636703491,
                    0.2496943324804306,
                    -0.41940224170684817,
                    -0.1803317666053772,
                    -0.47874748706817629,
                    0.014019310474395752,
                    -0.21749264001846314,
                    -0.2016008496284485,
                    -0.35563981533050539,
                    -0.38088691234588625
                ],
                "biases": [
                    -0.1273241639137268,
                    0.21744631230831147,
                    -0.36828744411468508,
                    0.4697805643081665,
                    0.282295823097229,
                    -0.20352250337600709,
                    0.01965540647506714,
                    0.1824643462896347,
                    0.35458624362945559,
                    -0.4983731508255005
                ]
            }
        },
        {
            "speciesName": "Big Black Fish",
            "position": {
                "x": -49.7605094909668,
                "y": 9.942500114440918,
                "z": 0.0
            },
            "velocity": {
                "x": 0.0,
                "y": 0.0
            },
            "brainData": {
                "layers": [
                    11,
                    8,
                    2
                ],
                "weights": [
                    0.17784260213375092,
                    -0.18211215734481812,
                    -0.07383257150650025,
                    -0.0749397873878479,
                    -0.049789607524871829,
                    -0.114329993724823,
                    0.2089749425649643,
                    -0.3376041650772095,
                    -0.127743661403656,
                    -0.36564576625823977,
                    -0.10048872232437134,
                    -0.172929584980011,
                    -0.154291570186615,
                    -0.346083402633667,
                    0.14427660405635835,
                    -0.42990708351135256,
                    -0.3633265495300293,
                    0.004368841648101807,
                    -0.0143471360206604,
                    -0.14466363191604615,
                    0.3579065799713135,
                    -0.24504894018173219,
                    0.3111158609390259,
                    -0.4801396131515503,
                    0.21466074883937837,
                    0.17281197011470796,
                    -0.12452977895736695,
                    -0.14763230085372926,
                    0.06595546007156372,
                    -0.31775081157684328,
                    -0.4663196802139282,
                    -0.47141313552856448,
                    0.4869500398635864,
                    0.11909586191177368,
                    -0.077037513256073,
                    -0.443400502204895,
                    0.4301947355270386,
                    0.33812546730041506,
                    -0.3688628673553467,
                    0.17729364335536958,
                    0.08716744184494019,
                    -0.076954185962677,
                    0.07779878377914429,
                    -0.09787195920944214,
                    0.48044466972351076,
                    -0.20228582620620728,
                    -0.2584826946258545,
                    -0.16561323404312135,
                    0.13758276402950288,
                    -0.12452143430709839,
                    0.32342529296875,
                    -0.1826344132423401,
                    -0.028668582439422609,
                    0.05074971914291382,
                    0.3411821126937866,
                    -0.23486632108688355,
                    -0.36243200302124026,
                    -0.24785417318344117,
                    0.14565370976924897,
                    0.21239136159420014,
                    0.01403433084487915,
                    -0.40168845653533938,
                    0.4999033212661743,
                    0.04627329111099243,
                    0.04040485620498657,
                    0.07277196645736695,
                    -0.034422099590301517,
                    0.018204867839813234,
                    -0.21141892671585084,
                    -0.24941414594650269,
                    -0.16768747568130494,
                    -0.3719348907470703,
                    0.4371687173843384,
                    0.014512598514556885,
                    -0.43711984157562258,
                    -0.369645357131958,
                    -0.2825887203216553,
                    -0.42474424839019778,
                    0.49661946296691897,
                    -0.24234110116958619,
                    0.10628896951675415,
                    0.20266114175319673,
                    -0.044670045375823978,
                    0.05446499586105347,
                    0.23379145562648774,
                    -0.1037711501121521,
                    0.39470601081848147,
                    -0.19277125597000123,
                    0.1927710622549057,
                    0.4621812105178833,
                    0.023190319538116456,
                    -0.20402032136917115,
                    -0.17435091733932496,
                    0.040546953678131106,
                    -0.22182530164718629,
                    -0.3670661449432373,
                    -0.03293043375015259,
                    -0.41071343421936037,
                    0.2011091560125351,
                    -0.055798232555389407,
                    0.4613673686981201,
                    0.3592261075973511,
                    0.2610131502151489,
                    0.1020539402961731
                ],
                "biases": [
                    -0.45751941204071047,
                    -0.24841159582138062,
                    0.004104793071746826,
                    0.12147742509841919,
                    -0.3114316463470459,
                    0.23475371301174165,
                    0.3086283206939697,
                    0.3080275058746338,
                    -0.359053373336792,
                    -0.25387585163116457
                ]
            }
        },
        {
            "speciesName": "Big Black Fish",
            "position": {
                "x": 50.00422286987305,
                "y": 19.811994552612306,
                "z": 0.0
            },
            "velocity": {
                "x": 0.0,
                "y": 0.0
            },
            "brainData": {
                "layers": [
                    11,
                    8,
                    2
                ],
                "weights": [
                    -0.08939927816390991,
                    0.271683931350708,
                    0.4083186388015747,
                    0.2688901424407959,
                    0.39561378955841067,
                    -0.07060354948043823,
                    -0.23825114965438844,
                    0.49778568744659426,
                    -0.15915066003799439,
                    -0.2228410840034485,
                    0.051356323063373569,
                    -0.1321941614151001,
                    0.13150225579738618,
                    -0.28195106983184817,
                    -0.10253030061721802,
                    0.15059493482112885,
                    0.2575409412384033,
                    -0.47313642501831057,
                    -0.34780287742614748,
                    0.06899553537368775,
                    0.4620305299758911,
                    -0.019545018672943116,
                    0.44654810428619387,
                    0.37425899505615237,
                    -0.18557757139205934,
                    0.34001100063323977,
                    -0.32857275009155276,
                    0.05037611722946167,
                    -0.2461654543876648,
                    0.06938296556472779,
                    0.06407183408737183,
                    -0.3025670051574707,
                    0.24884651601314546,
                    0.17420469224452973,
                    -0.345020055770874,
                    0.16433797776699067,
                    -0.31735825538635256,
                    0.00613103061914444,
                    0.18986199796199799,
                    0.4799240827560425,
                    0.43358051776885989,
                    -0.23152679204940797,
                    -0.18306642770767213,
                    -0.399471640586853,
                    -0.13611716032028199,
                    0.2606086730957031,
                    0.4599546194076538,
                    0.11910492181777954,
                    0.3135833740234375,
                    0.41565626859664919,
                    0.14818154275417329,
                    -0.036840975284576419,
                    -0.08683973550796509,
                    -0.1997097134590149,
                    0.09681994467973709,
                    -0.4273415803909302,
                    -0.27723753452301028,
                    0.2800452709197998,
                    -0.2433646321296692,
                    0.12954972684383393,
                    0.4594050645828247,
                    0.0828825831413269,
                    0.2447061389684677,
                    0.03161090612411499,
                    0.09382742643356323,
                    0.2068171501159668,
                    -0.058447062969207767,
                    0.22325299680233003,
                    0.2989788055419922,
                    -0.27578818798065188,
                    -0.16931825876235963,
                    0.23750923573970796,
                    -0.14782756567001344,
                    0.21816037595272065,
                    -0.39689862728118899,
                    -0.40190353989601138,
                    0.4836689233779907,
                    -0.4251624345779419,
                    -0.2510417699813843,
                    0.09345787763595581,
                    0.2954612970352173,
                    0.17401467263698579,
                    0.20708392560482026,
                    -0.35950779914855959,
                    -0.33422303199768069,
                    -0.1868763267993927,
                    -0.0006287693977355957,
                    0.31568634510040285,
                    0.042429983615875247,
                    -0.016687214374542238,
                    -0.14620381593704225,
                    -0.28955602645874026,
                    0.2538536787033081,
                    -0.2422206997871399,
                    0.3733018636703491,
                    0.2496943324804306,
                    -0.41940224170684817,
                    -0.1803317666053772,
                    -0.47874748706817629,
                    0.014019310474395752,
                    -0.21749264001846314,
                    -0.2016008496284485,
                    -0.35563981533050539,
                    -0.38088691234588625
                ],
                "biases": [
                    -0.1273241639137268,
                    0.21744631230831147,
                    -0.36828744411468508,
                    0.4697805643081665,
                    0.282295823097229,
                    -0.20352250337600709,
                    0.01965540647506714,
                    0.1824643462896347,
                    0.35458624362945559,
                    -0.4983731508255005
                ]
            }
        },
        {
            "speciesName": "Big Black Fish",
            "position": {
                "x": 48.28227615356445,
                "y": 22.729249954223634,
                "z": 0.0
            },
            "velocity": {
                "x": 0.0,
                "y": 0.0
            },
            "brainData": {
                "layers": [
                    11,
                    8,
                    2
                ],
                "weights": [
                    -0.08939927816390991,
                    0.271683931350708,
                    0.4083186388015747,
                    0.2688901424407959,
                    0.39561378955841067,
                    -0.07060354948043823,
                    -0.23825114965438844,
                    0.49778568744659426,
                    -0.15915066003799439,
                    -0.2228410840034485,
                    0.051356323063373569,
                    -0.1321941614151001,
                    0.13150225579738618,
                    -0.28195106983184817,
                    -0.10253030061721802,
                    0.15059493482112885,
                    0.2575409412384033,
                    -0.47313642501831057,
                    -0.34780287742614748,
                    0.06899553537368775,
                    0.4620305299758911,
                    -0.019545018672943116,
                    0.44654810428619387,
                    0.37425899505615237,
                    -0.18557757139205934,
                    0.34001100063323977,
                    -0.32857275009155276,
                    0.05037611722946167,
                    -0.2461654543876648,
                    0.06938296556472779,
                    0.06407183408737183,
                    -0.3025670051574707,
                    0.24884651601314546,
                    0.17420469224452973,
                    -0.345020055770874,
                    0.16433797776699067,
                    -0.31735825538635256,
                    0.00613103061914444,
                    0.10686341673135758,
                    0.4799240827560425,
                    0.43358051776885989,
                    -0.23152679204940797,
                    -0.18306642770767213,
                    -0.399471640586853,
                    -0.13611716032028199,
                    0.2606086730957031,
                    0.4599546194076538,
                    0.11910492181777954,
                    0.3135833740234375,
                    0.41565626859664919,
                    0.14818154275417329,
                    -0.036840975284576419,
                    -0.08683973550796509,
                    -0.1997097134590149,
                    0.09681994467973709,
                    -0.4273415803909302,
                    -0.27723753452301028,
                    0.2800452709197998,
                    -0.2343534231185913,
                    0.12954972684383393,
                    0.4594050645828247,
                    0.0828825831413269,
                    0.2447061389684677,
                    0.03161090612411499,
                    0.09382742643356323,
                    0.2068171501159668,
                    -0.058447062969207767,
                    0.22325299680233003,
                    0.2989788055419922,
                    -0.27578818798065188,
                    -0.16931825876235963,
                    0.23750923573970796,
                    -0.14782756567001344,
                    0.21816037595272065,
                    -0.39689862728118899,
                    -0.40190353989601138,
                    0.4836689233779907,
                    -0.4251624345779419,
                    -0.2510417699813843,
                    0.09345787763595581,
                    0.2954612970352173,
                    0.17401467263698579,
                    0.20708392560482026,
                    -0.35950779914855959,
                    -0.33422303199768069,
                    -0.1868763267993927,
                    -0.0006287693977355957,
                    0.31568634510040285,
                    0.042429983615875247,
                    -0.016687214374542238,
                    -0.14620381593704225,
                    -0.28955602645874026,
                    0.2821633219718933,
                    -0.2422206997871399,
                    0.4528104364871979,
                    0.2496943324804306,
                    -0.41940224170684817,
                    -0.1803317666053772,
                    -0.47874748706817629,
                    0.014019310474395752,
                    -0.21749264001846314,
                    -0.2016008496284485,
                    -0.35563981533050539,
                    -0.38088691234588625
                ],
                "biases": [
                    -0.1273241639137268,
                    0.2840815782546997,
                    -0.36828744411468508,
                    0.4697805643081665,
                    0.282295823097229,
                    -0.21668624877929688,
                    0.01965540647506714,
                    0.1824643462896347,
                    0.35458624362945559,
                    -0.4983731508255005
                ]
            }
        },
        {
            "speciesName": "Big Black Fish",
            "position": {
                "x": 50.00422286987305,
                "y": 21.77573585510254,
                "z": 0.0
            },
            "velocity": {
                "x": 0.0,
                "y": 0.0
            },
            "brainData": {
                "layers": [
                    11,
                    8,
                    2
                ],
                "weights": [
                    -0.08939927816390991,
                    0.271683931350708,
                    0.4083186388015747,
                    0.2688901424407959,
                    0.39561378955841067,
                    -0.07060354948043823,
                    -0.23825114965438844,
                    0.49778568744659426,
                    -0.21750962734222413,
                    -0.2228410840034485,
                    0.051356323063373569,
                    -0.1321941614151001,
                    0.13150225579738618,
                    -0.28195106983184817,
                    -0.10253030061721802,
                    0.15059493482112885,
                    0.2575409412384033,
                    -0.47313642501831057,
                    -0.34780287742614748,
                    0.06899553537368775,
                    0.4620305299758911,
                    0.03685024753212929,
                    0.44654810428619387,
                    0.37425899505615237,
                    -0.18557757139205934,
                    0.34001100063323977,
                    -0.32857275009155276,
                    0.05037611722946167,
                    -0.2461654543876648,
                    0.06938296556472779,
                    0.06407183408737183,
                    -0.3025670051574707,
                    0.24884651601314546,
                    0.17420469224452973,
                    -0.345020055770874,
                    0.16433797776699067,
                    -0.31735825538635256,
                    0.00613103061914444,
                    0.18986199796199799,
                    0.4799240827560425,
                    0.43358051776885989,
                    -0.23152679204940797,
                    -0.18306642770767213,
                    -0.399471640586853,
                    -0.13611716032028199,
                    0.2606086730957031,
                    0.4599546194076538,
                    0.11910492181777954,
                    0.3135833740234375,
                    0.41565626859664919,
                    0.14818154275417329,
                    -0.036840975284576419,
                    -0.08683973550796509,
                    -0.1997097134590149,
                    0.09681994467973709,
                    -0.4273415803909302,
                    -0.27723753452301028,
                    0.2800452709197998,
                    -0.2433646321296692,
                    0.12954972684383393,
                    0.4594050645828247,
                    0.0828825831413269,
                    0.2447061389684677,
                    0.03161090612411499,
                    0.09382742643356323,
                    0.2068171501159668,
                    -0.058447062969207767,
                    0.22325299680233003,
                    0.2989788055419922,
                    -0.27578818798065188,
                    -0.16931825876235963,
                    0.23750923573970796,
                    -0.14782756567001344,
                    0.21816037595272065,
                    -0.39689862728118899,
                    -0.40190353989601138,
                    0.4836689233779907,
                    -0.4251624345779419,
                    -0.2510417699813843,
                    0.09345787763595581,
                    0.2954612970352173,
                    0.23988138139247895,
                    0.20708392560482026,
                    -0.35950779914855959,
                    -0.33422303199768069,
                    -0.1868763267993927,
                    -0.0006287693977355957,
                    0.31568634510040285,
                    0.042429983615875247,
                    -0.016687214374542238,
                    -0.14620381593704225,
                    -0.28955602645874026,
                    0.26448914408683779,
                    -0.2422206997871399,
                    0.3733018636703491,
                    0.2496943324804306,
                    -0.41940224170684817,
                    -0.1803317666053772,
                    -0.47874748706817629,
                    0.014019310474395752,
                    -0.21749264001846314,
                    -0.2016008496284485,
                    -0.35563981533050539,
                    -0.38088691234588625
                ],
                "biases": [
                    -0.1273241639137268,
                    0.21744631230831147,
                    -0.36828744411468508,
                    0.4697805643081665,
                    0.282295823097229,
                    -0.20352250337600709,
                    0.01965540647506714,
                    0.1824643462896347,
                    0.35458624362945559,
                    -0.4983731508255005
                ]
            }
        },
        {
            "speciesName": "Big Black Fish",
            "position": {
                "x": 50.00421905517578,
                "y": 9.99329662322998,
                "z": 0.0
            },
            "velocity": {
                "x": 0.0,
                "y": 0.0
            },
            "brainData": {
                "layers": [
                    11,
                    8,
                    2
                ],
                "weights": [
                    -0.08939927816390991,
                    0.271683931350708,
                    0.4260881245136261,
                    0.27105769515037539,
                    0.39561378955841067,
                    -0.07060354948043823,
                    -0.23825114965438844,
                    0.49778568744659426,
                    -0.15915066003799439,
                    -0.2228410840034485,
                    0.11489850282669068,
                    -0.036827027797698978,
                    0.13150225579738618,
                    -0.28195106983184817,
                    -0.016239412128925325,
                    0.15059493482112885,
                    0.2575409412384033,
                    -0.47313642501831057,
                    -0.34780287742614748,
                    0.06899553537368775,
                    0.4620305299758911,
                    -0.019545018672943116,
                    0.44654810428619387,
                    0.37425899505615237,
                    -0.1748773157596588,
                    0.34001100063323977,
                    -0.32857275009155276,
                    0.05037611722946167,
                    -0.2461654543876648,
                    0.06938296556472779,
                    0.06407183408737183,
                    -0.3025670051574707,
                    0.24884651601314546,
                    0.17420469224452973,
                    -0.345020055770874,
                    0.16433797776699067,
                    -0.31735825538635256,
                    -0.010120213031768799,
                    0.18986199796199799,
                    0.4799240827560425,
                    0.43358051776885989,
                    -0.23152679204940797,
                    -0.2518784999847412,
                    -0.399471640586853,
                    -0.13611716032028199,
                    0.2625821828842163,
                    0.4599546194076538,
                    0.11910492181777954,
                    0.3135833740234375,
                    0.33164453506469729,
                    0.14818154275417329,
                    -0.036840975284576419,
                    -0.08683973550796509,
                    -0.15660589933395387,
                    0.14543913304805757,
                    -0.4273415803909302,
                    -0.27723753452301028,
                    0.2800452709197998,
                    -0.2433646321296692,
                    0.12954972684383393,
                    0.4594050645828247,
                    0.0828825831413269,
                    0.2447061389684677,
                    0.03161090612411499,
                    0.09382742643356323,
                    0.13059447705745698,
                    -0.058447062969207767,
                    0.22325299680233003,
                    0.2989788055419922,
                    -0.27578818798065188,
                    -0.16931825876235963,
                    0.23750923573970796,
                    -0.14782756567001344,
                    0.21816037595272065,
                    -0.39689862728118899,
                    -0.3654167652130127,
                    0.4836689233779907,
                    -0.4251624345779419,
                    -0.2510417699813843,
                    0.09345787763595581,
                    0.2954612970352173,
                    0.17401467263698579,
                    0.20708392560482026,
                    -0.35950779914855959,
                    -0.33422303199768069,
                    -0.28175342082977297,
                    -0.0006287693977355957,
                    0.31568634510040285,
                    0.042429983615875247,
                    -0.016687214374542238,
                    -0.14620381593704225,
                    -0.28955602645874026,
                    0.2538536787033081,
                    -0.2422206997871399,
                    0.3733018636703491,
                    0.2496943324804306,
                    -0.41940224170684817,
                    -0.1803317666053772,
                    -0.47874748706817629,
                    0.014019310474395752,
                    -0.21749264001846314,
                    -0.2016008496284485,
                    -0.35563981533050539,
                    -0.38088691234588625
                ],
                "biases": [
                    -0.1273241639137268,
                    0.21744631230831147,
                    -0.36828744411468508,
                    0.4697805643081665,
                    0.282295823097229,
                    -0.20352250337600709,
                    0.01965540647506714,
                    0.1824643462896347,
                    0.35458624362945559,
                    -0.4983731508255005
                ]
            }
        },
        {
            "speciesName": "Big Black Fish",
            "position": {
                "x": 50.00421905517578,
                "y": 17.84825325012207,
                "z": 0.0
            },
            "velocity": {
                "x": 0.0,
                "y": 0.0
            },
            "brainData": {
                "layers": [
                    11,
                    8,
                    2
                ],
                "weights": [
                    -0.013153903186321259,
                    0.33045247197151186,
                    0.4083186388015747,
                    0.2688901424407959,
                    0.39561378955841067,
                    -0.07060354948043823,
                    -0.23825114965438844,
                    0.49778568744659426,
                    -0.15915066003799439,
                    -0.2228410840034485,
                    0.11489850282669068,
                    -0.036827027797698978,
                    0.13150225579738618,
                    -0.28195106983184817,
                    -0.10253030061721802,
                    0.13788974285125733,
                    0.2575409412384033,
                    -0.47313642501831057,
                    -0.34780287742614748,
                    0.06899553537368775,
                    0.4620305299758911,
                    -0.019545018672943116,
                    0.44654810428619387,
                    0.37425899505615237,
                    -0.18557757139205934,
                    0.34001100063323977,
                    -0.32857275009155276,
                    0.05037611722946167,
                    -0.2461654543876648,
                    -0.009833253920078278,
                    0.06407183408737183,
                    -0.3025670051574707,
                    0.24884651601314546,
                    0.17420469224452973,
                    -0.345020055770874,
                    0.16433797776699067,
                    -0.31735825538635256,
                    -0.010120213031768799,
                    0.18986199796199799,
                    0.4799240827560425,
                    0.43358051776885989,
                    -0.23152679204940797,
                    -0.18306642770767213,
                    -0.3986923098564148,
                    -0.13611716032028199,
                    0.2625821828842163,
                    0.4599546194076538,
                    0.11910492181777954,
                    0.3135833740234375,
                    0.33164453506469729,
                    0.14818154275417329,
                    -0.036840975284576419,
                    -0.1598827838897705,
                    -0.15660589933395387,
                    0.14543913304805757,
                    -0.4273415803909302,
                    -0.27723753452301028,
                    0.2800452709197998,
                    -0.2433646321296692,
                    0.12954972684383393,
                    0.4594050645828247,
                    0.0828825831413269,
                    0.2447061389684677,
                    0.03161090612411499,
                    0.09382742643356323,
                    0.13059447705745698,
                    -0.058447062969207767,
                    0.22325299680233003,
                    0.2989788055419922,
                    -0.27578818798065188,
                    -0.16931825876235963,
                    0.23750923573970796,
                    -0.14782756567001344,
                    0.21816037595272065,
                    -0.39689862728118899,
                    -0.3654167652130127,
                    0.4836689233779907,
                    -0.4251624345779419,
                    -0.2510417699813843,
                    0.09345787763595581,
                    0.2954612970352173,
                    0.17401467263698579,
                    0.20708392560482026,
                    -0.35950779914855959,
                    -0.3506505787372589,
                    -0.28175342082977297,
                    -0.0006287693977355957,
                    0.31568634510040285,
                    0.042429983615875247,
                    -0.016687214374542238,
                    -0.14620381593704225,
                    -0.28955602645874026,
                    0.2538536787033081,
                    -0.2422206997871399,
                    0.3733018636703491,
                    0.2496943324804306,
                    -0.41940224170684817,
                    -0.1803317666053772,
                    -0.47874748706817629,
                    0.014019310474395752,
                    -0.21749264001846314,
                    -0.2016008496284485,
                    -0.35563981533050539,
                    -0.38088691234588625
                ],
                "biases": [
                    -0.1273241639137268,
                    0.21744631230831147,
                    -0.36828744411468508,
                    0.4697805643081665,
                    0.282295823097229,
                    -0.20352250337600709,
                    0.01965540647506714,
                    0.1824643462896347,
                    0.35458624362945559,
                    -0.4983731508255005
                ]
            }
        },
        {
            "speciesName": "Big Black Fish",
            "position": {
                "x": 50.00421905517578,
                "y": 15.884511947631836,
                "z": 0.0
            },
            "velocity": {
                "x": 0.0,
                "y": 0.0
            },
            "brainData": {
                "layers": [
                    11,
                    8,
                    2
                ],
                "weights": [
                    -0.08939927816390991,
                    0.271683931350708,
                    0.4083186388015747,
                    0.2688901424407959,
                    0.39561378955841067,
                    -0.07060354948043823,
                    -0.23825114965438844,
                    0.49778568744659426,
                    -0.15915066003799439,
                    -0.2228410840034485,
                    0.051356323063373569,
                    -0.1321941614151001,
                    0.04619384557008743,
                    -0.28195106983184817,
                    -0.023451603949069978,
                    0.15059493482112885,
                    0.2575409412384033,
                    -0.47313642501831057,
                    -0.34780287742614748,
                    0.06899553537368775,
                    0.4620305299758911,
                    -0.019545018672943116,
                    0.44654810428619387,
                    0.37425899505615237,
                    -0.18557757139205934,
                    0.34001100063323977,
                    -0.32857275009155276,
                    0.05037611722946167,
                    -0.2461654543876648,
                    0.06938296556472779,
                    0.06407183408737183,
                    -0.3025670051574707,
                    0.24884651601314546,
                    0.17420469224452973,
                    -0.345020055770874,
                    0.16433797776699067,
                    -0.31735825538635256,
                    0.00613103061914444,
                    0.22219891846179963,
                    0.4799240827560425,
                    0.43358051776885989,
                    -0.23152679204940797,
                    -0.18306642770767213,
                    -0.399471640586853,
                    -0.13611716032028199,
                    0.2606086730957031,
                    0.4599546194076538,
                    0.11910492181777954,
                    0.3135833740234375,
                    0.41565626859664919,
                    0.14818154275417329,
                    -0.07337097823619843,
                    -0.08683973550796509,
                    -0.1997097134590149,
                    0.09681994467973709,
                    -0.3959064185619354,
                    -0.27723753452301028,
                    0.2800452709197998,
                    -0.2433646321296692,
                    0.12954972684383393,
                    0.4594050645828247,
                    0.0828825831413269,
                    0.2447061389684677,
                    0.03161090612411499,
                    0.09382742643356323,
                    0.2068171501159668,
                    -0.058447062969207767,
                    0.22325299680233003,
                    0.2989788055419922,
                    -0.27578818798065188,
                    -0.16931825876235963,
                    0.23750923573970796,
                    -0.14782756567001344,
                    0.21816037595272065,
                    -0.39689862728118899,
                    -0.40190353989601138,
                    0.4836689233779907,
                    -0.4251624345779419,
                    -0.2510417699813843,
                    0.09345787763595581,
                    0.2954612970352173,
                    0.17401467263698579,
                    0.20708392560482026,
                    -0.35950779914855959,
                    -0.33422303199768069,
                    -0.1868763267993927,
                    -0.0006287693977355957,
                    0.31568634510040285,
                    0.042429983615875247,
                    -0.016687214374542238,
                    -0.14620381593704225,
                    -0.28955602645874026,
                    0.2538536787033081,
                    -0.2422206997871399,
                    0.3733018636703491,
                    0.2496943324804306,
                    -0.41940224170684817,
                    -0.1803317666053772,
                    -0.47874748706817629,
                    0.014019310474395752,
                    -0.21749264001846314,
                    -0.2016008496284485,
                    -0.35563981533050539,
                    -0.38088691234588625
                ],
                "biases": [
                    -0.1273241639137268,
                    0.21744631230831147,
                    -0.36828744411468508,
                    0.3993925154209137,
                    0.282295823097229,
                    -0.20352250337600709,
                    0.01965540647506714,
                    0.1824643462896347,
                    0.35458624362945559,
                    -0.4983731508255005
                ]
            }
        },
        {
            "speciesName": "Big Black Fish",
            "position": {
                "x": 50.00422286987305,
                "y": 23.739477157592775,
                "z": 0.0
            },
            "velocity": {
                "x": 0.0,
                "y": 0.0
            },
            "brainData": {
                "layers": [
                    11,
                    8,
                    2
                ],
                "weights": [
                    -0.08939927816390991,
                    0.271683931350708,
                    0.4083186388015747,
                    0.21211126446723939,
                    0.39561378955841067,
                    -0.07060354948043823,
                    -0.23825114965438844,
                    0.49778568744659426,
                    -0.15915066003799439,
                    -0.2228410840034485,
                    0.051356323063373569,
                    -0.1321941614151001,
                    0.13150225579738618,
                    -0.28195106983184817,
                    -0.10253030061721802,
                    0.15059493482112885,
                    0.2575409412384033,
                    -0.47313642501831057,
                    -0.34780287742614748,
                    0.06899553537368775,
                    0.4620305299758911,
                    -0.019545018672943116,
                    0.44654810428619387,
                    0.37425899505615237,
                    -0.18557757139205934,
                    0.34001100063323977,
                    -0.32857275009155276,
                    0.05037611722946167,
                    -0.2461654543876648,
                    0.06938296556472779,
                    0.051782771944999698,
                    -0.3025670051574707,
                    0.24884651601314546,
                    0.17420469224452973,
                    -0.345020055770874,
                    0.16433797776699067,
                    -0.31735825538635256,
                    0.00613103061914444,
                    0.20769014954566956,
                    0.4799240827560425,
                    0.43358051776885989,
                    -0.23152679204940797,
                    -0.18306642770767213,
                    -0.399471640586853,
                    -0.13611716032028199,
                    0.2606086730957031,
                    0.4599546194076538,
                    0.11910492181777954,
                    0.3135833740234375,
                    0.41565626859664919,
                    0.14818154275417329,
                    -0.036840975284576419,
                    -0.08683973550796509,
                    -0.1997097134590149,
                    0.09681994467973709,
                    -0.4273415803909302,
                    -0.27723753452301028,
                    0.2800452709197998,
                    -0.2433646321296692,
                    0.12954972684383393,
                    0.4594050645828247,
                    0.0828825831413269,
                    0.2447061389684677,
                    0.03161090612411499,
                    0.09382742643356323,
                    0.2068171501159668,
                    -0.058447062969207767,
                    0.22325299680233003,
                    0.2989788055419922,
                    -0.27578818798065188,
                    -0.16931825876235963,
                    0.23750923573970796,
                    -0.14782756567001344,
                    0.21816037595272065,
                    -0.39689862728118899,
                    -0.40190353989601138,
                    0.4836689233779907,
                    -0.4251624345779419,
                    -0.2510417699813843,
                    0.09345787763595581,
                    0.2954612970352173,
                    0.17401467263698579,
                    0.20708392560482026,
                    -0.35950779914855959,
                    -0.33422303199768069,
                    -0.1868763267993927,
                    -0.05947226658463478,
                    0.31568634510040285,
                    0.042429983615875247,
                    -0.016687214374542238,
                    -0.14620381593704225,
                    -0.28955602645874026,
                    0.2538536787033081,
                    -0.2422206997871399,
                    0.3733018636703491,
                    0.2496943324804306,
                    -0.41940224170684817,
                    -0.1803317666053772,
                    -0.47874748706817629,
                    0.014019310474395752,
                    -0.21749264001846314,
                    -0.2016008496284485,
                    -0.35563981533050539,
                    -0.38088691234588625
                ],
                "biases": [
                    -0.1273241639137268,
                    0.21744631230831147,
                    -0.36828744411468508,
                    0.4697805643081665,
                    0.282295823097229,
                    -0.20352250337600709,
                    0.01965540647506714,
                    0.1824643462896347,
                    0.35458624362945559,
                    -0.4983731508255005
                ]
            }
        },
        {
            "speciesName": "Big Black Fish",
            "position": {
                "x": 50.00421905517578,
                "y": 11.957035064697266,
                "z": 0.0
            },
            "velocity": {
                "x": 0.0,
                "y": 0.0
            },
            "brainData": {
                "layers": [
                    11,
                    8,
                    2
                ],
                "weights": [
                    -0.08939927816390991,
                    0.271683931350708,
                    0.4260881245136261,
                    0.27105769515037539,
                    0.39561378955841067,
                    -0.07060354948043823,
                    -0.23825114965438844,
                    0.4381555914878845,
                    -0.15915066003799439,
                    -0.2228410840034485,
                    0.11489850282669068,
                    -0.036827027797698978,
                    0.13150225579738618,
                    -0.28195106983184817,
                    -0.016239412128925325,
                    0.15059493482112885,
                    0.2575409412384033,
                    -0.47313642501831057,
                    -0.34780287742614748,
                    0.06899553537368775,
                    0.4620305299758911,
                    -0.019545018672943116,
                    0.44654810428619387,
                    0.37425899505615237,
                    -0.1748773157596588,
                    0.34001100063323977,
                    -0.32857275009155276,
                    0.05037611722946167,
                    -0.2461654543876648,
                    0.06938296556472779,
                    0.06407183408737183,
                    -0.3025670051574707,
                    0.24884651601314546,
                    0.17420469224452973,
                    -0.345020055770874,
                    0.16433797776699067,
                    -0.31735825538635256,
                    -0.010120213031768799,
                    0.18986199796199799,
                    0.4799240827560425,
                    0.43358051776885989,
                    -0.23152679204940797,
                    -0.2518784999847412,
                    -0.399471640586853,
                    -0.13611716032028199,
                    0.2625821828842163,
                    0.4599546194076538,
                    0.11910492181777954,
                    0.3135833740234375,
                    0.33164453506469729,
                    0.14818154275417329,
                    -0.036840975284576419,
                    -0.08683973550796509,
                    -0.15660589933395387,
                    0.14543913304805757,
                    -0.4273415803909302,
                    -0.27723753452301028,
                    0.2800452709197998,
                    -0.2433646321296692,
                    0.16360262036323548,
                    0.4594050645828247,
                    0.0828825831413269,
                    0.2447061389684677,
                    0.03161090612411499,
                    0.09382742643356323,
                    0.10481765121221543,
                    -0.058447062969207767,
                    0.22325299680233003,
                    0.2989788055419922,
                    -0.27578818798065188,
                    -0.16931825876235963,
                    0.23750923573970796,
                    -0.14782756567001344,
                    0.21816037595272065,
                    -0.39689862728118899,
                    -0.3654167652130127,
                    0.4836689233779907,
                    -0.4251624345779419,
                    -0.2510417699813843,
                    0.09345787763595581,
                    0.2954612970352173,
                    0.11768780648708344,
                    0.20708392560482026,
                    -0.35950779914855959,
                    -0.33422303199768069,
                    -0.28175342082977297,
                    -0.0006287693977355957,
                    0.31568634510040285,
                    0.042429983615875247,
                    -0.016687214374542238,
                    -0.14620381593704225,
                    -0.28955602645874026,
                    0.2538536787033081,
                    -0.2422206997871399,
                    0.3733018636703491,
                    0.2496943324804306,
                    -0.41940224170684817,
                    -0.1803317666053772,
                    -0.47874748706817629,
                    0.014019310474395752,
                    -0.21749264001846314,
                    -0.2016008496284485,
                    -0.35563981533050539,
                    -0.38088691234588625
                ],
                "biases": [
                    -0.1273241639137268,
                    0.21744631230831147,
                    -0.36828744411468508,
                    0.4697805643081665,
                    0.282295823097229,
                    -0.20352250337600709,
                    0.01965540647506714,
                    0.1824643462896347,
                    0.35458624362945559,
                    -0.4983731508255005
                ]
            }
        },
        {
            "speciesName": "Big Black Fish",
            "position": {
                "x": -51.60655212402344,
                "y": 10.621280670166016,
                "z": 0.0
            },
            "velocity": {
                "x": 0.0,
                "y": 0.0
            },
            "brainData": {
                "layers": [
                    11,
                    8,
                    2
                ],
                "weights": [
                    0.17784260213375092,
                    -0.18211215734481812,
                    -0.07383257150650025,
                    -0.0749397873878479,
                    -0.049789607524871829,
                    -0.114329993724823,
                    0.2089749425649643,
                    -0.3376041650772095,
                    -0.127743661403656,
                    -0.36564576625823977,
                    -0.10048872232437134,
                    -0.172929584980011,
                    -0.154291570186615,
                    -0.346083402633667,
                    0.14427660405635835,
                    -0.42990708351135256,
                    -0.3633265495300293,
                    0.004368841648101807,
                    -0.0143471360206604,
                    -0.14466363191604615,
                    0.3579065799713135,
                    -0.24504894018173219,
                    0.3111158609390259,
                    -0.4801396131515503,
                    0.19047892093658448,
                    0.17281197011470796,
                    -0.12452977895736695,
                    -0.14763230085372926,
                    0.06595546007156372,
                    -0.31775081157684328,
                    -0.4663196802139282,
                    -0.47141313552856448,
                    0.4869500398635864,
                    0.11909586191177368,
                    -0.077037513256073,
                    -0.443400502204895,
                    0.4301947355270386,
                    0.33812546730041506,
                    -0.3688628673553467,
                    0.17729364335536958,
                    0.08716744184494019,
                    -0.076954185962677,
                    0.07779878377914429,
                    -0.09787195920944214,
                    0.48044466972351076,
                    -0.20228582620620728,
                    -0.2584826946258545,
                    -0.16561323404312135,
                    0.13758276402950288,
                    -0.12452143430709839,
                    0.32342529296875,
                    -0.1826344132423401,
                    -0.028668582439422609,
                    0.05074971914291382,
                    0.3411821126937866,
                    -0.23486632108688355,
                    -0.36243200302124026,
                    -0.24785417318344117,
                    0.14565370976924897,
                    0.21239136159420014,
                    0.01403433084487915,
                    -0.40168845653533938,
                    0.4999033212661743,
                    0.04627329111099243,
                    0.04040485620498657,
                    0.07277196645736695,
                    -0.034422099590301517,
                    0.018204867839813234,
                    -0.21141892671585084,
                    -0.24941414594650269,
                    -0.16768747568130494,
                    -0.3719348907470703,
                    0.4371687173843384,
                    0.014512598514556885,
                    -0.43711984157562258,
                    -0.369645357131958,
                    -0.2825887203216553,
                    -0.42474424839019778,
                    0.49661946296691897,
                    -0.24234110116958619,
                    0.10628896951675415,
                    0.20266114175319673,
                    -0.044670045375823978,
                    0.05446499586105347,
                    0.23379145562648774,
                    -0.1037711501121521,
                    0.39470601081848147,
                    -0.19277125597000123,
                    0.1927710622549057,
                    0.4621812105178833,
                    0.023190319538116456,
                    -0.20402032136917115,
                    -0.23734962940216065,
                    0.040546953678131106,
                    -0.22182530164718629,
                    -0.3670661449432373,
                    -0.03293043375015259,
                    -0.41071343421936037,
                    0.2011091560125351,
                    -0.055798232555389407,
                    0.4613673686981201,
                    0.3592261075973511,
                    0.2610131502151489,
                    0.1020539402961731
                ],
                "biases": [
                    -0.45751941204071047,
                    -0.24841159582138062,
                    0.004104793071746826,
                    0.21412083506584168,
                    -0.3114316463470459,
                    0.23475371301174165,
                    0.3086283206939697,
                    0.3080275058746338,
                    -0.359053373336792,
                    -0.25387585163116457
                ]
            }
        },
        {
            "speciesName": "Small Fish",
            "position": {
                "x": -50.49858474731445,
                "y": 90.48504638671875,
                "z": 0.0
            },
            "velocity": {
                "x": 0.0,
                "y": 0.0
            },
            "brainData": {
                "layers": [
                    11,
                    8,
                    2
                ],
                "weights": [
                    0.29730337858200076,
                    -0.1000840812921524,
                    -0.029854953289031984,
                    0.14191363751888276,
                    0.2863847017288208,
                    -0.14956310391426087,
                    0.026707589626312257,
                    -0.47538816928863528,
                    -0.15117400884628297,
                    0.119239442050457,
                    0.2874584197998047,
                    -0.003653109073638916,
                    0.4073219299316406,
                    0.26670777797698977,
                    -0.4157710373401642,
                    0.4097394049167633,
                    -0.3540072441101074,
                    0.4367437958717346,
                    -0.2067374587059021,
                    -0.32847151160240176,
                    -0.46701908111572268,
                    -0.11222594976425171,
                    -0.17917460203170777,
                    -0.26429224014282229,
                    -0.09484536200761795,
                    -0.5138497352600098,
                    -0.09936696290969849,
                    -0.2011290192604065,
                    0.03555232286453247,
                    0.38166964054107668,
                    0.12493692338466644,
                    -0.09538468718528748,
                    -0.42899954319000246,
                    0.11444634199142456,
                    0.4088047742843628,
                    0.2278817743062973,
                    -0.25974202156066897,
                    0.14427921175956727,
                    -0.28911852836608889,
                    0.4588685631752014,
                    0.17496322095394135,
                    -0.3082219362258911,
                    0.11365550756454468,
                    0.13146689534187318,
                    -0.019796431064605714,
                    0.17870627343654633,
                    -0.34039467573165896,
                    0.06726199388504029,
                    0.29705488681793215,
                    0.4821368455886841,
                    -0.49103987216949465,
                    -0.1558515429496765,
                    -0.11400061845779419,
                    0.025543510913848878,
                    -0.16138619184494019,
                    -0.23043519258499146,
                    -0.12398749589920044,
                    0.35065972805023196,
                    -0.13863718509674073,
                    -0.06360667943954468,
                    0.11397045850753784,
                    -0.2000858187675476,
                    0.13169479370117188,
                    0.06132221966981888,
                    0.36552953720092776,
                    0.4134790897369385,
                    -0.3375438451766968,
                    -0.03197258710861206,
                    0.19915539026260377,
                    0.11650234460830689,
                    0.3674122095108032,
                    -0.40955284237861636,
                    -0.0425148606300354,
                    -0.3590724468231201,
                    -0.39348745346069338,
                    -0.43726086616516116,
                    -0.018492817878723146,
                    0.060476839542388919,
                    -0.05720013380050659,
                    0.20929907262325288,
                    0.10105031728744507,
                    -0.3689689636230469,
                    -0.39004644751548769,
                    -0.05697382241487503,
                    0.1612008661031723,
                    -0.11960344016551972,
                    0.10832589864730835,
                    0.20795713365077973,
                    -0.005383722484111786,
                    0.14746427536010743,
                    0.05150338262319565,
                    -0.27209848165512087,
                    0.05442748963832855,
                    -0.3563843369483948,
                    -0.2948843240737915,
                    -0.3127950429916382,
                    0.20913754403591157,
                    0.47139298915863039,
                    0.3179333209991455,
                    -0.18693524599075318,
                    -0.4603288173675537,
                    -0.34269264340400698,
                    -0.2205563187599182,
                    -0.156313955783844
                ],
                "biases": [
                    -0.38879263401031496,
                    0.2933860123157501,
                    0.32429075241088869,
                    0.4540671110153198,
                    -0.3120279312133789,
                    -0.4807335138320923,
                    0.1806410402059555,
                    0.4352869987487793,
                    0.06707501411437988,
                    -0.0620076060295105
                ]
            }
        },
        {
            "speciesName": "Small Fish",
            "position": {
                "x": -44.73538589477539,
                "y": 90.4934310913086,
                "z": 0.0
            },
            "velocity": {
                "x": -0.11256226152181626,
                "y": -0.006429699249565601
            },
            "brainData": {
                "layers": [
                    11,
                    8,
                    2
                ],
                "weights": [
                    0.29730337858200076,
                    -0.1000840812921524,
                    -0.029854953289031984,
                    0.14191363751888276,
                    0.2863847017288208,
                    -0.14956310391426087,
                    0.026707589626312257,
                    -0.47538816928863528,
                    -0.15117400884628297,
                    0.119239442050457,
                    0.2874584197998047,
                    -0.003653109073638916,
                    0.4073219299316406,
                    0.26670777797698977,
                    -0.4157710373401642,
                    0.4097394049167633,
                    -0.3540072441101074,
                    0.4367437958717346,
                    -0.2067374587059021,
                    -0.32847151160240176,
                    -0.46701908111572268,
                    -0.11222594976425171,
                    -0.17917460203170777,
                    -0.26429224014282229,
                    -0.09484536200761795,
                    -0.5138497352600098,
                    -0.09936696290969849,
                    -0.2011290192604065,
                    0.03555232286453247,
                    0.38166964054107668,
                    0.12493692338466644,
                    -0.09538468718528748,
                    -0.4190273880958557,
                    0.10788071155548096,
                    0.4088047742843628,
                    0.2278817743062973,
                    -0.25974202156066897,
                    0.14427921175956727,
                    -0.28911852836608889,
                    0.4588685631752014,
                    0.17496322095394135,
                    -0.3082219362258911,
                    0.11365550756454468,
                    0.13146689534187318,
                    -0.019796431064605714,
                    0.17870627343654633,
                    -0.403461754322052,
                    0.06726199388504029,
                    0.29705488681793215,
                    0.4821368455886841,
                    -0.49103987216949465,
                    -0.1558515429496765,
                    -0.11400061845779419,
                    0.025543510913848878,
                    -0.16138619184494019,
                    -0.23043519258499146,
                    -0.12398749589920044,
                    0.35065972805023196,
                    -0.13863718509674073,
                    -0.06360667943954468,
                    0.11397045850753784,
                    -0.2000858187675476,
                    0.13169479370117188,
                    0.06132221966981888,
                    0.36552953720092776,
                    0.4134790897369385,
                    -0.3375438451766968,
                    -0.03197258710861206,
                    0.19915539026260377,
                    0.11650234460830689,
                    0.3674122095108032,
                    -0.40955284237861636,
                    -0.0425148606300354,
                    -0.3590724468231201,
                    -0.39348745346069338,
                    -0.43726086616516116,
                    -0.018492817878723146,
                    0.060476839542388919,
                    -0.05720013380050659,
                    0.20929907262325288,
                    0.10105031728744507,
                    -0.3689689636230469,
                    -0.39004644751548769,
                    -0.05697382241487503,
                    0.1612008661031723,
                    -0.11960344016551972,
                    0.10832589864730835,
                    0.20795713365077973,
                    -0.005383722484111786,
                    0.14746427536010743,
                    0.05150338262319565,
                    -0.27209848165512087,
                    0.05442748963832855,
                    -0.3563843369483948,
                    -0.2948843240737915,
                    -0.3127950429916382,
                    0.20913754403591157,
                    0.47139298915863039,
                    0.3179333209991455,
                    -0.18693524599075318,
                    -0.4603288173675537,
                    -0.34269264340400698,
                    -0.2205563187599182,
                    -0.156313955783844
                ],
                "biases": [
                    -0.38879263401031496,
                    0.2933860123157501,
                    0.32429075241088869,
                    0.4540671110153198,
                    -0.3120279312133789,
                    -0.4807335138320923,
                    0.1806410402059555,
                    0.4352869987487793,
                    0.06707501411437988,
                    -0.0620076060295105
                ]
            }
        },
        {
            "speciesName": "Small Fish",
            "position": {
                "x": -47.20549774169922,
                "y": 90.49575805664063,
                "z": 0.0
            },
            "velocity": {
                "x": -0.006389420945197344,
                "y": 0.14960621297359467
            },
            "brainData": {
                "layers": [
                    11,
                    8,
                    2
                ],
                "weights": [
                    0.29730337858200076,
                    -0.04496070742607117,
                    -0.029854953289031984,
                    0.14191363751888276,
                    0.2863847017288208,
                    -0.14956310391426087,
                    0.026707589626312257,
                    -0.47538816928863528,
                    -0.15117400884628297,
                    0.119239442050457,
                    0.2874584197998047,
                    -0.003653109073638916,
                    0.4073219299316406,
                    0.26670777797698977,
                    -0.4157710373401642,
                    0.4097394049167633,
                    -0.3540072441101074,
                    0.4367437958717346,
                    -0.2067374587059021,
                    -0.32847151160240176,
                    -0.46701908111572268,
                    -0.11222594976425171,
                    -0.17917460203170777,
                    -0.26429224014282229,
                    -0.09484536200761795,
                    -0.5138497352600098,
                    -0.09936696290969849,
                    -0.2011290192604065,
                    0.03555232286453247,
                    0.38166964054107668,
                    0.12493692338466644,
                    -0.09538468718528748,
                    -0.4190273880958557,
                    0.10788071155548096,
                    0.4088047742843628,
                    0.2278817743062973,
                    -0.25532546639442446,
                    0.14427921175956727,
                    -0.28911852836608889,
                    0.4588685631752014,
                    0.17496322095394135,
                    -0.28801047801971438,
                    0.11365550756454468,
                    0.13146689534187318,
                    -0.019796431064605714,
                    0.17870627343654633,
                    -0.403461754322052,
                    0.06726199388504029,
                    0.29705488681793215,
                    0.4821368455886841,
                    -0.49103987216949465,
                    -0.1558515429496765,
                    -0.11400061845779419,
                    0.025543510913848878,
                    -0.16138619184494019,
                    -0.23043519258499146,
                    -0.12398749589920044,
                    0.2614135146141052,
                    -0.13863718509674073,
                    -0.06360667943954468,
                    0.11397045850753784,
                    -0.2000858187675476,
                    0.13169479370117188,
                    0.06132221966981888,
                    0.36552953720092776,
                    0.4134790897369385,
                    -0.41646164655685427,
                    -0.03197258710861206,
                    0.19915539026260377,
                    0.11650234460830689,
                    0.3674122095108032,
                    -0.40955284237861636,
                    -0.0425148606300354,
                    -0.3003567159175873,
                    -0.39348745346069338,
                    -0.43726086616516116,
                    -0.018492817878723146,
                    0.060476839542388919,
                    -0.05720013380050659,
                    0.20929907262325288,
                    0.10105031728744507,
                    -0.3689689636230469,
                    -0.39004644751548769,
                    -0.05697382241487503,
                    0.1612008661031723,
                    -0.11960344016551972,
                    0.10832589864730835,
                    0.20795713365077973,
                    -0.005383722484111786,
                    0.14746427536010743,
                    0.05150338262319565,
                    -0.27209848165512087,
                    0.05442748963832855,
                    -0.3563843369483948,
                    -0.2948843240737915,
                    -0.3127950429916382,
                    0.20913754403591157,
                    0.47139298915863039,
                    0.3008679151535034,
                    -0.19782617688179017,
                    -0.4603288173675537,
                    -0.34269264340400698,
                    -0.2205563187599182,
                    -0.156313955783844
                ],
                "biases": [
                    -0.38879263401031496,
                    0.2933860123157501,
                    0.32429075241088869,
                    0.4540671110153198,
                    -0.3120279312133789,
                    -0.4807335138320923,
                    0.1806410402059555,
                    0.4352869987487793,
                    0.06707501411437988,
                    -0.0620076060295105
                ]
            }
        },
        {
            "speciesName": "Small Fish",
            "position": {
                "x": 29.288240432739259,
                "y": 87.27031707763672,
                "z": 0.0
            },
            "velocity": {
                "x": 1.0814214944839478,
                "y": -1.1316931247711182
            },
            "brainData": {
                "layers": [
                    11,
                    8,
                    2
                ],
                "weights": [
                    0.24433612823486329,
                    -0.1000840812921524,
                    -0.029854953289031984,
                    0.14191363751888276,
                    0.2863847017288208,
                    -0.23821157217025758,
                    -0.01765010505914688,
                    -0.47538816928863528,
                    -0.15117400884628297,
                    0.119239442050457,
                    0.2874584197998047,
                    -0.003653109073638916,
                    0.4044816792011261,
                    0.26670777797698977,
                    -0.4157710373401642,
                    0.45747101306915285,
                    -0.4377530515193939,
                    0.43988537788391116,
                    -0.2067374587059021,
                    -0.32847151160240176,
                    -0.46701908111572268,
                    -0.07757417857646942,
                    -0.17917460203170777,
                    -0.26429224014282229,
                    -0.09484536200761795,
                    -0.5138497352600098,
                    -0.18414974212646485,
                    -0.2011290192604065,
                    0.03555232286453247,
                    0.3240830898284912,
                    0.12311174720525742,
                    -0.0811941921710968,
                    -0.4611469507217407,
                    0.02969292551279068,
                    0.4088047742843628,
                    0.2278817743062973,
                    -0.25974202156066897,
                    0.09280604124069214,
                    -0.28911852836608889,
                    0.3973900079727173,
                    0.17496322095394135,
                    -0.3082219362258911,
                    0.19642484188079835,
                    0.2207026332616806,
                    -0.019796431064605714,
                    0.17870627343654633,
                    -0.3425607681274414,
                    0.06726199388504029,
                    0.29705488681793215,
                    0.4821368455886841,
                    -0.49103987216949465,
                    -0.1558515429496765,
                    -0.11316676437854767,
                    0.025543510913848878,
                    -0.16138619184494019,
                    -0.1904008388519287,
                    -0.12398749589920044,
                    0.35065972805023196,
                    -0.13863718509674073,
                    -0.06360667943954468,
                    0.11397045850753784,
                    -0.2000858187675476,
                    0.13169479370117188,
                    0.06132221966981888,
                    0.36552953720092776,
                    0.4134790897369385,
                    -0.3375438451766968,
                    -0.03197258710861206,
                    0.19915539026260377,
                    0.11650234460830689,
                    0.3674122095108032,
                    -0.40551042556762698,
                    -0.0425148606300354,
                    -0.3590724468231201,
                    -0.39348745346069338,
                    -0.43726086616516116,
                    -0.043351806700229648,
                    0.060476839542388919,
                    -0.05720013380050659,
                    0.20929907262325288,
                    0.10105031728744507,
                    -0.3824358284473419,
                    -0.39004644751548769,
                    -0.05697382241487503,
                    0.1612008661031723,
                    -0.11960344016551972,
                    0.10832589864730835,
                    0.20795713365077973,
                    0.07390978932380676,
                    0.23930667340755464,
                    0.05150338262319565,
                    -0.1905301809310913,
                    0.10668957978487015,
                    -0.3563843369483948,
                    -0.2948843240737915,
                    -0.3127950429916382,
                    0.20913754403591157,
                    0.47139298915863039,
                    0.3179333209991455,
                    -0.18693524599075318,
                    -0.4603288173675537,
                    -0.5057088732719421,
                    -0.2205563187599182,
                    -0.156313955783844
                ],
                "biases": [
                    -0.42519518733024599,
                    0.3891476094722748,
                    0.3113590478897095,
                    0.4540671110153198,
                    -0.3120279312133789,
                    -0.4807335138320923,
                    0.1806410402059555,
                    0.3821406662464142,
                    0.06707501411437988,
                    -0.0620076060295105
                ]
            }
        },
        {
            "speciesName": "Small Fish",
            "position": {
                "x": 28.305164337158204,
                "y": 87.26445007324219,
                "z": 0.0
            },
            "velocity": {
                "x": 1.0814214944839478,
                "y": -1.1316932439804078
            },
            "brainData": {
                "layers": [
                    11,
                    8,
                    2
                ],
                "weights": [
                    0.24433612823486329,
                    -0.1000840812921524,
                    -0.029854953289031984,
                    0.14191363751888276,
                    0.2863847017288208,
                    -0.23821157217025758,
                    -0.01765010505914688,
                    -0.47538816928863528,
                    -0.15117400884628297,
                    0.119239442050457,
                    0.2874584197998047,
                    -0.003653109073638916,
                    0.4044816792011261,
                    0.26670777797698977,
                    -0.4157710373401642,
                    0.45747101306915285,
                    -0.4377530515193939,
                    0.43988537788391116,
                    -0.2067374587059021,
                    -0.32847151160240176,
                    -0.46701908111572268,
                    -0.07757417857646942,
                    -0.17917460203170777,
                    -0.26429224014282229,
                    -0.09484536200761795,
                    -0.5138497352600098,
                    -0.18414974212646485,
                    -0.2011290192604065,
                    0.03555232286453247,
                    0.3240830898284912,
                    0.12311174720525742,
                    -0.0811941921710968,
                    -0.4611469507217407,
                    0.02969292551279068,
                    0.3965153694152832,
                    0.2278817743062973,
                    -0.25974202156066897,
                    0.09280604124069214,
                    -0.28911852836608889,
                    0.3973900079727173,
                    0.17496322095394135,
                    -0.3082219362258911,
                    0.19642484188079835,
                    0.2207026332616806,
                    -0.019796431064605714,
                    0.17870627343654633,
                    -0.3425607681274414,
                    0.06726199388504029,
                    0.29705488681793215,
                    0.4821368455886841,
                    -0.49103987216949465,
                    -0.1558515429496765,
                    -0.11316676437854767,
                    0.025543510913848878,
                    -0.16138619184494019,
                    -0.1904008388519287,
                    -0.12398749589920044,
                    0.35065972805023196,
                    -0.13863718509674073,
                    -0.06360667943954468,
                    0.11397045850753784,
                    -0.13288962841033936,
                    0.13169479370117188,
                    0.06132221966981888,
                    0.36552953720092776,
                    0.4134790897369385,
                    -0.3375438451766968,
                    -0.03197258710861206,
                    0.19915539026260377,
                    0.11650234460830689,
                    0.3674122095108032,
                    -0.40551042556762698,
                    -0.0425148606300354,
                    -0.3590724468231201,
                    -0.39348745346069338,
                    -0.43726086616516116,
                    -0.043351806700229648,
                    0.060476839542388919,
                    -0.05720013380050659,
                    0.1654672920703888,
                    0.10105031728744507,
                    -0.3824358284473419,
                    -0.39004644751548769,
                    -0.05697382241487503,
                    0.1612008661031723,
                    -0.11960344016551972,
                    0.10832589864730835,
                    0.20795713365077973,
                    0.07390978932380676,
                    0.23930667340755464,
                    0.05150338262319565,
                    -0.1905301809310913,
                    0.10668957978487015,
                    -0.3563843369483948,
                    -0.2948843240737915,
                    -0.3127950429916382,
                    0.20913754403591157,
                    0.47139298915863039,
                    0.3179333209991455,
                    -0.18693524599075318,
                    -0.4603288173675537,
                    -0.5057088732719421,
                    -0.2205563187599182,
                    -0.156313955783844
                ],
                "biases": [
                    -0.42519518733024599,
                    0.3891476094722748,
                    0.3113590478897095,
                    0.4540671110153198,
                    -0.3120279312133789,
                    -0.4807335138320923,
                    0.1806410402059555,
                    0.3821406662464142,
                    0.06707501411437988,
                    -0.0620076060295105
                ]
            }
        },
        {
            "speciesName": "Small Fish",
            "position": {
                "x": 50.496429443359378,
                "y": 90.49947357177735,
                "z": 0.0
            },
            "velocity": {
                "x": 0.0,
                "y": 0.0
            },
            "brainData": {
                "layers": [
                    11,
                    8,
                    2
                ],
                "weights": [
                    -0.47689831256866457,
                    0.1537022441625595,
                    0.3596693277359009,
                    -0.28660762310028078,
                    0.17567525804042817,
                    0.2023826688528061,
                    0.10065239667892456,
                    0.3025926351547241,
                    0.3113436698913574,
                    0.40773916244506838,
                    0.002943694591522217,
                    0.4024481773376465,
                    0.19155524671077729,
                    -0.42891502380371096,
                    -0.22733968496322633,
                    0.49486684799194338,
                    -0.08835047483444214,
                    0.22976575791835786,
                    -0.41164159774780276,
                    0.14496122300624848,
                    -0.3563932180404663,
                    -0.2523958683013916,
                    -0.2954331636428833,
                    0.015246331691741944,
                    0.3180208206176758,
                    0.4487452507019043,
                    0.22941921651363374,
                    0.23323772847652436,
                    -0.0584835410118103,
                    -0.4858895540237427,
                    -0.33211636543273928,
                    0.2647794485092163,
                    -0.053222835063934329,
                    -0.07208865880966187,
                    0.1885361522436142,
                    -0.42386841773986819,
                    -0.18657702207565309,
                    0.19327615201473237,
                    -0.017089426517486573,
                    0.31955575942993166,
                    0.010270297527313233,
                    0.3630741834640503,
                    0.18362902104854585,
                    -0.47942471504211428,
                    -0.46464645862579348,
                    0.10109692811965943,
                    0.28814947605133059,
                    0.3591916561126709,
                    -0.09054964780807495,
                    0.05239313840866089,
                    0.3950282335281372,
                    -0.02949744462966919,
                    -0.49791014194488528,
                    -0.47198474407196047,
                    0.38832080364227297,
                    -0.43167591094970705,
                    0.37903809547424319,
                    0.45398175716400149,
                    0.017924487590789796,
                    -0.48941612243652346,
                    0.28570687770843508,
                    0.03970140218734741,
                    -0.44896769523620608,
                    -0.1286211609840393,
                    -0.02941352128982544,
                    -0.3848268985748291,
                    -0.2938232421875,
                    -0.27737462520599368,
                    0.2679036855697632,
                    -0.4192337989807129,
                    -0.007232844829559326,
                    -0.12193423509597779,
                    -0.39554929733276369,
                    0.3847724199295044,
                    -0.015005409717559815,
                    0.17069683969020844,
                    -0.07561641931533814,
                    0.06120342016220093,
                    0.21677421033382417,
                    0.4482332468032837,
                    -0.3265960216522217,
                    0.3244478702545166,
                    -0.019035637378692628,
                    0.24134908616542817,
                    -0.07020729780197144,
                    0.2873399257659912,
                    -0.409732460975647,
                    0.2355947345495224,
                    -0.10159868001937866,
                    0.3128995895385742,
                    -0.07891589403152466,
                    -0.12849336862564088,
                    -0.17429977655410767,
                    -0.4840456247329712,
                    0.4944791793823242,
                    -0.018287956714630128,
                    -0.10189670324325562,
                    -0.47135627269744875,
                    0.46520471572875979,
                    0.14584515988826753,
                    0.03308600187301636,
                    -0.47213971614837649,
                    0.43155038356781008,
                    0.35515761375427248
                ],
                "biases": [
                    -0.406917929649353,
                    0.4198431968688965,
                    -0.4360407590866089,
                    -0.00020319223403930664,
                    0.4873772859573364,
                    -0.26950323581695559,
                    0.23998390138149262,
                    0.49745118618011477,
                    0.477347731590271,
                    0.27272021770477297
                ]
            }
        },
        {
            "speciesName": "Small Fish",
            "position": {
                "x": -18.161285400390626,
                "y": 90.49833679199219,
                "z": 0.0
            },
            "velocity": {
                "x": 0.005498731043189764,
                "y": 0.04647333174943924
            },
            "brainData": {
                "layers": [
                    11,
                    8,
                    2
                ],
                "weights": [
                    0.383355975151062,
                    -0.4838571548461914,
                    0.24308906495571137,
                    -0.4434136152267456,
                    -0.3226050138473511,
                    0.48365747928619387,
                    0.15242813527584077,
                    0.49236321449279787,
                    0.42590582370758059,
                    0.03301733732223511,
                    0.28115081787109377,
                    -0.36835455894470217,
                    -0.17005544900894166,
                    0.012934505939483643,
                    0.03997319936752319,
                    -0.288486123085022,
                    -0.40870535373687746,
                    -0.22058910131454469,
                    -0.2401164174079895,
                    0.4086313247680664,
                    -0.05229538679122925,
                    -0.17368537187576295,
                    0.27492713928222659,
                    -0.29906177520751955,
                    -0.37832677364349368,
                    0.3830195665359497,
                    -0.18165510892868043,
                    -0.16357558965682984,
                    0.007482707500457764,
                    0.32722485065460207,
                    -0.2328372597694397,
                    -0.15035301446914674,
                    -0.09502536058425904,
                    -0.009520113468170166,
                    -0.18793946504592896,
                    -0.31933772563934328,
                    -0.2400009036064148,
                    0.032609760761260989,
                    -0.4865454435348511,
                    -0.10703843832015991,
                    0.0759010910987854,
                    -0.009537160396575928,
                    0.3527638912200928,
                    0.33379507064819338,
                    0.4004255533218384,
                    -0.1578732132911682,
                    0.3519716262817383,
                    0.20428036153316499,
                    0.2634395360946655,
                    -0.32489728927612307,
                    0.11197131872177124,
                    -0.27903997898101809,
                    -0.4545243978500366,
                    0.14710424840450288,
                    -0.2155269980430603,
                    -0.30966484546661379,
                    -0.3902931213378906,
                    -0.203191339969635,
                    0.005719006061553955,
                    0.3299344778060913,
                    -0.10566014051437378,
                    0.28729987144470217,
                    0.31067991256713869,
                    0.1137353777885437,
                    0.3382049798965454,
                    0.09548062086105347,
                    0.27980852127075198,
                    -0.3765127658843994,
                    -0.2910083532333374,
                    -0.47620928287506106,
                    0.1731109470129013,
                    -0.12932556867599488,
                    -0.45431458950042727,
                    0.4144099950790405,
                    0.17789708077907563,
                    -0.3552483320236206,
                    0.020802557468414308,
                    -0.062394678592681888,
                    0.15929673612117768,
                    -0.4992150068283081,
                    -0.4198116064071655,
                    -0.37904512882232668,
                    0.06246131658554077,
                    0.3786121606826782,
                    0.41261720657348635,
                    -0.020060241222381593,
                    0.16308878362178803,
                    -0.4090118408203125,
                    0.2690187692642212,
                    0.21861468255519868,
                    0.4295952320098877,
                    -0.16216713190078736,
                    -0.21138733625411988,
                    -0.327498197555542,
                    0.13033519685268403,
                    0.12177497148513794,
                    0.3880290985107422,
                    -0.05335491895675659,
                    -0.3143141269683838,
                    -0.44111156463623049,
                    -0.23887795209884644,
                    0.3745824098587036,
                    0.14751635491847993,
                    0.3395954370498657
                ],
                "biases": [
                    -0.3332092761993408,
                    0.3649359941482544,
                    -0.4545201063156128,
                    -0.26352429389953616,
                    0.405293345451355,
                    0.22811566293239594,
                    0.4679676294326782,
                    0.18789850175380708,
                    0.12591908872127534,
                    0.12366098165512085
                ]
            }
        },
        {
