{
    "generation": 0,
    "worldType": 0,
    "worldGenSeed": 717.6078491210938,
    "mapChanges": [],
    "creatures": [
        {
            "speciesName": "Big Black Fish",
            "position": {
                "x": 25.68106460571289,
                "y": 91.0,
                "z": 0.0
            },
            "velocity": {
                "x": 0.0,
                "y": 0.0
            },
            "brainData": {
                "layers": [
                    11,
                    8,
                    2
                ],
                "weights": [
                    -0.17738491296768189,
                    -0.14706403017044068,
                    0.43263447284698489,
                    -0.06704550981521607,
                    0.2168193906545639,
                    -0.13155311346054078,
                    0.2511528730392456,
                    -0.21235233545303346,
                    -0.170343816280365,
                    -0.4235416650772095,
                    0.043377697467803958,
                    0.3790806531906128,
                    0.01994103193283081,
                    0.47301602363586428,
                    -0.16403669118881226,
                    0.3240692615509033,
                    -0.006128847599029541,
                    -0.4777411222457886,
                    -0.14719218015670777,
                    -0.3538029193878174,
                    0.1822194904088974,
                    -0.1421172022819519,
                    -0.35285091400146487,
                    -0.4808769226074219,
                    0.2558540105819702,
                    0.01429659128189087,
                    0.0036080479621887209,
                    -0.006856024265289307,
                    0.31442391872406008,
                    -0.278749942779541,
                    0.0902143120765686,
                    -0.031727492809295657,
                    0.3595924377441406,
                    0.12247544527053833,
                    -0.185802161693573,
                    0.07879644632339478,
                    -0.12272793054580689,
                    -0.09009438753128052,
                    0.2720963954925537,
                    0.485876202583313,
                    0.4103214740753174,
                    -0.31859517097473147,
                    0.08065825700759888,
                    -0.22205764055252076,
                    0.2331591695547104,
                    -0.14202243089675904,
                    0.25469422340393069,
                    -0.24103683233261109,
                    0.0759076476097107,
                    -0.22284430265426637,
                    0.026003539562225343,
                    -0.09158569574356079,
                    -0.4009397029876709,
                    -0.16773086786270142,
                    0.10633856058120728,
                    -0.012843906879425049,
                    -0.28449952602386477,
                    -0.006252586841583252,
                    0.39694929122924807,
                    -0.4144096374511719,
                    -0.0160333514213562,
                    -0.10881513357162476,
                    -0.37428414821624758,
                    0.06494194269180298,
                    -0.13301581144332887,
                    -0.3237001895904541,
                    0.0012323260307312012,
                    0.08239573240280152,
                    0.36307358741760256,
                    0.17202173173427583,
                    0.25179898738861086,
                    0.46605825424194338,
                    0.007172048091888428,
                    -0.16094321012496949,
                    -0.4735856056213379,
                    -0.4076310396194458,
                    -0.31121909618377688,
                    0.14752565324306489,
                    0.1859348863363266,
                    -0.37976229190826418,
                    -0.3584113121032715,
                    0.17802785336971284,
                    0.12553726136684419,
                    -0.0118752121925354,
                    -0.12388938665390015,
                    0.32899022102355959,
                    0.40706169605255129,
                    0.15536652505397798,
                    0.196389302611351,
                    -0.4433281421661377,
                    0.019967854022979738,
                    -0.3900768756866455,
                    -0.467171311378479,
                    0.11983054876327515,
                    -0.28821122646331789,
                    -0.053073108196258548,
                    0.03676694631576538,
                    0.271844744682312,
                    -0.14972788095474244,
                    -0.19282931089401246,
                    0.30267417430877688,
                    -0.182248055934906,
                    0.4632531404495239,
                    -0.2126951813697815
                ],
                "biases": [
                    0.428350567817688,
                    0.2691216468811035,
                    -0.43360161781311037,
                    -0.39729785919189455,
                    0.23843131959438325,
                    -0.4295259714126587,
                    -0.27697551250457766,
                    0.1163594126701355,
                    -0.2661665678024292,
                    -0.2823021411895752
                ]
            }
        },
        {
            "speciesName": "Big Black Fish",
            "position": {
                "x": -7.39971923828125,
                "y": 91.0,
                "z": 0.0
            },
            "velocity": {
                "x": 0.0,
                "y": 0.0
            },
            "brainData": {
                "layers": [
                    11,
                    8,
                    2
                ],
                "weights": [
                    0.4448627233505249,
                    0.10209673643112183,
                    0.04654771089553833,
                    -0.1974920630455017,
                    -0.18244308233261109,
                    -0.15636461973190309,
                    0.2368163913488388,
                    -0.017595350742340089,
                    -0.08477991819381714,
                    -0.16478568315505982,
                    0.32809925079345705,
                    0.47407960891723635,
                    -0.41936612129211428,
                    0.4883519411087036,
                    0.48872077465057375,
                    0.380490779876709,
                    0.04566270112991333,
                    0.04057830572128296,
                    0.3132416009902954,
                    0.13679204881191255,
                    -0.4577268362045288,
                    0.41670048236846926,
                    -0.4376627206802368,
                    0.15959464013576508,
                    -0.09069591760635376,
                    0.4833005666732788,
                    -0.44824087619781496,
                    -0.3418949842453003,
                    -0.40013086795806887,
                    0.24813507497310639,
                    0.2785698175430298,
                    -0.3345363140106201,
                    -0.35430002212524416,
                    -0.23591667413711549,
                    -0.1456337571144104,
                    -0.435954213142395,
                    -0.2796250581741333,
                    -0.360312819480896,
                    -0.06876033544540405,
                    0.13464747369289399,
                    -0.26700031757354739,
                    0.1726522296667099,
                    0.038860857486724856,
                    -0.39892303943634035,
                    -0.32860267162323,
                    0.17765258252620698,
                    -0.13295894861221314,
                    0.31777381896972659,
                    0.10601478815078736,
                    -0.331157922744751,
                    -0.1210828423500061,
                    -0.17747479677200318,
                    0.30993545055389407,
                    -0.010017454624176026,
                    0.24099884927272798,
                    0.3776336908340454,
                    0.27426791191101076,
                    -0.09207016229629517,
                    -0.1980159878730774,
                    -0.16919702291488648,
                    0.1587911695241928,
                    0.28630614280700686,
                    -0.1653708815574646,
                    0.03170269727706909,
                    0.036767661571502689,
                    0.4389117956161499,
                    0.046096622943878177,
                    -0.07978242635726929,
                    -0.027883827686309816,
                    -0.11266106367111206,
                    -0.19936233758926392,
                    -0.1539934277534485,
                    0.2391558736562729,
                    0.4570735692977905,
                    0.36970365047454836,
                    0.049838125705718997,
                    -0.2686039209365845,
                    0.18209277093410493,
                    -0.1660894751548767,
                    0.0688442587852478,
                    0.11917537450790405,
                    0.40027284622192385,
                    0.409365177154541,
                    -0.27295708656311037,
                    0.38679707050323489,
                    -0.0653192400932312,
                    0.22280727326869965,
                    -0.449102520942688,
                    -0.14446991682052613,
                    -0.11381644010543823,
                    -0.21819454431533814,
                    -0.289697527885437,
                    -0.3138383626937866,
                    0.29535019397735598,
                    0.04984217882156372,
                    -0.3260737657546997,
                    -0.3312007188796997,
                    -0.03169137239456177,
                    0.05509442090988159,
                    -0.05863374471664429,
                    -0.054301679134368899,
                    0.13690625131130219,
                    -0.07026559114456177,
                    -0.3655712604522705
                ],
                "biases": [
                    0.3496643304824829,
                    0.1519763320684433,
                    -0.13580924272537232,
                    0.04438406229019165,
                    0.2522627115249634,
                    -0.05535489320755005,
                    -0.1369343400001526,
                    -0.2819037437438965,
                    -0.3131282329559326,
                    0.32891225814819338
                ]
            }
        },
        {
            "speciesName": "Small Fish",
            "position": {
                "x": 25.7772216796875,
                "y": 92.98212432861328,
                "z": 0.0
            },
            "velocity": {
                "x": 0.0,
                "y": 0.0
            },
            "brainData": {
                "layers": [
                    11,
                    8,
                    2
                ],
                "weights": [
                    0.264123797416687,
                    0.07675474882125855,
                    0.38127171993255618,
                    -0.10930854082107544,
                    0.3766437768936157,
                    -0.45324814319610598,
                    0.0012835860252380372,
                    0.05788701772689819,
                    0.44912171363830569,
                    0.07783478498458862,
                    0.03254491090774536,
                    0.07861858606338501,
                    0.10875529050827027,
                    0.16182850301265717,
                    -0.019437015056610109,
                    -0.29947733879089358,
                    -0.21269267797470094,
                    -0.13034313917160035,
                    -0.110798180103302,
                    -0.4343438148498535,
                    -0.15013498067855836,
                    -0.47678661346435549,
                    -0.10719186067581177,
                    -0.03906816244125366,
                    0.3560734987258911,
                    0.041787564754486087,
                    0.30325162410736086,
                    -0.14090651273727418,
                    0.4539308547973633,
                    0.23525498807430268,
                    -0.2099328637123108,
                    0.3936511278152466,
                    -0.40285825729370119,
                    0.16511093080043794,
                    0.18358193337917329,
                    0.34659135341644289,
                    0.009451568126678467,
                    0.011944115161895752,
                    0.17715249955654145,
                    0.44669973850250246,
                    0.3105818033218384,
                    -0.14697331190109254,
                    -0.17358654737472535,
                    0.20201323926448823,
                    -0.4773674011230469,
                    -0.4494636058807373,
                    0.40332984924316409,
                    -0.21313029527664185,
                    0.0421871542930603,
                    -0.46173274517059328,
                    0.15474532544612885,
                    0.4037201404571533,
                    -0.4942725896835327,
                    0.2061527818441391,
                    -0.35534894466400149,
                    0.07736128568649292,
                    -0.30882811546325686,
                    -0.13615983724594117,
                    -0.4654819965362549,
                    -0.44379544258117678,
                    -0.014929354190826416,
                    0.35257649421691897,
                    -0.49064087867736819,
                    0.22057519853115083,
                    -0.176089346408844,
                    0.050266921520233157,
                    0.37436556816101076,
                    0.20804093778133393,
                    -0.20414406061172486,
                    -0.12320691347122193,
                    -0.08311575651168823,
                    0.1016497015953064,
                    -0.39191532135009768,
                    -0.09315139055252075,
                    -0.20604819059371949,
                    0.13772259652614594,
                    0.07426315546035767,
                    -0.375882625579834,
                    -0.08010786771774292,
                    0.2679332494735718,
                    -0.3613619804382324,
                    0.33183753490448,
                    0.41960787773132326,
                    -0.10334712266921997,
                    -0.49102044105529787,
                    0.010060131549835205,
                    0.1450655311346054,
                    0.03436332941055298,
                    -0.27790868282318118,
                    -0.11611729860305786,
                    -0.42510008811950686,
                    -0.42152857780456545,
                    -0.3323798179626465,
                    0.10907119512557984,
                    -0.3846033811569214,
                    -0.18848341703414918,
                    0.24134741723537446,
                    0.03191858530044556,
                    -0.353618860244751,
                    0.41771161556243899,
                    0.46214962005615237,
                    -0.4214475154876709,
                    0.22365079820156098,
                    -0.08499914407730103
                ],
                "biases": [
                    0.034597814083099368,
                    0.05439835786819458,
                    0.38190221786499026,
                    0.3158841133117676,
                    0.12730704247951508,
                    -0.23533767461776734,
                    -0.42823338508605959,
                    0.06448894739151001,
                    -0.07748180627822876,
                    0.47426486015319826
                ]
            }
        },
        {
            "speciesName": "Small Fish",
            "position": {
                "x": -34.891746520996097,
                "y": 91.0,
                "z": 0.0
            },
            "velocity": {
                "x": 0.0,
                "y": 0.0
            },
            "brainData": {
                "layers": [
                    11,
                    8,
                    2
                ],
                "weights": [
                    -0.2912684679031372,
                    0.2927577495574951,
                    0.3734598159790039,
                    0.4289923906326294,
                    0.41603589057922366,
                    -0.20917266607284547,
                    0.033375442028045657,
                    -0.45880186557769778,
                    -0.1043437123298645,
                    0.2560999393463135,
                    0.20133815705776215,
                    -0.25249433517456057,
                    -0.08846300840377808,
                    -0.17163747549057008,
                    -0.23342937231063844,
                    0.3161799907684326,
                    -0.008491933345794678,
                    -0.05731159448623657,
                    -0.3709906339645386,
                    -0.0790136456489563,
                    0.37514185905456545,
                    -0.3841499090194702,
                    -0.4606447219848633,
                    0.015524685382843018,
                    -0.25483036041259768,
                    -0.44982993602752688,
                    0.023010194301605226,
                    0.23104606568813325,
                    0.3846874237060547,
                    -0.4273533821105957,
                    0.09789997339248657,
                    0.10991412401199341,
                    0.06084996461868286,
                    0.43766868114471438,
                    -0.12040263414382935,
                    0.36448144912719729,
                    -0.2601745128631592,
                    0.03780907392501831,
                    -0.49237334728240969,
                    -0.105022132396698,
                    -0.22293907403945924,
                    -0.32298338413238528,
                    0.49845778942108157,
                    0.3362964391708374,
                    0.0009220242500305176,
                    -0.32471442222595217,
                    -0.33783745765686037,
                    0.26568710803985598,
                    0.1602930873632431,
                    0.08236068487167359,
                    -0.439772367477417,
                    0.3322935104370117,
                    -0.11190670728683472,
                    -0.44164443016052248,
                    -0.03392857313156128,
                    -0.05034595727920532,
                    0.43465352058410647,
                    0.4073413610458374,
                    -0.09101623296737671,
                    0.2701665163040161,
                    0.2817145586013794,
                    -0.380573034286499,
                    -0.36060988903045657,
                    -0.3084688186645508,
                    -0.30968916416168215,
                    -0.2946639060974121,
                    -0.4371126890182495,
                    -0.05513662099838257,
                    0.4983125925064087,
                    0.036764323711395267,
                    -0.23221451044082642,
                    0.1586611121892929,
                    -0.3935718536376953,
                    0.15076206624507905,
                    0.03759235143661499,
                    -0.25201869010925295,
                    -0.09560948610305786,
                    -0.46451401710510256,
                    0.41496074199676516,
                    0.31171202659606936,
                    -0.31079769134521487,
                    0.4221087694168091,
                    0.19126735627651215,
                    -0.369320273399353,
                    0.42143726348876955,
                    -0.12111836671829224,
                    0.4849865436553955,
                    -0.15929239988327027,
                    -0.061633288860321048,
                    -0.4486461877822876,
                    -0.3230106830596924,
                    -0.3312087059020996,
                    -0.17216545343399049,
                    0.08188062906265259,
                    0.0927695631980896,
                    -0.03725630044937134,
                    0.2255941480398178,
                    -0.3206443786621094,
                    -0.00890427827835083,
                    -0.31079602241516116,
                    0.2278832048177719,
                    0.1787414401769638,
                    -0.07286840677261353,
                    -0.49177753925323489
                ],
                "biases": [
                    0.1470879167318344,
                    0.167916402220726,
                    -0.12999898195266725,
                    0.22296546399593354,
                    -0.04131537675857544,
                    0.4080216884613037,
                    0.28112685680389407,
                    -0.3522378206253052,
                    -0.13166779279708863,
                    -0.3162524700164795
                ]
            }
        },
        {
            "speciesName": "Small Fish",
            "position": {
                "x": -1.0954933166503907,
                "y": 91.0,
                "z": 0.0
            },
            "velocity": {
                "x": 0.0,
                "y": 0.0
            },
            "brainData": {
                "layers": [
                    11,
                    8,
                    2
                ],
                "weights": [
                    -0.02061253786087036,
                    -0.2553527355194092,
                    -0.15386146306991578,
                    0.025973379611968995,
                    0.08882933855056763,
                    0.28367507457733157,
                    0.1246156096458435,
                    0.07987624406814575,
                    -0.05603975057601929,
                    -0.21327096223831178,
                    0.21670423448085786,
                    -0.18819552659988404,
                    0.46987783908843996,
                    0.3756970167160034,
                    0.027422845363616945,
                    -0.19340747594833375,
                    0.0889853835105896,
                    0.3400747776031494,
                    0.4756706953048706,
                    0.057862818241119388,
                    -0.1856890320777893,
                    -0.21162086725234986,
                    0.45588910579681399,
                    0.21667848527431489,
                    0.22975455224514008,
                    -0.17858976125717164,
                    -0.12680977582931519,
                    0.251156210899353,
                    0.16443751752376557,
                    0.3927116394042969,
                    0.42253315448760989,
                    -0.02436274290084839,
                    -0.40927278995513918,
                    -0.14665287733078004,
                    0.07036107778549195,
                    0.09350758790969849,
                    0.1501532644033432,
                    0.20810769498348237,
                    -0.27836906909942629,
                    0.3582923412322998,
                    0.2009410709142685,
                    -0.4650462865829468,
                    0.023225247859954835,
                    -0.33959710597991946,
                    -0.09746569395065308,
                    -0.39342057704925539,
                    -0.48586583137512209,
                    0.43785905838012698,
                    0.3274979591369629,
                    -0.3603801727294922,
                    -0.4666562080383301,
                    -0.4535928964614868,
                    -0.40122461318969729,
                    0.07423466444015503,
                    -0.4686504602432251,
                    0.22506152093410493,
                    -0.22853070497512818,
                    -0.38498568534851076,
                    -0.4219186305999756,
                    -0.20239704847335816,
                    -0.01649099588394165,
                    0.2677762508392334,
                    0.486411452293396,
                    0.48116111755371096,
                    0.23157547414302827,
                    0.3111530542373657,
                    0.007872283458709717,
                    0.1389014571905136,
                    0.4962472915649414,
                    0.1667489856481552,
                    0.49791038036346438,
                    -0.25678586959838869,
                    0.25253236293792727,
                    -0.05336111783981323,
                    0.2892489433288574,
                    -0.4917234182357788,
                    0.15228591859340669,
                    0.45338380336761477,
                    0.3146001100540161,
                    -0.3142359256744385,
                    0.04096108675003052,
                    0.41666555404663088,
                    0.0802200436592102,
                    -0.09102421998977661,
                    -0.00012105703353881836,
                    0.16913972795009614,
                    -0.4520529508590698,
                    0.28923118114471438,
                    -0.04025667905807495,
                    -0.26627683639526369,
                    0.3166337013244629,
                    -0.406095027923584,
                    0.16649113595485688,
                    -0.048121511936187747,
                    0.19986103475093842,
                    -0.1358463168144226,
                    0.059651315212249759,
                    0.4649714231491089,
                    -0.3129448890686035,
                    0.20046506822109223,
                    -0.2152758240699768,
                    0.4788779020309448,
                    -0.19327980279922486,
                    -0.025109469890594484
                ],
                "biases": [
                    -0.21816760301589967,
                    -0.48776233196258547,
                    0.3652569055557251,
                    0.3783673048019409,
                    0.15836332738399507,
                    0.02493375539779663,
                    0.29833412170410159,
                    -0.3469531536102295,
                    0.04677504301071167,
                    -0.032447874546051028
                ]
            }
        },
        {
            "speciesName": "Small Fish",
            "position": {
                "x": 25.740514755249025,
                "y": 94.50956726074219,
                "z": 0.0
            },
            "velocity": {
                "x": 0.0,
                "y": 0.0
            },
            "brainData": {
                "layers": [
                    11,
                    8,
                    2
                ],
                "weights": [
                    0.4939843416213989,
                    0.16816256940364839,
                    0.2621035575866699,
                    0.4922369718551636,
                    0.024005472660064698,
                    0.4699941873550415,
                    0.006874501705169678,
                    -0.4532371759414673,
                    -0.3691222667694092,
                    0.07725948095321655,
                    -0.0010500550270080567,
                    -0.18852394819259644,
                    -0.3718785047531128,
                    -0.1456395983695984,
                    -0.3567476272583008,
                    -0.4704931974411011,
                    -0.044648945331573489,
                    0.17243824899196626,
                    0.3765993118286133,
                    -0.4268721342086792,
                    0.3665417432785034,
                    0.11785823106765747,
                    0.3862196207046509,
                    -0.05390721559524536,
                    0.021180927753448488,
                    -0.21766561269760133,
                    0.05426603555679321,
                    0.36406517028808596,
                    -0.4401458501815796,
                    0.0968591570854187,
                    -0.3722652196884155,
                    -0.2025272250175476,
                    -0.15216141939163209,
                    0.44857895374298098,
                    0.284590482711792,
                    0.15016113221645356,
                    -0.12565404176712037,
                    0.4999924898147583,
                    0.11487489938735962,
                    0.3616396188735962,
                    0.13877271115779878,
                    0.2941112518310547,
                    -0.4091634750366211,
                    -0.48059844970703127,
                    -0.36250734329223635,
                    0.4369089603424072,
                    -0.04062992334365845,
                    0.14156459271907807,
                    -0.3657263517379761,
                    0.010549724102020264,
                    -0.21208077669143678,
                    0.06417912244796753,
                    0.3747823238372803,
                    0.3411436080932617,
                    -0.45829319953918459,
                    -0.15947610139846803,
                    0.4426535367965698,
                    0.10450822114944458,
                    -0.34069645404815676,
                    -0.4244884252548218,
                    0.04899948835372925,
                    0.16635571420192719,
                    0.0976288914680481,
                    0.12889240682125092,
                    0.4041069746017456,
                    0.4128056764602661,
                    0.09213858842849732,
                    0.32332277297973635,
                    -0.4616662263870239,
                    -0.36443519592285159,
                    0.40318453311920168,
                    0.4149051904678345,
                    -0.4314563274383545,
                    0.03327447175979614,
                    -0.4919092655181885,
                    -0.4001123905181885,
                    0.062054216861724856,
                    -0.3093760013580322,
                    0.10192841291427612,
                    -0.042819201946258548,
                    -0.34557199478149416,
                    -0.012561619281768799,
                    -0.36250507831573489,
                    -0.07630819082260132,
                    -0.010177433490753174,
                    0.3772083520889282,
                    -0.03166252374649048,
                    0.05761820077896118,
                    0.46410179138183596,
                    0.1323307603597641,
                    0.30086183547973635,
                    0.48111796379089358,
                    -0.3841041326522827,
                    -0.07973510026931763,
                    0.36476778984069826,
                    0.2445649951696396,
                    -0.23029273748397828,
                    0.011576950550079346,
                    -0.36954033374786379,
                    -0.29872214794158938,
                    -0.1800197958946228,
                    -0.2984219789505005,
                    0.2137993425130844,
                    -0.13079923391342164
                ],
                "biases": [
                    0.1501093953847885,
                    0.4557095766067505,
                    0.10836595296859741,
                    -0.21016031503677369,
                    0.055280864238739017,
                    0.032359540462493899,
                    -0.12633365392684937,
                    -0.4156075716018677,
                    -0.4462437629699707,
                    -0.08323532342910767
                ]
            }
        },
        {
            "speciesName": "Small Fish",
            "position": {
                "x": -7.4755859375,
                "y": 92.98390197753906,
                "z": 0.0
            },
            "velocity": {
                "x": 0.0,
                "y": 0.0
            },
            "brainData": {
                "layers": [
                    11,
                    8,
                    2
                ],
                "weights": [
                    0.49250078201293948,
                    0.45986950397491457,
                    -0.02424412965774536,
                    -0.29537713527679446,
                    0.3754082918167114,
                    -0.036820828914642337,
                    -0.20982640981674195,
                    -0.005896627902984619,
                    -0.045147597789764407,
                    0.1851491779088974,
                    -0.11081808805465698,
                    -0.12408119440078736,
                    -0.37602531909942629,
                    -0.3198310136795044,
                    0.12857721745967866,
                    -0.4653083086013794,
                    0.3587629795074463,
                    0.4660048484802246,
                    0.19183658063411714,
                    -0.08730572462081909,
                    -0.1130111813545227,
                    -0.4984840154647827,
                    -0.42265403270721438,
                    0.1783341020345688,
                    -0.4648400545120239,
                    -0.26878440380096438,
                    -0.04254978895187378,
                    -0.0178261399269104,
                    -0.05615133047103882,
                    0.05339449644088745,
                    -0.3373783826828003,
                    0.30869829654693606,
                    -0.4557229280471802,
                    0.3205488920211792,
                    0.2544245719909668,
                    -0.39822232723236086,
                    0.26862645149230959,
                    0.4435744285583496,
                    0.32005131244659426,
                    0.4393378496170044,
                    0.33896684646606448,
                    0.15348027646541596,
                    -0.3903876543045044,
                    -0.043788254261016849,
                    -0.37637603282928469,
                    -0.0715227723121643,
                    -0.23381632566452027,
                    -0.16454249620437623,
                    -0.19599097967147828,
                    -0.4378509521484375,
                    0.02506774663925171,
                    -0.21995049715042115,
                    0.4369497299194336,
                    -0.08028095960617066,
                    0.36486029624938967,
                    -0.3942979574203491,
                    0.2508431673049927,
                    0.33383727073669436,
                    -0.1522114872932434,
                    0.2619130611419678,
                    0.24323438107967378,
                    0.025894105434417726,
                    -0.4890984296798706,
                    -0.4119037389755249,
                    0.3223949670791626,
                    0.08387964963912964,
                    0.1576772779226303,
                    -0.3335188627243042,
                    0.11211413145065308,
                    0.010319888591766358,
                    0.335055947303772,
                    -0.38403892517089846,
                    -0.18664854764938355,
                    0.22926996648311616,
                    0.23548565804958344,
                    -0.08007627725601196,
                    -0.4290672540664673,
                    -0.45220959186553957,
                    -0.30429279804229739,
                    -0.08048194646835327,
                    -0.12509793043136598,
                    0.1561816781759262,
                    0.33181631565093996,
                    0.35055267810821535,
                    0.39234793186187746,
                    0.3550208806991577,
                    0.3210798501968384,
                    0.08997255563735962,
                    0.04077941179275513,
                    -0.13510125875473023,
                    -0.23418062925338746,
                    0.33602213859558108,
                    -0.19398242235183717,
                    0.4772782325744629,
                    -0.10189586877822876,
                    0.29876112937927248,
                    0.172738179564476,
                    0.2690615653991699,
                    0.08701997995376587,
                    0.08272475004196167,
                    0.15212295949459077,
                    -0.3308948278427124,
                    -0.39009249210357668,
                    0.17767749726772309
                ],
                "biases": [
                    0.3583798408508301,
                    0.004492580890655518,
                    -0.3609575033187866,
                    0.2858530282974243,
                    -0.25446927547454836,
                    0.40857112407684328,
                    0.22378872334957124,
                    0.16790615022182465,
                    0.27839791774749758,
                    -0.26319122314453127
                ]
            }
        },
        {
            "speciesName": "Small Fish",
            "position": {
                "x": 3.0561141967773439,
                "y": 91.0,
                "z": 0.0
            },
            "velocity": {
                "x": 0.0,
                "y": 0.0
            },
            "brainData": {
                "layers": [
                    11,
                    8,
                    2
                ],
                "weights": [
                    0.32526731491088869,
                    -0.17852264642715455,
                    -0.17384082078933717,
                    0.03131800889968872,
                    0.42271101474761965,
                    0.30457985401153567,
                    -0.3105887174606323,
                    0.3607327938079834,
                    -0.04945653676986694,
                    0.07459217309951782,
                    -0.39968812465667727,
                    -0.2104385495185852,
                    -0.4660193920135498,
                    -0.03470522165298462,
                    0.2434910386800766,
                    0.46755552291870119,
                    -0.08973115682601929,
                    -0.40316009521484377,
                    0.13251815736293794,
                    -0.2518773078918457,
                    -0.007830202579498291,
                    -0.23257464170455934,
                    0.05718439817428589,
                    -0.4945199489593506,
                    -0.1636846661567688,
                    -0.27868783473968508,
                    -0.1618526577949524,
                    0.41319406032562258,
                    0.4737499952316284,
                    -0.4897480010986328,
                    0.13856492936611176,
                    -0.0001303553581237793,
                    0.19990156590938569,
                    -0.16906744241714478,
                    -0.32393884658813479,
                    -0.3394594192504883,
                    0.2003835290670395,
                    0.28887689113616946,
                    0.0883679986000061,
                    -0.10552996397018433,
                    -0.28575098514556887,
                    0.15165196359157563,
                    -0.412738561630249,
                    0.44132137298583987,
                    -0.018473803997039796,
                    0.045852601528167728,
                    0.06274634599685669,
                    -0.010101139545440674,
                    -0.4447702169418335,
                    0.0863451361656189,
                    0.08637422323226929,
                    -0.25270307064056399,
                    -0.4370931386947632,
                    -0.1449931263923645,
                    -0.306931734085083,
                    0.4806935787200928,
                    -0.11595529317855835,
                    0.24235747754573823,
                    0.4306994676589966,
                    0.4969182014465332,
                    0.006185948848724365,
                    0.08370786905288696,
                    0.22817324101924897,
                    -0.30028975009918215,
                    0.19030176103115083,
                    0.2111421674489975,
                    0.4933251142501831,
                    0.11014121770858765,
                    0.40107059478759768,
                    0.030765235424041749,
                    -0.23333531618118287,
                    -0.137661874294281,
                    0.22545288503170014,
                    0.14463363587856294,
                    -0.31586503982543948,
                    -0.1366366744041443,
                    -0.3254525661468506,
                    -0.28394901752471926,
                    -0.13605576753616334,
                    0.4214686155319214,
                    0.07779186964035034,
                    -0.1325269341468811,
                    0.08482521772384644,
                    0.3020439147949219,
                    -0.18272632360458375,
                    -0.3382449150085449,
                    -0.35086071491241457,
                    -0.4849104881286621,
                    0.046570003032684329,
                    -0.3307687044143677,
                    -0.04252046346664429,
                    -0.1739901900291443,
                    -0.2993873357772827,
                    0.4157705307006836,
                    -0.14097779989242555,
                    -0.03802007436752319,
                    0.14660118520259858,
                    0.419883131980896,
                    -0.16440659761428834,
                    -0.0004723668098449707,
                    -0.25843656063079836,
                    0.2579495906829834,
                    -0.2638813257217407,
                    0.4871419668197632
                ],
                "biases": [
                    -0.45062685012817385,
                    -0.04653805494308472,
                    0.06590098142623902,
                    -0.10803645849227905,
                    -0.24251645803451539,
                    0.1818162053823471,
                    -0.41088831424713137,
                    0.19424425065517426,
                    -0.16566044092178346,
                    0.2504502534866333
                ]
            }
        },
        {
            "speciesName": "Small Fish",
            "position": {
                "x": 43.515647888183597,
                "y": 91.0,
                "z": 0.0
            },
            "velocity": {
                "x": 0.0,
                "y": 0.0
            },
            "brainData": {
                "layers": [
                    11,
                    8,
                    2
                ],
                "weights": [
                    0.48983705043792727,
                    -0.25881004333496096,
                    0.2061678022146225,
                    0.36724722385406496,
                    0.3636540174484253,
                    0.17322967946529389,
                    -0.4440678358078003,
                    0.3553328514099121,
                    -0.4000288248062134,
                    0.11145144701004029,
                    0.3038899898529053,
                    0.3017747402191162,
                    -0.05188840627670288,
                    0.34403717517852785,
                    0.43117988109588625,
                    0.32506120204925539,
                    -0.00018078088760375977,
                    -0.27255797386169436,
                    -0.2698841094970703,
                    0.13760064542293549,
                    0.04714697599411011,
                    0.18291769921779633,
                    0.013249576091766358,
                    -0.46888744831085207,
                    -0.060192883014678958,
                    -0.4151430130004883,
                    0.12801145017147065,
                    0.15028153359889985,
                    -0.349434494972229,
                    0.09904223680496216,
                    0.30855226516723635,
                    0.4415026903152466,
                    0.11439019441604614,
                    0.08602243661880493,
                    -0.40467870235443118,
                    0.49892354011535647,
                    0.21608899533748628,
                    -0.4674745798110962,
                    -0.38684916496276858,
                    -0.42650020122528078,
                    0.4822896718978882,
                    -0.24939054250717164,
                    -0.16030949354171754,
                    -0.27897918224334719,
                    0.45298027992248537,
                    0.11498945951461792,
                    -0.3835129737854004,
                    -0.4085214138031006,
                    0.3824070692062378,
                    -0.18015557527542115,
                    0.0836980938911438,
                    0.09939664602279663,
                    -0.41723668575286868,
                    0.35203683376312258,
                    0.37217438220977785,
                    0.09722155332565308,
                    0.16183219850063325,
                    0.00517803430557251,
                    0.3231271505355835,
                    0.05847078561782837,
                    -0.44143354892730715,
                    0.3261387348175049,
                    -0.4359239339828491,
                    0.281866192817688,
                    0.1003064513206482,
                    -0.3730957508087158,
                    0.17155586183071137,
                    -0.4029695987701416,
                    0.321050763130188,
                    -0.037425100803375247,
                    0.4956446886062622,
                    0.45809435844421389,
                    -0.14821559190750123,
                    0.28583312034606936,
                    0.1387786716222763,
                    -0.4908260107040405,
                    0.3128129243850708,
                    -0.2666816711425781,
                    0.03857773542404175,
                    0.42028534412384035,
                    -0.45366859436035159,
                    -0.02454441785812378,
                    0.020034730434417726,
                    0.1265110820531845,
                    -0.04112809896469116,
                    0.025472819805145265,
                    0.1439506858587265,
                    0.4024695158004761,
                    -0.16470474004745484,
                    -0.19959312677383424,
                    -0.013307273387908936,
                    -0.10989147424697876,
                    -0.2861924171447754,
                    -0.16936200857162476,
                    0.0934261679649353,
                    0.4435436725616455,
                    -0.17459255456924439,
                    -0.009964048862457276,
                    0.26913750171661379,
                    0.375626802444458,
                    0.4000394344329834,
                    0.16027389466762544,
                    -0.38465166091918948,
                    -0.2825108766555786
                ],
                "biases": [
                    -0.4799790382385254,
                    0.3045119047164917,
                    0.3762342929840088,
                    -0.12952810525894166,
                    -0.3904862403869629,
                    -0.44783544540405276,
                    -0.23314887285232545,
                    0.1260063499212265,
                    -0.27433454990386965,
                    0.3364701271057129
                ]
            }
        },
        {
            "speciesName": "Small Fish",
            "position": {
                "x": -4.632835388183594,
                "y": 91.0,
                "z": 0.0
            },
            "velocity": {
                "x": 0.0,
                "y": 0.0
            },
            "brainData": {
                "layers": [
                    11,
                    8,
                    2
                ],
                "weights": [
                    0.36166834831237795,
                    -0.2078952193260193,
                    -0.043435752391815189,
                    -0.35072624683380129,
                    0.17385922372341157,
                    -0.26873087882995608,
                    -0.3062920570373535,
                    0.44657862186431887,
                    0.1726820319890976,
                    0.051705896854400638,
                    0.07810455560684204,
                    0.42279934883117678,
                    0.4440196752548218,
                    0.04832857847213745,
                    0.14358113706111909,
                    -0.1547413468360901,
                    0.11858874559402466,
                    -0.06117981672286987,
                    -0.22690874338150025,
                    0.023954689502716066,
                    -0.41113734245300295,
                    0.4187343120574951,
                    0.4962955713272095,
                    0.35528016090393069,
                    0.23425482213497163,
                    0.11398154497146607,
                    -0.36616063117980959,
                    0.17906807363033296,
                    -0.45048272609710696,
                    -0.260239839553833,
                    -0.42062699794769289,
                    0.151001438498497,
                    0.2155158370733261,
                    -0.1927158236503601,
                    0.48360955715179446,
                    0.029139697551727296,
                    0.10971873998641968,
                    0.2420118898153305,
                    0.4301184415817261,
                    -0.1997780203819275,
                    0.2379913181066513,
                    -0.20793825387954713,
                    0.4532514810562134,
                    -0.20049697160720826,
                    0.12742947041988374,
                    -0.002337634563446045,
                    0.31294894218444826,
                    0.10268157720565796,
                    -0.030890285968780519,
                    -0.3851323127746582,
                    0.4493992328643799,
                    -0.2846252918243408,
                    -0.19378751516342164,
                    0.34306395053863528,
                    -0.09412068128585816,
                    -0.12031310796737671,
                    -0.4692354202270508,
                    0.40953528881073,
                    -0.01594144105911255,
                    -0.03797954320907593,
                    0.10584884881973267,
                    0.4329862594604492,
                    0.1523955911397934,
                    -0.4105110168457031,
                    -0.26564621925354006,
                    0.4273350238800049,
                    -0.0020551085472106935,
                    -0.46232688426971438,
                    -0.25570905208587649,
                    -0.23043841123580934,
                    0.4152710437774658,
                    0.3176999092102051,
                    0.47410500049591067,
                    -0.46537232398986819,
                    -0.24782758951187135,
                    -0.3726581335067749,
                    -0.3698846101760864,
                    -0.08991402387619019,
                    -0.2951991558074951,
                    0.3580359220504761,
                    0.30832552909851076,
                    -0.380487322807312,
                    -0.045935213565826419,
                    -0.41023051738739016,
                    0.16337750852108003,
                    0.09200161695480347,
                    0.03344041109085083,
                    -0.3137763738632202,
                    0.4518681764602661,
                    0.4828922748565674,
                    -0.3917195796966553,
                    -0.4247920513153076,
                    0.31380021572113039,
                    -0.26422715187072756,
                    0.15641842782497407,
                    0.06553500890731812,
                    0.032165706157684329,
                    -0.00570303201675415,
                    -0.2931109666824341,
                    -0.4439166784286499,
                    0.29710936546325686,
                    0.4824129343032837,
                    0.36129868030548098,
                    -0.019251525402069093
                ],
                "biases": [
                    -0.3881862163543701,
                    -0.3670445680618286,
                    0.42426586151123049,
                    0.20319746434688569,
                    0.3760871887207031,
                    -0.06827586889266968,
                    0.062399327754974368,
                    0.47936952114105227,
                    0.049137651920318606,
                    0.0018212199211120606
                ]
            }
        },
        {
            "speciesName": "Small Fish",
            "position": {
                "x": -12.034969329833985,
                "y": 91.0,
                "z": 0.0
            },
            "velocity": {
                "x": 0.0,
                "y": 0.0
            },
            "brainData": {
                "layers": [
                    11,
                    8,
                    2
                ],
                "weights": [
                    -0.06497329473495484,
                    0.2090991586446762,
                    0.3858983516693115,
                    -0.24190717935562135,
                    -0.012728869915008545,
                    -0.07924944162368775,
                    -0.24156111478805543,
                    0.06736129522323609,
                    -0.2057364583015442,
                    0.48546159267425539,
                    -0.19473451375961305,
                    -0.138125479221344,
                    0.46687281131744387,
                    0.32776153087615969,
                    -0.21856790781021119,
                    -0.2473093867301941,
                    0.4224729537963867,
                    -0.10910075902938843,
                    0.39969348907470705,
                    0.24898682534694673,
                    0.4070011377334595,
                    0.35238099098205569,
                    0.1578187793493271,
                    0.4915961027145386,
                    0.4629237651824951,
                    -0.2311730980873108,
                    -0.12376159429550171,
                    -0.03754526376724243,
                    0.07979720830917359,
                    0.22603975236415864,
                    -0.3437063694000244,
                    0.18146966397762299,
                    0.16169331967830659,
                    -0.29297447204589846,
                    -0.09803158044815064,
                    -0.03613024950027466,
                    -0.3301365375518799,
                    -0.10797160863876343,
                    -0.04321032762527466,
                    -0.1748151183128357,
                    0.3077949285507202,
                    0.36236488819122317,
                    -0.21662431955337525,
                    0.43232011795043948,
                    0.024454057216644288,
                    0.35053765773773196,
                    -0.3722442388534546,
                    -0.3267403841018677,
                    0.2005363553762436,
                    -0.2989382743835449,
                    0.19779585301876069,
                    0.31219029426574709,
                    0.24351190030574799,
                    0.018547236919403077,
                    0.39976608753204348,
                    0.006428897380828857,
                    0.21594439446926118,
                    -0.03975874185562134,
                    0.008783280849456787,
                    -0.0366244912147522,
                    -0.3473445177078247,
                    0.437259316444397,
                    0.4429585933685303,
                    0.3883364200592041,
                    0.3381612300872803,
                    -0.11764484643936157,
                    -0.47882258892059328,
                    -0.47157347202301028,
                    -0.19979971647262574,
                    0.17263875901699067,
                    0.38317203521728518,
                    0.057969868183135989,
                    -0.2817331552505493,
                    0.2910805940628052,
                    -0.30981647968292239,
                    0.09631520509719849,
                    0.2537846565246582,
                    -0.4231325387954712,
                    -0.35089218616485598,
                    -0.10582476854324341,
                    -0.4104757308959961,
                    0.27156972885131838,
                    -0.18117398023605348,
                    0.28569817543029787,
                    0.3133211135864258,
                    -0.15257877111434937,
                    0.3183436393737793,
                    -0.16979867219924928,
                    0.3179745674133301,
                    -0.005610764026641846,
                    0.11211973428726196,
                    0.05568176507949829,
                    0.0931209921836853,
                    -0.11346715688705445,
                    0.056564390659332278,
                    0.28504133224487307,
                    0.20530031621456147,
                    -0.26692700386047366,
                    -0.38727033138275149,
                    -0.1566740870475769,
                    0.4756699800491333,
                    -0.15448051691055299,
                    -0.2360551953315735,
                    0.4558614492416382
                ],
                "biases": [
                    -0.4749898910522461,
                    -0.4649583101272583,
                    0.43906378746032717,
                    0.03527456521987915,
                    0.2925431728363037,
                    0.3700416088104248,
                    0.43990588188171389,
                    -0.06377476453781128,
                    0.39321696758270266,
                    -0.3940105438232422
                ]
            }
        },
        {
            "speciesName": "Small Fish",
            "position": {
                "x": -43.27740478515625,
                "y": 91.0,
                "z": 0.0
            },
            "velocity": {
                "x": 0.0,
                "y": 0.0
            },
            "brainData": {
                "layers": [
                    11,
                    8,
                    2
                ],
                "weights": [
                    -0.3525865077972412,
                    0.45216643810272219,
                    0.4948689937591553,
                    0.2333127111196518,
                    -0.1800670027732849,
                    -0.32967138290405276,
                    -0.3698669672012329,
                    -0.4471784830093384,
                    -0.14834600687026978,
                    0.28188955783843996,
                    0.346896767616272,
                    -0.4437023401260376,
                    -0.09904617071151734,
                    -0.4170248508453369,
                    0.4635186195373535,
                    -0.15406936407089234,
                    -0.1404666304588318,
                    0.1411956399679184,
                    0.3048497438430786,
                    0.1634589284658432,
                    0.05822569131851196,
                    0.41971397399902346,
                    -0.07476598024368286,
                    0.33066225051879885,
                    -0.11595255136489868,
                    -0.05270606279373169,
                    -0.019713103771209718,
                    0.3222717046737671,
                    -0.49449169635772707,
                    0.2829434871673584,
                    -0.12112921476364136,
                    0.3110225200653076,
                    -0.1313803791999817,
                    -0.14682024717330934,
                    -0.044180095195770267,
                    0.021704375743865968,
                    -0.17500847578048707,
                    -0.4312121868133545,
                    0.34773194789886477,
                    0.367484450340271,
                    0.09336608648300171,
                    0.1683809608221054,
                    0.39221251010894778,
                    0.3501242399215698,
                    -0.37022078037261965,
                    0.36572444438934328,
                    0.27752435207366946,
                    0.054570019245147708,
                    -0.23179548978805543,
                    -0.4804598093032837,
                    -0.3942009210586548,
                    -0.26187336444854739,
                    -0.300618052482605,
                    0.1269739717245102,
                    0.4501079320907593,
                    -0.017947018146514894,
                    -0.43128502368927,
                    0.033929646015167239,
                    0.09540396928787232,
                    -0.141431987285614,
                    0.37747299671173098,
                    -0.04641240835189819,
                    -0.09907573461532593,
                    -0.41118931770324709,
                    -0.12758523225784303,
                    0.14602051675319673,
                    0.3260897397994995,
                    -0.2644979953765869,
                    -0.26416897773742678,
                    -0.17332178354263307,
                    0.2468651384115219,
                    -0.14120477437973023,
                    0.13286541402339936,
                    0.06467169523239136,
                    -0.13335508108139039,
                    0.006266534328460693,
                    0.11934787034988404,
                    -0.18907910585403443,
                    -0.030786454677581788,
                    0.21809731423854829,
                    0.49363696575164797,
                    -0.201238214969635,
                    -0.3718301057815552,
                    0.10926967859268189,
                    0.32140016555786135,
                    0.17084692418575288,
                    0.11282569169998169,
                    0.3460899591445923,
                    -0.15614670515060426,
                    -0.2798095941543579,
                    0.44628429412841799,
                    -0.3422952890396118,
                    0.23458288609981538,
                    -0.111117422580719,
                    0.45231330394744875,
                    -0.3017079830169678,
                    -0.4757171869277954,
                    -0.38984215259552,
                    0.06549674272537232,
                    0.26586341857910159,
                    0.07315307855606079,
                    0.06759220361709595,
                    -0.10461395978927612,
                    -0.4864879846572876
                ],
                "biases": [
                    0.4982262849807739,
                    -0.09020715951919556,
                    -0.3754669427871704,
                    0.2904508113861084,
                    0.2515608072280884,
                    0.32656383514404299,
                    0.3332878351211548,
                    -0.3458116054534912,
                    -0.3312075138092041,
                    0.15955255925655366
                ]
            }
        }
    ],
    "foodPositions": [
        {
            "x": 2.6422462463378908,
            "y": 16.374210357666017,
            "z": 0.0
        },
        {
            "x": -42.172447204589847,
            "y": 64.92515563964844,
            "z": 0.0
        },
        {
            "x": -35.16004180908203,
            "y": 84.8345947265625,
            "z": 0.0
        },
        {
            "x": -33.38362121582031,
            "y": 35.922393798828128,
            "z": 0.0
        },
        {
            "x": 16.097976684570314,
            "y": 11.958230972290039,
            "z": 0.0
        },
        {
            "x": 35.558746337890628,
            "y": 48.83910369873047,
            "z": 0.0
        },
        {
            "x": 38.093170166015628,
            "y": 75.150390625,
            "z": 0.0
        },
        {
            "x": 18.029041290283204,
            "y": 37.187782287597659,
            "z": 0.0
        },
        {
            "x": -2.6715736389160158,
            "y": 30.31471061706543,
            "z": 0.0
        },
        {
            "x": 15.480648040771485,
            "y": 64.3056869506836,
            "z": 0.0
        },
        {
            "x": 16.74492645263672,
            "y": 48.47126388549805,
            "z": 0.0
        },
        {
            "x": 11.35400390625,
            "y": 35.102882385253909,
            "z": 0.0
        },
        {
            "x": 35.521053314208987,
            "y": 75.49462127685547,
            "z": 0.0
        },
        {
            "x": 26.0990047454834,
            "y": 68.90996551513672,
            "z": 0.0
        },
        {
            "x": 42.47358703613281,
            "y": 45.93528366088867,
            "z": 0.0
        },
        {
            "x": -24.20879364013672,
            "y": 55.51276397705078,
            "z": 0.0
        },
        {
            "x": -48.65943145751953,
            "y": 79.67550659179688,
            "z": 0.0
        },
        {
            "x": -17.956735610961915,
            "y": 87.56172180175781,
            "z": 0.0
        },
        {
            "x": -28.6619873046875,
            "y": 67.13047790527344,
            "z": 0.0
        },
        {
            "x": -29.329803466796876,
            "y": 62.73088836669922,
            "z": 0.0
        },
        {
            "x": 28.465980529785158,
            "y": 85.29582977294922,
            "z": 0.0
        },
        {
            "x": 45.220489501953128,
            "y": 41.823036193847659,
            "z": 0.0
        },
        {
            "x": 24.044403076171876,
            "y": 72.16162872314453,
            "z": 0.0
        },
        {
            "x": -33.37532043457031,
            "y": 22.532119750976564,
            "z": 0.0
        },
        {
            "x": -20.526397705078126,
            "y": 85.19898223876953,
            "z": 0.0
        },
        {
            "x": 6.738498687744141,
            "y": 87.77783203125,
            "z": 0.0
        },
        {
            "x": 34.45596694946289,
            "y": 80.2530746459961,
            "z": 0.0
        },
        {
            "x": 16.019987106323243,
            "y": 11.307718276977539,
            "z": 0.0
        },
        {
            "x": -24.2398738861084,
            "y": 25.928466796875,
            "z": 0.0
        },
        {
            "x": -28.913070678710939,
            "y": 13.960866928100586,
            "z": 0.0
        },
        {
            "x": 5.7637176513671879,
            "y": 86.78923797607422,
            "z": 0.0
        },
        {
            "x": -22.82941436767578,
            "y": 55.880821228027347,
            "z": 0.0
        },
        {
            "x": -16.08040428161621,
            "y": 50.701908111572269,
            "z": 0.0
        },
        {
            "x": 21.283222198486329,
            "y": 72.1199722290039,
            "z": 0.0
        },
        {
            "x": 48.64775085449219,
            "y": 65.18096160888672,
            "z": 0.0
        },
        {
            "x": -0.9416885375976563,
            "y": 62.0184440612793,
            "z": 0.0
        },
        {
            "x": -24.406675338745118,
            "y": 55.525211334228519,
            "z": 0.0
        },
        {
            "x": -40.7938232421875,
            "y": 19.494831085205079,
            "z": 0.0
        },
        {
            "x": -13.59196662902832,
            "y": 34.575340270996097,
            "z": 0.0
        },
        {
            "x": 35.420570373535159,
            "y": 35.07511520385742,
            "z": 0.0
        },
        {
            "x": 32.759918212890628,
            "y": 30.0396785736084,
            "z": 0.0
        },
        {
            "x": 35.15137481689453,
            "y": 65.74896240234375,
            "z": 0.0
        }
    ]
}