{
    "layers": [
        9,
        7,
        2
    ],
    "weights": [
        0.054649531841278079,
        -0.13226991891860963,
        -0.4592703580856323,
        -0.029184043407440187,
        -0.014872848987579346,
        0.3176841735839844,
        -0.4608956575393677,
        0.3749115467071533,
        0.4971264600753784,
        -0.18257325887680055,
        -0.1673223376274109,
        -0.06288963556289673,
        -0.4599592685699463,
        -0.3693208694458008,
        -0.17914164066314698,
        -0.04450708627700806,
        -0.3435448408126831,
        0.294183611869812,
        0.3542041778564453,
        0.3840128183364868,
        -0.15909165143966676,
        0.10413581132888794,
        -0.17058783769607545,
        0.06788331270217896,
        0.013476431369781495,
        0.02392672747373581,
        0.13061343133449555,
        0.3369133472442627,
        0.04519575834274292,
        0.26958298683166506,
        0.054266512393951419,
        0.041157759726047519,
        0.20846329629421235,
        -0.20859426259994508,
        -0.16115599870681764,
        0.2837761640548706,
        0.2537161111831665,
        0.00023490190505981445,
        0.36339879035949709,
        -0.17932289838790894,
        -0.10351330041885376,
        -0.17860513925552369,
        -0.31550896167755129,
        -0.18403762578964234,
        -0.09534437954425812,
        0.053752005100250247,
        -0.4317312240600586,
        0.09046930074691773,
        0.08340984582901001,
        0.06891769170761109,
        -0.20884889364242555,
        -0.44305419921875,
        -0.24048346281051637,
        -0.2230047583580017,
        -0.185657799243927,
        0.267328143119812,
        0.4569690227508545,
        0.11494314670562744,
        -0.26002705097198489,
        0.19331584870815278,
        -0.4184706211090088,
        -0.35135555267333987,
        -0.36744534969329836,
        -0.28865957260131838,
        -0.05091303586959839,
        -0.1668451577425003,
        0.4528084993362427,
        -0.03325444459915161,
        0.46348822116851809,
        -0.08419448137283325,
        -0.4144706726074219,
        0.0030996203422546388,
        0.3461803197860718,
        0.30576980113983157,
        0.44542449712753298,
        0.35836541652679446,
        -0.06187659502029419
    ],
    "biases": [
        0.00604170560836792,
        -0.013592898845672608,
        0.20688842236995698,
        -0.21930938959121705,
        0.43978551030158999,
        -0.21690446138381959,
        -0.2754322290420532,
        -0.11737006902694702,
        0.10202902555465698
    ]
}