{
    "layers": [
        13,
        9,
        2
    ],
    "weights": [
        -0.276903361082077,
        -0.08845511823892594,
        -0.08314498513936997,
        -0.8114310503005981,
        0.4159362018108368,
        -0.4218238294124603,
        0.21061620116233827,
        0.46367156505584719,
        0.19476085901260377,
        0.18389654159545899,
        0.15731409192085267,
        0.3106880784034729,
        0.04744510352611542,
        -0.517582893371582,
        -0.42667102813720705,
        0.2498684525489807,
        -0.6675982475280762,
        0.4825859069824219,
        -0.3983393907546997,
        0.34916502237319949,
        0.3244059383869171,
        0.17822295427322389,
        0.3233030438423157,
        -0.14118508994579316,
        -0.26259171962738039,
        0.09960094839334488,
        -0.05846046656370163,
        -0.10047838091850281,
        0.7696898579597473,
        -0.10882293432950974,
        -0.344885915517807,
        0.35906293988227847,
        0.30255189538002016,
        -0.33043771982192995,
        0.22000819444656373,
        -0.5475309491157532,
        0.40785717964172366,
        0.5287793278694153,
        -0.2947927713394165,
        -0.3025267422199249,
        -0.15326708555221559,
        0.6919779181480408,
        0.5429103374481201,
        -0.3043481707572937,
        -0.20198339223861695,
        -0.37186309695243838,
        -0.11209329217672348,
        -0.22517076134681703,
        -0.15351751446723939,
        -0.23123133182525636,
        0.26731061935424807,
        -0.4550229012966156,
        0.46729815006256106,
        -0.3108362555503845,
        0.32930952310562136,
        0.06626424193382263,
        0.012622609734535218,
        0.13429692387580872,
        0.06500030308961868,
        -0.20160087943077088,
        0.45998308062553408,
        0.013560689985752106,
        0.23162519931793214,
        0.28481370210647585,
        -0.21994584798812867,
        0.09291083365678787,
        0.015184521675109864,
        -0.313690185546875,
        -0.2919490337371826,
        -0.08107723295688629,
        -0.3178311288356781,
        -0.13270241022109986,
        -0.565237283706665,
        -0.1880524754524231,
        -0.2633264660835266,
        0.42222824692726138,
        -0.4001797139644623,
        -0.03465799242258072,
        -0.37230682373046877,
        -0.24871426820755006,
        0.18267413973808289,
        0.2745361328125,
        -0.37656930088996889,
        -0.47688403725624087,
        -0.4950411319732666,
        -0.20494705438613892,
        -0.11541289836168289,
        -0.09744665771722794,
        -0.14452631771564485,
        -0.16431167721748353,
        0.4057126045227051,
        -0.17091473937034608,
        0.17040470242500306,
        0.216634139418602,
        -0.05217337608337402,
        -0.009023092687129975,
        0.005706213414669037,
        0.05274921655654907,
        -0.006054185330867767,
        0.04785609245300293,
        0.44531047344207766,
        0.45768770575523379,
        -0.12457409501075745,
        0.07691281288862229,
        0.16542589664459229,
        0.6372703313827515,
        0.14062169194221497,
        -0.2465050220489502,
        -0.10333476960659027,
        -0.014858551323413849,
        -0.4263487458229065,
        0.37467509508132937,
        0.4485120177268982,
        0.15963959693908692,
        0.005466476082801819,
        0.005081836134195328,
        0.5317786931991577,
        -0.4778132438659668,
        0.4742637574672699,
        -0.10637736320495606,
        -0.43014606833457949,
        0.4889421761035919,
        0.05396997928619385,
        -0.4154914319515228,
        -0.06454608589410782,
        0.24476617574691773,
        0.4220101833343506,
        -0.631187915802002,
        -0.3573526442050934,
        0.19998498260974885,
        0.30787691473960879,
        -0.1087871864438057,
        0.19983036816120149,
        0.2755715548992157,
        0.1847996711730957
    ],
    "biases": [
        -0.09690162539482117,
        0.15262801945209504,
        -0.11376645416021347,
        0.159582257270813,
        -0.16439256072044373,
        -0.12628239393234254,
        0.18930912017822267,
        -0.038740646094083789,
        -0.36633527278900149,
        0.06774892657995224,
        0.585731029510498
    ]
}