{
    "layers": [
        13,
        9,
        2
    ],
    "weights": [
        -0.43598833680152895,
        -0.0912773609161377,
        -0.25018829107284548,
        -0.7979360222816467,
        0.5197272300720215,
        -0.39956358075141909,
        0.02614404261112213,
        0.7179620265960693,
        0.20036251842975617,
        0.1035565510392189,
        0.3172184228897095,
        0.3332764208316803,
        -0.013361796736717224,
        -0.6280288100242615,
        -0.38475069403648379,
        0.13166746497154237,
        -0.6070036888122559,
        0.49166011810302737,
        -0.37198227643966677,
        0.21694916486740113,
        0.3244059383869171,
        0.20657885074615479,
        0.3266412019729614,
        -0.11044298112392426,
        -0.5017664432525635,
        0.007021650671958923,
        -0.1573476642370224,
        -0.1621277630329132,
        0.6552723050117493,
        -0.0353403240442276,
        -0.34084343910217287,
        0.3750648498535156,
        0.23525193333625794,
        -0.1997290849685669,
        0.3619062304496765,
        -0.6271528005599976,
        0.44422414898872378,
        0.5545377135276794,
        -0.14009332656860352,
        -0.27332478761672976,
        -0.2097478210926056,
        0.7098819017410278,
        0.6756698489189148,
        -0.28969961404800417,
        -0.042481303215026858,
        -0.29435867071151736,
        0.07230155169963837,
        -0.308990478515625,
        -0.21903976798057557,
        -0.2604749798774719,
        0.2105664312839508,
        -0.5017604231834412,
        0.5964867472648621,
        -0.3536958694458008,
        0.4094376564025879,
        0.06626424193382263,
        0.011583976447582245,
        0.14386066794395448,
        0.2301844358444214,
        -0.29644468426704409,
        0.5290917158126831,
        0.013560689985752106,
        0.4348430931568146,
        0.21690025925636292,
        -0.20596782863140107,
        0.23247388005256654,
        0.13148745894432069,
        -0.22070592641830445,
        -0.2877788841724396,
        -0.1354556381702423,
        -0.3178311288356781,
        -0.18707504868507386,
        -0.4509108066558838,
        -0.09704380482435227,
        -0.3694072961807251,
        0.4159105122089386,
        -0.44855788350105288,
        -0.08065415173768997,
        -0.34299346804618838,
        -0.09403116255998612,
        0.0992724671959877,
        0.22544187307357789,
        -0.18753588199615479,
        -0.4160153865814209,
        -0.49979403614997866,
        -0.14061281085014344,
        -0.1535727083683014,
        0.006244301795959473,
        -0.0983697846531868,
        -0.16431167721748353,
        0.2884238362312317,
        -0.2626917362213135,
        0.20289230346679688,
        0.08330407738685608,
        0.039137572050094607,
        -0.14381743967533112,
        -0.12026306241750717,
        0.04305221140384674,
        0.053433001041412356,
        0.029929235577583314,
        0.4295673072338104,
        0.6286574602127075,
        -0.22072190046310426,
        0.13639262318611146,
        -0.07684902846813202,
        0.8543704152107239,
        0.12796339392662049,
        -0.3991357088088989,
        -0.15203887224197389,
        -0.1450991928577423,
        -0.4912845492362976,
        0.8103446960449219,
        0.34891077876091006,
        -0.01934158056974411,
        -0.05323139578104019,
        0.0544380284845829,
        0.6504769921302795,
        -0.5619290471076965,
        0.4488307237625122,
        -0.21998828649520875,
        -0.47213640809059145,
        0.5213338136672974,
        0.05887974798679352,
        -0.2992827892303467,
        -0.035162050276994708,
        0.27646976709365847,
        0.4159529209136963,
        -0.5822158455848694,
        -0.3387366235256195,
        0.17901021242141725,
        0.3000526428222656,
        -0.15499073266983033,
        0.2241516411304474,
        0.2973242402076721,
        0.309276819229126
    ],
    "biases": [
        -0.06921196728944779,
        0.17426389455795289,
        -0.08389295637607575,
        0.3023639917373657,
        -0.22105832397937776,
        -0.16755105555057527,
        0.11206025630235672,
        -0.09144110977649689,
        -0.4265088737010956,
        0.1842767298221588,
        0.5267959237098694
    ]
}