{
    "layers": [
        9,
        7,
        2
    ],
    "weights": [
        1.0826971530914307,
        0.43479618430137637,
        -0.02454151213169098,
        -0.12461180239915848,
        -0.562201738357544,
        0.05807417631149292,
        -0.6599551439285278,
        0.32770854234695437,
        0.4131768047809601,
        -0.7872169017791748,
        -0.6872449517250061,
        0.41410303115844729,
        -0.829934298992157,
        -0.35983583331108096,
        0.21791747212409974,
        -0.8083509802818298,
        0.3484892249107361,
        -0.5603341460227966,
        -1.021028995513916,
        -0.41435694694519045,
        -0.2292979657649994,
        -0.5040202736854553,
        -0.48239320516586306,
        0.023086562752723695,
        0.20148923993110658,
        0.015392135828733445,
        0.33186906576156618,
        0.1648123562335968,
        0.08327362686395645,
        0.31199580430984499,
        -0.008996117860078812,
        0.0685710534453392,
        -0.019039101898670198,
        -0.7822978496551514,
        0.283939003944397,
        -0.30118727684020998,
        -0.5116119980812073,
        -0.3935388922691345,
        -0.4329174757003784,
        -1.088549017906189,
        0.17653490602970124,
        0.3139486610889435,
        -0.4795946776866913,
        0.38367193937301638,
        0.14196079969406129,
        -0.45655083656311037,
        -0.7082639336585999,
        -0.30916300415992739,
        -0.3830874562263489,
        0.015482321381568909,
        0.01619410514831543,
        -0.09297215193510056,
        -0.08396749943494797,
        -0.6565694808959961,
        0.530668318271637,
        1.0239622592926026,
        0.40079259872436526,
        -0.3508325517177582,
        -0.010502319782972336,
        -0.375582218170166,
        0.029032506048679353,
        -0.6214839220046997,
        -0.17144832015037538,
        -0.7432348132133484,
        -0.5331628322601318,
        0.3170652985572815,
        -0.08297166973352432,
        -0.6051467657089233,
        0.1950799971818924,
        -0.5831246376037598,
        -0.07273309677839279,
        -0.3368982970714569,
        -0.5910976529121399,
        -0.13210690021514893,
        -0.4934197962284088,
        0.1938251107931137,
        0.005309984087944031
    ],
    "biases": [
        0.0063612498342990879,
        -0.44631245732307436,
        0.20625081658363343,
        0.38345345854759219,
        1.0140098333358765,
        0.3457657992839813,
        -0.5164700746536255,
        0.5596423149108887,
        1.5549787282943726
    ]
}