{
    "layers": [
        13,
        9,
        2
    ],
    "weights": [
        -0.5115556120872498,
        0.01414363831281662,
        0.19770365953445435,
        -0.7979360222816467,
        0.5276527404785156,
        -0.39956358075141909,
        0.02614404261112213,
        0.6110960245132446,
        0.2974581718444824,
        0.1035565510392189,
        0.2690657675266266,
        0.5280233025550842,
        0.011532604694366455,
        -0.7374712824821472,
        -0.6114442944526672,
        0.26082247495651247,
        -0.5843777060508728,
        0.4825859069824219,
        -0.37198227643966677,
        0.34119129180908205,
        0.3244059383869171,
        0.39696428179740908,
        0.4265978932380676,
        -0.14789758622646333,
        -0.3109261691570282,
        0.007021650671958923,
        -0.2192302942276001,
        -0.10957811772823334,
        0.5321440696716309,
        -0.0305262953042984,
        -0.4509640336036682,
        0.3750648498535156,
        0.13652697205543519,
        -0.25710564851760867,
        0.3058502674102783,
        -0.6271528005599976,
        0.4855761229991913,
        0.45591405034065249,
        -0.060294412076473239,
        -0.2268003523349762,
        -0.2097478210926056,
        0.6480280756950378,
        0.5317440032958984,
        -0.16953112185001374,
        -0.018664561212062837,
        -0.3422015905380249,
        -0.019915446639060975,
        -0.308990478515625,
        -0.1432422697544098,
        -0.2287409007549286,
        0.2105664312839508,
        -0.4427913427352905,
        0.46861565113067629,
        -0.34778445959091189,
        0.3405587077140808,
        0.06626424193382263,
        -0.017219848930835725,
        0.25883495807647707,
        0.16431784629821778,
        -0.3418335020542145,
        0.5058413147926331,
        0.061196304857730868,
        0.21970251202583314,
        0.3921499252319336,
        -0.04285794496536255,
        0.37171801924705508,
        0.10711291432380676,
        -0.2808440029621124,
        -0.11730828136205673,
        -0.07904264330863953,
        -0.3178311288356781,
        -0.2667290270328522,
        -0.484258234500885,
        -0.08006707578897476,
        -0.5157725214958191,
        0.4159105122089386,
        -0.4885246753692627,
        -0.14026802778244019,
        -0.3469668924808502,
        -0.2478441596031189,
        0.14632785320281983,
        0.17642201483249665,
        -0.2864190936088562,
        -0.27540281414985659,
        -0.4901261329650879,
        -0.20514845848083497,
        -0.3161901831626892,
        0.10414814203977585,
        -0.1829300969839096,
        -0.23082080483436585,
        0.41254159808158877,
        -0.1811981201171875,
        0.23969826102256776,
        0.12377440929412842,
        0.04539903253316879,
        -0.22298218309879304,
        -0.13561275601387025,
        0.13407891988754273,
        0.11992643028497696,
        0.029337123036384584,
        0.4295673072338104,
        0.5138765573501587,
        -0.09442605823278427,
        0.216879740357399,
        -0.11850203573703766,
        0.6266998052597046,
        0.14117248356342317,
        -0.3381183445453644,
        -0.3221617639064789,
        -0.04270259663462639,
        -0.46858832240104678,
        0.3760080635547638,
        0.34891077876091006,
        0.004369668662548065,
        0.1424744725227356,
        0.2737284302711487,
        0.7334851026535034,
        -0.5619290471076965,
        0.4488307237625122,
        -0.1216006651520729,
        -0.4475387930870056,
        0.3314732015132904,
        0.06447473168373108,
        -0.2968581020832062,
        -0.0933869257569313,
        0.21311303973197938,
        0.37328261137008669,
        -0.5400288701057434,
        -0.423211008310318,
        0.17780934274196626,
        0.3000526428222656,
        -0.19905701279640199,
        0.285908043384552,
        0.25958842039108279,
        0.3056696355342865
    ],
    "biases": [
        -0.17097902297973634,
        0.17426389455795289,
        -0.08389295637607575,
        0.344485878944397,
        -0.20549510419368745,
        -0.2841067612171173,
        0.19781804084777833,
        -0.10847467184066773,
        -0.37636053562164309,
        0.16272960603237153,
        0.4606681168079376
    ]
}