{
    "layers": [
        9,
        7,
        2
    ],
    "weights": [
        0.6203274726867676,
        0.08672279119491577,
        0.13042782247066499,
        0.07712125778198242,
        0.08159776031970978,
        -0.37970152497291567,
        0.42997339367866518,
        0.27024438977241518,
        0.20620369911193849,
        -0.5606311559677124,
        -0.37838876247406008,
        0.20853188633918763,
        -0.1777629256248474,
        -0.08338421583175659,
        -0.5672400593757629,
        0.025000885128974916,
        -0.3337395489215851,
        0.2604200839996338,
        0.24528732895851136,
        0.09064647555351258,
        0.04509173333644867,
        0.17322209477424622,
        -0.20182359218597413,
        -0.13265514373779298,
        -0.3025609254837036,
        0.43477708101272585,
        0.3269996643066406,
        0.0171327143907547,
        -0.12884920835494996,
        0.4507339894771576,
        0.042023658752441409,
        0.4098151922225952,
        -0.03964550420641899,
        0.03390590474009514,
        0.42011961340904238,
        -0.026119530200958253,
        0.28793394565582278,
        -0.03195555508136749,
        -0.015695787966251375,
        0.1875458061695099,
        0.028670132160186769,
        -0.41196608543395998,
        0.04665621370077133,
        -0.19145673513412476,
        -0.10386230051517487,
        -0.1533445417881012,
        0.1673913598060608,
        -0.35915058851242068,
        -0.151797354221344,
        0.41853228211402895,
        0.19680534303188325,
        0.5268467664718628,
        -0.37092676758766177,
        0.3444538116455078,
        -0.32209819555282595,
        0.10238421708345413,
        -0.5249943137168884,
        0.06130729988217354,
        0.022414281964302064,
        0.11533993482589722,
        0.1483210176229477,
        0.007960334420204163,
        0.042150698602199557,
        0.4622977375984192,
        -0.4024656414985657,
        -0.4579532742500305,
        0.44388821721076968,
        0.5934235453605652,
        -0.37700074911117556,
        -0.02710350975394249,
        -0.27410823106765749,
        -0.008221346884965897,
        -0.025470435619354249,
        0.6939568519592285,
        0.14674067497253419,
        -0.50192791223526,
        0.5388837456703186
    ],
    "biases": [
        0.16307759284973145,
        0.21658757328987122,
        -0.09746892005205155,
        0.1532299518585205,
        0.19149495661258698,
        -0.452657014131546,
        -0.39396464824676516,
        0.41977688670158389,
        0.6178390979766846
    ]
}