{
    "layers": [
        13,
        9,
        2
    ],
    "weights": [
        0.23043952882289887,
        -0.11910122632980347,
        0.14682887494564057,
        -0.4298306703567505,
        0.2491813749074936,
        -0.39633429050445559,
        0.19019030034542085,
        -0.1321612000465393,
        -0.07424968481063843,
        -0.3877570629119873,
        0.3765578269958496,
        -0.39792728424072268,
        -0.3687882423400879,
        -0.393388032913208,
        -0.37987422943115237,
        0.4651920795440674,
        -0.46168434619903567,
        0.2917466163635254,
        -0.09810060262680054,
        0.17975758016109467,
        -0.3716719150543213,
        0.49559879302978518,
        -0.3073999881744385,
        0.29012060165405276,
        0.2644658088684082,
        0.1332598775625229,
        0.1711786836385727,
        -0.03892868757247925,
        0.43298208713531496,
        -0.4828953742980957,
        -0.45523500442504885,
        -0.13931876420974732,
        -0.01306527853012085,
        -0.32326364517211916,
        0.08688348531723023,
        0.14592348039150239,
        -0.17691224813461305,
        0.38158631324768069,
        -0.28448665142059328,
        0.24113093316555024,
        -0.3140103816986084,
        -0.17218071222305299,
        -0.38783133029937746,
        -0.26430702209472659,
        -0.31998157501220705,
        -0.49899351596832278,
        -0.2425951361656189,
        -0.09705394506454468,
        -0.4565526247024536,
        0.23368404805660249,
        0.027715861797332765,
        -0.42753589153289797,
        0.4603205919265747,
        -0.005690872669219971,
        0.18514381349086762,
        -0.040345847606658939,
        0.08402842283248902,
        0.060025155544281009,
        -0.4170093536376953,
        0.1742231696844101,
        -0.41507482528686526,
        0.147491917014122,
        -0.1358698010444641,
        -0.016238391399383546,
        -0.2932114601135254,
        0.2394544929265976,
        -0.30442237854003909,
        -0.4899330139160156,
        0.09959083795547486,
        -0.16085559129714967,
        0.29471778869628909,
        -0.052954018115997317,
        -0.48375630378723147,
        0.2007891982793808,
        -0.16555696725845338,
        0.49932587146759035,
        -0.24701851606369019,
        0.4388141632080078,
        -0.3043175935745239,
        0.3222857713699341,
        0.09499341249465943,
        0.3242666721343994,
        -0.2537956237792969,
        -0.21920055150985719,
        0.1578495353460312,
        0.029389917850494386,
        -0.4001598358154297,
        0.19435642659664155,
        -0.359607458114624,
        -0.05063527822494507,
        0.12040704488754273,
        -0.07697123289108277,
        0.42927980422973635,
        0.22609959542751313,
        -0.08539527654647827,
        -0.004987895488739014,
        -0.3137408494949341,
        0.4396427869796753,
        -0.14643722772598267,
        0.18916843831539155,
        0.16363142430782319,
        0.41697537899017336,
        0.456895112991333,
        -0.023866117000579835,
        -0.39458930492401125,
        0.41735148429870608,
        -0.4413212537765503,
        0.26374852657318118,
        -0.08954352140426636,
        -0.17222195863723756,
        0.19325457513332368,
        0.28579676151275637,
        0.16604720056056977,
        0.1229906678199768,
        -0.37734293937683108,
        -0.3083949089050293,
        0.15875934064388276,
        -0.4922586679458618,
        0.35896480083465578,
        -0.26073944568634035,
        0.4324371814727783,
        0.41442668437957766,
        0.08560127019882202,
        -0.00835484266281128,
        -0.15398579835891725,
        0.11415368318557739,
        -0.20207327604293824,
        0.0003326535224914551,
        -0.1286521553993225,
        -0.08622103929519654,
        0.08812528848648071,
        -0.027656257152557374,
        -0.437158465385437,
        0.20203553140163423,
        0.06639569997787476
    ],
    "biases": [
        -0.23015671968460084,
        0.4860914945602417,
        -0.23834460973739625,
        0.23794256150722505,
        0.14264486730098725,
        -0.10736817121505737,
        0.4301290512084961,
        -0.41312193870544436,
        -0.4204442501068115,
        -0.04222458600997925,
        0.1431712955236435
    ]
}