{
    "layers": [
        13,
        9,
        2
    ],
    "weights": [
        0.23043952882289887,
        -0.11910122632980347,
        0.14682887494564057,
        -0.4298306703567505,
        0.2974971532821655,
        -0.29973965883255007,
        0.2721763253211975,
        -0.1701710820198059,
        -0.02024170383810997,
        -0.3877570629119873,
        0.4699654281139374,
        -0.39792728424072268,
        -0.3687882423400879,
        -0.4430403709411621,
        -0.44997915625572207,
        0.4651920795440674,
        -0.46168434619903567,
        0.2917466163635254,
        -0.19249317049980164,
        0.17975758016109467,
        -0.3716719150543213,
        0.5944327116012573,
        -0.3073999881744385,
        0.22624200582504273,
        0.20007947087287904,
        0.1332598775625229,
        0.1711786836385727,
        -0.03892868757247925,
        0.4871448874473572,
        -0.441527783870697,
        -0.45523500442504885,
        -0.13931876420974732,
        0.0562211349606514,
        -0.2397339642047882,
        0.15734347701072694,
        0.14592348039150239,
        -0.17691224813461305,
        0.38158631324768069,
        -0.28448665142059328,
        0.24420225620269776,
        -0.23230817914009095,
        -0.1400219351053238,
        -0.3436447083950043,
        -0.32255440950393679,
        -0.31998157501220705,
        -0.49899351596832278,
        -0.2425951361656189,
        -0.05267588049173355,
        -0.4565526247024536,
        0.3187451660633087,
        0.027715861797332765,
        -0.42753589153289797,
        0.3784015476703644,
        -0.005690872669219971,
        0.18514381349086762,
        0.022059209644794465,
        0.08402842283248902,
        0.060025155544281009,
        -0.4170093536376953,
        0.25443416833877566,
        -0.41507482528686526,
        0.147491917014122,
        -0.1358698010444641,
        -0.016238391399383546,
        -0.2932114601135254,
        0.149459570646286,
        -0.33028388023376467,
        -0.4899330139160156,
        0.13679344952106477,
        -0.08363031595945358,
        0.29471778869628909,
        -0.019534461200237275,
        -0.48375630378723147,
        0.2007891982793808,
        -0.17996791005134583,
        0.49932587146759035,
        -0.24701851606369019,
        0.4388141632080078,
        -0.23524630069732667,
        0.4024869501590729,
        0.017121724784374238,
        0.3204632103443146,
        -0.2537956237792969,
        -0.24103006720542909,
        0.07324942201375961,
        -0.10792455077171326,
        -0.47153955698013308,
        0.1661936640739441,
        -0.41132527589797976,
        -0.05063527822494507,
        0.12040704488754273,
        -0.07697123289108277,
        0.42927980422973635,
        0.22609959542751313,
        -0.09375133365392685,
        -0.004987895488739014,
        -0.24026432633399964,
        0.5056712627410889,
        -0.1503259241580963,
        0.14856773614883424,
        0.16363142430782319,
        0.43451976776123049,
        0.46945974230766299,
        0.0087377168238163,
        -0.4268111288547516,
        0.44308680295944216,
        -0.48940759897232058,
        0.1660192608833313,
        -0.08954352140426636,
        -0.18748125433921815,
        0.19325457513332368,
        0.24673926830291749,
        0.11715743690729141,
        0.03212522715330124,
        -0.3714875876903534,
        -0.3144562840461731,
        0.15875934064388276,
        -0.5495747327804565,
        0.36449307203292849,
        -0.26073944568634035,
        0.4324371814727783,
        0.3833938539028168,
        0.08560127019882202,
        -0.00835484266281128,
        -0.20062607526779176,
        0.17498648166656495,
        -0.20207327604293824,
        0.0003326535224914551,
        -0.1286521553993225,
        -0.08622103929519654,
        0.08812528848648071,
        -0.027656257152557374,
        -0.437158465385437,
        0.20203553140163423,
        0.14713630080223084
    ],
    "biases": [
        -0.23015671968460084,
        0.48634272813796999,
        -0.23834460973739625,
        0.22496633231639863,
        0.14264486730098725,
        -0.10736817121505737,
        0.5156964063644409,
        -0.41312193870544436,
        -0.5144262909889221,
        -0.04222458600997925,
        0.16120342910289765
    ]
}