{
    "layers": [
        9,
        7,
        2
    ],
    "weights": [
        0.3900355100631714,
        0.434009313583374,
        -0.13589830696582795,
        0.11136249452829361,
        -0.5377752780914307,
        -0.0261685848236084,
        -1.055128574371338,
        0.5114866495132446,
        0.2376125454902649,
        0.2792373299598694,
        -0.06157049164175987,
        -0.48929569125175478,
        0.4671451151371002,
        0.024465028196573259,
        0.2585860788822174,
        -0.03718378767371178,
        -0.13503503799438477,
        0.13168641924858094,
        -0.0008367970585823059,
        -0.7223167419433594,
        -0.38747504353523257,
        0.2582390010356903,
        0.387886643409729,
        0.10903897136449814,
        -0.45132264494895937,
        0.06469942629337311,
        0.1851135492324829,
        0.008359339088201523,
        -0.5928295254707336,
        0.49397677183151247,
        0.640127420425415,
        -0.16916394233703614,
        -0.34017008543014529,
        -0.02055668830871582,
        0.39585164189338686,
        -0.023377202451229097,
        0.011472858488559723,
        -0.6075219511985779,
        0.5662068128585815,
        0.23303118348121644,
        -0.21200239658355714,
        -0.006765134632587433,
        0.027799472212791444,
        -0.04249141737818718,
        0.07178725302219391,
        0.3478526175022125,
        0.3508412837982178,
        -0.15974855422973634,
        -0.12402889877557755,
        -0.3557194173336029,
        -0.041785478591918948,
        -0.3392373025417328,
        -0.2597619593143463,
        0.1044764444231987,
        -0.7836698889732361,
        -0.6469185948371887,
        -0.5222291350364685,
        -0.6839838027954102,
        -0.5100734829902649,
        -0.6830725073814392,
        0.6308082938194275,
        -0.13872146606445313,
        -0.7265805006027222,
        -0.33430957794189455,
        -0.40353816747665408,
        0.01843520998954773,
        -0.5347387194633484,
        0.3666951358318329,
        0.35552316904067995,
        -0.4785117208957672,
        -0.29416424036026,
        0.1349828839302063,
        -0.09497031569480896,
        0.5232104659080505,
        0.038690440356731418,
        0.20845738053321839,
        -0.45684850215911868
    ],
    "biases": [
        -0.16624045372009278,
        -0.17929470539093018,
        -0.08224176615476608,
        0.13686184585094453,
        0.07446560263633728,
        0.49389731884002688,
        -0.19037453830242158,
        0.6586460471153259,
        0.28733134269714358
    ]
}