{
    "layers": [
        9,
        7,
        2
    ],
    "weights": [
        0.19068358838558198,
        0.37946319580078127,
        -0.008745849132537842,
        0.02570420503616333,
        0.25902485847473147,
        -0.17791897058486939,
        0.04025465250015259,
        -0.1822526901960373,
        -0.42933177947998049,
        0.195615753531456,
        0.307956337928772,
        0.2587728500366211,
        -0.46191146969795229,
        0.26586997509002688,
        0.49531102180480959,
        0.4374847710132599,
        0.32544994354248049,
        0.5123599767684937,
        -0.3034583330154419,
        0.49624812602996828,
        0.18042999505996705,
        -0.24761956930160523,
        -0.11787301301956177,
        0.45504847168922427,
        0.37410593032836916,
        -0.21814638376235963,
        0.49473345279693606,
        0.019363701343536378,
        0.4138796329498291,
        -0.5153638124465942,
        0.45017361640930178,
        -0.09544914960861206,
        -0.11305707693099976,
        -0.4487367868423462,
        0.18582163751125337,
        -0.16473489999771119,
        0.04515165090560913,
        0.3773319721221924,
        -0.24631249904632569,
        -0.40837597846984866,
        -0.12167924642562866,
        0.26501429080963137,
        0.4471733570098877,
        -0.012564003467559815,
        0.19706295430660249,
        0.12525533139705659,
        -0.23698502779006959,
        -0.16151827573776246,
        -0.23383957147598267,
        0.31169116497039797,
        -0.23307399451732636,
        -0.2867521047592163,
        0.2810577154159546,
        0.36633384227752688,
        0.30634021759033205,
        -0.4342395067214966,
        0.12180978059768677,
        -0.297853946685791,
        0.3676607608795166,
        -0.056871116161346439,
        0.15386520326137544,
        0.3023035526275635,
        -0.218611478805542,
        0.046610891819000247,
        -0.21365171670913697,
        -0.013284027576446534,
        -0.14624518156051637,
        -0.018810808658599855,
        0.22028325498104096,
        0.08721858263015747,
        -0.12456125020980835,
        -0.3153817653656006,
        -0.4167855978012085,
        0.37061405181884768,
        -0.38808751106262209,
        -0.04271358251571655,
        -0.09372089058160782
    ],
    "biases": [
        0.2702103853225708,
        -0.08812572807073593,
        -0.4121624231338501,
        0.4505563974380493,
        -0.07015103101730347,
        -0.38581034541130068,
        0.24801133573055268,
        -0.3130226135253906,
        -0.09481745958328247
    ]
}