{
    "layers": [
        9,
        7,
        2
    ],
    "weights": [
        0.5817440152168274,
        0.13823625445365907,
        0.20452645421028138,
        0.5996150374412537,
        -0.07827284187078476,
        -0.237848162651062,
        0.3888131082057953,
        -0.3933912515640259,
        0.1786474883556366,
        0.16875237226486207,
        -0.263423889875412,
        0.18735802173614503,
        -0.012484628707170487,
        0.16490092873573304,
        0.2820904552936554,
        0.3043956756591797,
        -0.16854631900787354,
        -0.31460851430892947,
        -1.1696655750274659,
        0.03173437714576721,
        0.020174510776996614,
        -0.3756215274333954,
        -0.29221731424331667,
        -0.07274831086397171,
        0.44992950558662417,
        -0.21998253464698792,
        0.07267437875270844,
        -0.2925589680671692,
        -0.0651552751660347,
        0.44492170214653017,
        0.38202065229415896,
        -0.0860876813530922,
        -0.704754114151001,
        0.609208881855011,
        0.21978935599327088,
        0.16040094196796418,
        -0.8456186652183533,
        0.18336975574493409,
        -0.1912379413843155,
        0.33506107330322268,
        -0.31167206168174746,
        -0.519293487071991,
        0.05389858037233353,
        -0.4997209906578064,
        -0.37454038858413699,
        0.14164575934410096,
        -0.082035593688488,
        0.4314444065093994,
        -0.677068829536438,
        -0.024106137454509736,
        -0.11000803858041763,
        0.3116483688354492,
        -0.057400159537792209,
        -0.20264515280723573,
        0.29323115944862368,
        -0.3580645024776459,
        -0.07859420776367188,
        0.4794991612434387,
        -0.5824962854385376,
        -0.40920644998550417,
        -0.3592585325241089,
        0.11306300759315491,
        0.39748018980026247,
        -0.476627379655838,
        -0.13682503998279572,
        -0.011940598487854004,
        -0.2573116421699524,
        0.6267066597938538,
        0.09009217470884323,
        -0.3541904091835022,
        -0.5957842469215393,
        -0.4660906195640564,
        -0.74803227186203,
        -0.20917147397994996,
        -0.5887770056724548,
        0.4548669755458832,
        0.10384620726108551
    ],
    "biases": [
        0.1604313850402832,
        -0.4728185534477234,
        -0.2790418863296509,
        0.5070511102676392,
        0.4857802987098694,
        0.7705116271972656,
        -0.18650922179222108,
        0.47856849431991579,
        0.24025824666023255
    ]
}