{
    "generation": 0,
    "layers": [
        9,
        7,
        2
    ],
    "weights": [
        -0.3155120015144348,
        -0.10232335329055786,
        0.07342974841594696,
        0.459607869386673,
        -0.23989491164684297,
        -0.12193459272384644,
        0.06642013788223267,
        0.1303899884223938,
        -0.18082931637763978,
        -0.0005864426493644714,
        -0.3576326370239258,
        0.43706852197647097,
        0.06892044842243195,
        -0.33731865882873537,
        0.02579355239868164,
        -0.07271845638751984,
        0.13309690356254579,
        0.27646487951278689,
        -0.45659804344177248,
        -0.04051894694566727,
        -0.18875668942928315,
        -0.3003960847854614,
        0.21582064032554627,
        0.3317764401435852,
        -0.4078998863697052,
        -0.2913130521774292,
        0.3874025344848633,
        -0.38838595151901247,
        -0.013677909970283509,
        0.23722191154956819,
        -0.24295473098754884,
        0.4838859438896179,
        -0.003283519297838211,
        -0.14710363745689393,
        0.22759893536567689,
        -0.3263953924179077,
        0.15060380101203919,
        0.013170726597309113,
        0.16692671179771424,
        0.4673995077610016,
        -0.00958108901977539,
        -0.43889009952545168,
        -0.06515809148550034,
        -0.007195524871349335,
        0.023214027285575868,
        0.06964045763015747,
        0.14913450181484223,
        0.010779865086078644,
        0.11254452168941498,
        -0.3112982511520386,
        0.38859403133392336,
        0.4865225553512573,
        0.339436799287796,
        0.0735037699341774,
        0.30551648139953616,
        -0.07135404646396637,
        0.3269149661064148,
        -0.4622683823108673,
        -0.23711925745010377,
        0.15824829041957856,
        -0.028117503970861436,
        0.2086368203163147,
        -0.10311152786016464,
        -0.4068160951137543,
        -0.1517309844493866,
        -0.3384835422039032,
        0.3505595922470093,
        -0.16451172530651093,
        -0.017442457377910615,
        -0.17198529839515687,
        0.1534576267004013,
        0.49835824966430666,
        -0.4634414613246918,
        0.03996073454618454,
        -0.41738054156303408,
        0.25936609506607058,
        -0.5085148215293884
    ],
    "biases": [
        -0.4086885452270508,
        0.5191091299057007,
        -0.45242998003959658,
        0.41438183188438418,
        -0.4789803624153137,
        0.34294891357421877,
        0.5103473663330078,
        -0.13108143210411073,
        0.2451840192079544
    ]
}