{
    "layers": [
        9,
        7,
        2
    ],
    "weights": [
        -0.18912118673324586,
        -0.4732123613357544,
        0.02817016839981079,
        -0.16115552186965943,
        0.41703152656555178,
        -0.2473103404045105,
        0.48776042461395266,
        -0.33622169494628909,
        -0.38153207302093508,
        0.15313313901424409,
        0.2215927690267563,
        -0.43717217445373537,
        0.4917370080947876,
        -0.19868558645248414,
        -0.4502754211425781,
        0.44521570205688479,
        0.24244581162929536,
        -0.21543079614639283,
        -0.4863591194152832,
        0.26180148124694826,
        0.14218257367610932,
        0.23748014867305757,
        -0.23551732301712037,
        -0.23770934343338014,
        0.40368425846099856,
        -0.38040459156036379,
        -0.4886491298675537,
        -0.3726896047592163,
        -0.4628390073776245,
        0.47038745880126955,
        -0.2073872685432434,
        -0.3878345489501953,
        -0.1790105700492859,
        0.43612563610076907,
        -0.3744823932647705,
        -0.29602718353271487,
        -0.2817842960357666,
        0.25270044803619387,
        0.056982576847076419,
        0.2702242136001587,
        -0.2542077302932739,
        -0.3048802614212036,
        0.44569647312164309,
        0.1006506085395813,
        0.46291565895080569,
        0.028499305248260499,
        -0.230787456035614,
        0.060833513736724856,
        0.49134838581085207,
        -0.028544366359710695,
        -0.1383548378944397,
        -0.40901994705200198,
        -0.47202515602111819,
        -0.3564251661300659,
        0.08753615617752075,
        -0.27348828315734866,
        -0.27125513553619387,
        -0.37211549282073977,
        -0.23383444547653199,
        0.19658063352108003,
        0.4242513179779053,
        0.0880250334739685,
        0.4168127775192261,
        -0.39330828189849856,
        0.47366321086883547,
        -0.2407051920890808,
        -0.252514123916626,
        -0.30967605113983157,
        -0.05510669946670532,
        0.1477491706609726,
        -0.18247288465499879,
        0.42130494117736819,
        -0.4647550582885742,
        -0.1025494933128357,
        0.3805532455444336,
        -0.017405211925506593,
        -0.25766944885253909
    ],
    "biases": [
        -0.1254904866218567,
        -0.2849987745285034,
        -0.4038490056991577,
        -0.05735749006271362,
        0.07409530878067017,
        -0.14048105478286744,
        -0.4079841375350952,
        -0.022566378116607667,
        0.4785270690917969
    ]
}