{
    "layers": [
        6,
        5,
        2
    ],
    "weights": [
        0.328151136636734,
        0.08275900781154633,
        -0.12503397464752198,
        0.03702111542224884,
        0.039608001708984378,
        0.1976623237133026,
        -0.29169023036956789,
        0.2610551416873932,
        0.7000977396965027,
        -0.2422845959663391,
        0.1826741099357605,
        0.17843131721019746,
        0.4235936999320984,
        -0.17993131279945374,
        0.3995349407196045,
        -0.40106311440467837,
        -0.11582370847463608,
        0.48523253202438357,
        0.2540356516838074,
        0.2902582883834839,
        -0.7636555433273315,
        0.5536044239997864,
        0.015728771686553956,
        -0.27512186765670779,
        0.2307828962802887,
        0.8836184740066528,
        -0.3714224100112915,
        0.2778640687465668,
        0.2527509331703186,
        0.2995609939098358,
        0.2987256646156311,
        -0.20924177765846253,
        -0.6162148714065552,
        -0.42674142122268679,
        -0.23951315879821778,
        -0.3466840982437134,
        -0.10609980672597885,
        -0.0810033306479454,
        -0.18216869235038758,
        -0.516288697719574
    ],
    "biases": [
        -1.1254953145980836,
        -0.5718731880187988,
        0.42594030499458315,
        0.6706640720367432,
        -0.5586715936660767,
        0.848229169845581,
        0.11921509355306626
    ]
}