{
    "layers": [
        6,
        5,
        2
    ],
    "weights": [
        -0.1212320625782013,
        1.687079668045044,
        -1.6406188011169434,
        -0.8577733039855957,
        1.1152842044830323,
        0.166498064994812,
        0.8452796936035156,
        -0.7075149416923523,
        -0.5856195092201233,
        -0.078448086977005,
        1.8781561851501465,
        0.1506699174642563,
        -2.0006003379821779,
        0.6609185934066773,
        -0.35116100311279299,
        -1.06831693649292,
        -2.169435977935791,
        1.4372198581695557,
        1.0881233215332032,
        -2.242964744567871,
        0.37279781699180605,
        0.3978239893913269,
        3.075032949447632,
        -1.5744444131851197,
        0.24569353461265565,
        -1.0821841955184937,
        -0.22368988394737245,
        1.4114587306976319,
        0.06281554698944092,
        -0.6533681154251099,
        -0.3826521635055542,
        -0.3088322877883911,
        -2.431650161743164,
        -0.030472934246063234,
        1.1523547172546387,
        -0.261730819940567,
        0.5444923639297485,
        -0.9146836996078491,
        -0.0720241516828537,
        -0.43509551882743838
    ],
    "biases": [
        -1.116019368171692,
        1.2388867139816285,
        0.08560612052679062,
        -0.48978501558303835,
        -2.9365036487579347,
        -0.8009587526321411,
        0.5001062154769898
    ]
}