{
    "layers": [
        6,
        5,
        2
    ],
    "weights": [
        0.11869147419929505,
        0.29630786180496218,
        -0.40899303555488589,
        -0.003428138792514801,
        -0.1663709282875061,
        0.2533993721008301,
        -0.354637086391449,
        0.2657514214515686,
        0.7000977396965027,
        -0.2422845959663391,
        0.1826741099357605,
        0.1297713816165924,
        0.38488924503326418,
        -0.12816715240478517,
        0.3995349407196045,
        -0.40106311440467837,
        -0.21717356145381928,
        0.48523253202438357,
        0.2540356516838074,
        0.1563679575920105,
        -0.7636555433273315,
        0.6675429940223694,
        -0.0071266889572143559,
        -0.3277825713157654,
        0.20059657096862794,
        1.0294417142868043,
        -0.3714224100112915,
        0.2778640687465668,
        0.2527509331703186,
        0.21340376138687135,
        0.3303314447402954,
        -0.20924177765846253,
        -0.6162148714065552,
        -0.6627616286277771,
        -0.23951315879821778,
        -0.29617807269096377,
        -0.10609980672597885,
        -0.0810033306479454,
        -0.18216869235038758,
        -0.7276421785354614
    ],
    "biases": [
        -1.2629424333572388,
        -0.5718731880187988,
        0.43880635499954226,
        0.7316644191741943,
        -0.6535239219665527,
        0.848229169845581,
        0.11921509355306626
    ]
}