{
    "layers": [
        5,
        6,
        2
    ],
    "weights": [
        0.4037836790084839,
        -0.26033562421798708,
        0.4344860315322876,
        -0.3525184690952301,
        0.47648435831069949,
        0.42381757497787478,
        -0.6093428730964661,
        0.0546654537320137,
        -0.17936557531356812,
        -0.24979513883590699,
        0.4405071437358856,
        0.08078650385141373,
        0.29975858330726626,
        0.17869988083839417,
        -0.3003520965576172,
        -0.12737727165222169,
        -0.4464437663555145,
        -0.16476377844810487,
        0.1447916179895401,
        -0.11143724620342255,
        -0.10916867107152939,
        -0.5488744378089905,
        -0.1349564790725708,
        -0.45747730135917666,
        -0.319448858499527,
        -0.48784905672073367,
        -0.21708983182907105,
        0.10630852729082108,
        -0.2951692044734955,
        0.19192826747894288,
        0.007188532501459122,
        0.14254450798034669,
        0.292743057012558,
        -0.29893678426742556,
        0.16174855828285218,
        0.21718204021453858,
        0.2946648597717285,
        -0.17002686858177186,
        0.17141327261924745,
        0.4098859131336212,
        -0.33278346061706545,
        -0.1779954433441162
    ],
    "biases": [
        0.022009726613759996,
        -0.47154003381729128,
        -0.1499931514263153,
        0.27428990602493288,
        0.2996091842651367,
        0.20058169960975648,
        -0.32703420519828799,
        -0.10035115480422974
    ]
}