{
    "generation": 178,
    "brains": [
        {
            "layers": [
                11,
                8,
                2
            ],
            "weights": [
                -0.4959810972213745,
                -0.22481459379196168,
                -0.42850732803344729,
                -0.4363952875137329,
                -0.18650823831558228,
                -0.4627244472503662,
                0.3955841064453125,
                0.10703390836715698,
                0.10371404886245728,
                0.33739399909973147,
                0.457234263420105,
                0.4376864433288574,
                0.3007504940032959,
                0.2231224626302719,
                0.471105694770813,
                0.44756293296813967,
                0.2369745820760727,
                0.345761775970459,
                0.07442241907119751,
                -0.1827966570854187,
                -0.46206390857696535,
                -0.06074494123458862,
                0.2590804100036621,
                -0.30765485763549807,
                0.389157772064209,
                0.04809504747390747,
                0.28083038330078127,
                0.35725390911102297,
                0.1618395894765854,
                -0.3302030563354492,
                0.45184624195098879,
                0.0875287652015686,
                0.16581414639949799,
                -0.15774232149124146,
                0.2863593101501465,
                0.22054921090602876,
                -0.24885433912277223,
                0.24567125737667085,
                0.3971118927001953,
                0.32658684253692629,
                -0.052793800830841067,
                0.47789013385772707,
                -0.009733736515045166,
                0.3035773038864136,
                -0.21586138010025025,
                -0.08600348234176636,
                -0.07848137617111206,
                -0.07407182455062866,
                0.2672234773635864,
                -0.2640342712402344,
                -0.2752664089202881,
                0.025923073291778566,
                0.3529179096221924,
                0.46590709686279299,
                0.3460094928741455,
                -0.07633239030838013,
                0.021820247173309327,
                0.40577006340026858,
                0.3138478994369507,
                0.07504457235336304,
                -0.13046985864639283,
                -0.19565433263778687,
                -0.27688300609588625,
                0.3898012638092041,
                -0.38672077655792239,
                -0.39520061016082766,
                -0.18842273950576783,
                0.31311333179473879,
                -0.36916911602020266,
                -0.203571617603302,
                0.3334451913833618,
                -0.459918737411499,
                -0.1686607003211975,
                -0.34909188747406008,
                -0.4854857921600342,
                0.2380579560995102,
                0.14841662347316743,
                -0.45447635650634768,
                -0.25121772289276125,
                -0.015411078929901123,
                -0.4167773723602295,
                -0.029629766941070558,
                -0.2781221866607666,
                0.2687053680419922,
                -0.43562018871307375,
                0.23594926297664643,
                0.11345309019088745,
                -0.025253713130950929,
                0.31676363945007326,
                0.487947940826416,
                -0.1147342324256897,
                -0.15904885530471803,
                -0.2601684331893921,
                -0.4176894426345825,
                0.15561996400356294,
                0.05944091081619263,
                0.36907637119293215,
                -0.37092792987823489,
                0.007904469966888428,
                0.1450626701116562,
                -0.031132042407989503,
                0.27221107482910159,
                -0.296022891998291,
                0.3516017198562622
            ],
            "biases": [
                -0.1840927004814148,
                -0.09600108861923218,
                -0.45555591583251955,
                0.21928738057613374,
                -0.17732256650924684,
                -0.029104173183441163,
                -0.41526687145233157,
                0.41481220722198489,
                0.2913762331008911,
                0.4555448293685913
            ]
        },
        {
            "layers": [
                11,
                8,
                2
            ],
            "weights": [
                0.054992735385894778,
                -0.3640958070755005,
                -0.404093861579895,
                -0.33307576179504397,
                0.053050220012664798,
                0.20648251473903657,
                -0.3384054899215698,
                0.13774488866329194,
                -0.22143250703811646,
                -0.14601701498031617,
                0.289131760597229,
                -0.1439334750175476,
                0.348355770111084,
                0.33046436309814455,
                0.45478367805480959,
                -0.43203306198120119,
                -0.3849574327468872,
                -0.2869126796722412,
                0.4719088077545166,
                -0.3288710117340088,
                0.028581321239471437,
                0.0920761227607727,
                -0.32525455951690676,
                -0.08920961618423462,
                0.37811970710754397,
                0.30448484420776369,
                -0.2646416425704956,
                -0.24204176664352418,
                -0.15269631147384644,
                -0.015635192394256593,
                0.05888122320175171,
                0.3879135847091675,
                0.31906628608703616,
                -0.3564002513885498,
                0.08744221925735474,
                0.17878232896327973,
                -0.4500851631164551,
                -0.11847108602523804,
                -0.45853447914123537,
                -0.31404340267181399,
                -0.41175949573516848,
                -0.432675838470459,
                -0.02452629804611206,
                0.04691439867019653,
                0.3469356298446655,
                -0.10552328824996948,
                -0.13746875524520875,
                0.46152710914611819,
                0.16675232350826264,
                0.30741965770721438,
                -0.09931868314743042,
                -0.17843276262283326,
                -0.08226627111434937,
                0.43550336360931399,
                -0.4989790916442871,
                0.47250235080718996,
                0.08014112710952759,
                0.002290189266204834,
                0.28239572048187258,
                0.052810609340667728,
                -0.36434149742126467,
                0.16601751744747163,
                0.08496636152267456,
                0.1765221208333969,
                0.16895543038845063,
                -0.4659292697906494,
                0.3840000629425049,
                0.027021944522857667,
                0.08319967985153198,
                -0.06401759386062622,
                -0.2578521966934204,
                0.36201560497283938,
                -0.13797813653945924,
                0.17543159425258637,
                -0.19972580671310426,
                0.45577263832092287,
                0.24824486672878266,
                0.3411438465118408,
                -0.30342912673950198,
                0.20280490815639497,
                0.11326819658279419,
                0.2948179244995117,
                -0.41232192516326907,
                0.3291884660720825,
                -0.27372562885284426,
                -0.34806156158447268,
                -0.3417752981185913,
                -0.11894482374191284,
                0.34622788429260256,
                0.1925591081380844,
                -0.47921299934387209,
                0.1144610047340393,
                0.2852839231491089,
                0.24905286729335786,
                0.12635491788387299,
                0.35667502880096438,
                0.2970554828643799,
                -0.24077945947647096,
                -0.13348370790481568,
                0.4134061336517334,
                -0.18034929037094117,
                -0.2496824860572815,
                -0.20276933908462525,
                0.01699775457382202
            ],
            "biases": [
                0.17950044572353364,
                -0.4094933271408081,
                -0.02008742094039917,
                -0.381303071975708,
                0.39620232582092287,
                0.008109986782073975,
                0.2626434564590454,
                0.37117183208465578,
                -0.1024290919303894,
                0.3752506971359253
            ]
        },
        {
            "layers": [
                11,
                8,
                2
            ],
            "weights": [
                0.15952466428279878,
                0.11115700006484986,
                0.3197906017303467,
                -0.4411669969558716,
                -0.19464701414108277,
                -0.19066959619522096,
                -0.3684021234512329,
                -0.13076800107955934,
                -0.420329213142395,
                0.20206867158412934,
                -0.1307414174079895,
                -0.3762359619140625,
                0.10656660795211792,
                -0.2559736967086792,
                0.17677651345729829,
                -0.45850682258605959,
                0.15921829640865327,
                0.23191021382808686,
                -0.23667961359024049,
                -0.43554866313934328,
                -0.3975013494491577,
                0.068386971950531,
                -0.24233204126358033,
                -0.30886518955230715,
                0.19026194512844087,
                -0.43292272090911868,
                -0.2378430962562561,
                0.17656098306179048,
                -0.4741865396499634,
                -0.12015002965927124,
                0.3476811647415161,
                -0.32051098346710207,
                0.34838736057281496,
                -0.13404685258865357,
                -0.10881978273391724,
                0.288790225982666,
                0.07265836000442505,
                -0.22335785627365113,
                0.24485336244106294,
                0.3664602041244507,
                -0.4024980068206787,
                -0.46922123432159426,
                -0.026646912097930909,
                -0.17533594369888307,
                0.357330322265625,
                -0.0194208025932312,
                -0.18429571390151978,
                0.3361663818359375,
                -0.36824631690979006,
                -0.2850029468536377,
                -0.047193825244903567,
                0.16639111936092378,
                -0.030932962894439698,
                0.3486138582229614,
                0.03542071580886841,
                0.04279047250747681,
                -0.4301271438598633,
                -0.13571399450302125,
                0.49431633949279787,
                -0.2896620035171509,
                0.19727598130702973,
                -0.22924154996871949,
                0.41991353034973147,
                0.18725965917110444,
                -0.40420103073120119,
                0.2668644189834595,
                -0.07988804578781128,
                -0.45189332962036135,
                0.444183349609375,
                -0.19795411825180055,
                -0.3927537202835083,
                0.24713872373104096,
                0.07207256555557251,
                0.20643757283687592,
                -0.37901759147644045,
                0.11302703619003296,
                0.0640907883644104,
                -0.043346107006073,
                -0.42855191230773928,
                -0.37127065658569338,
                0.1546526998281479,
                -0.06562179327011109,
                -0.38517308235168459,
                0.3448752164840698,
                -0.42065346240997317,
                0.44920313358306887,
                -0.03211778402328491,
                -0.2508723735809326,
                0.032295405864715579,
                -0.40698468685150149,
                -0.17345017194747926,
                0.36010313034057619,
                0.15570007264614106,
                -0.2905973196029663,
                -0.2944451570510864,
                0.0648612380027771,
                -0.06400686502456665,
                -0.14389914274215699,
                0.2624472379684448,
                -0.22198837995529176,
                0.054629385471343997,
                0.04907482862472534,
                -0.2506366968154907,
                -0.020233094692230226
            ],
            "biases": [
                -0.3889601230621338,
                0.08064883947372437,
                0.294427752494812,
                -0.07681888341903687,
                -0.362087607383728,
                -0.31580400466918948,
                0.201857790350914,
                -0.3740042448043823,
                0.27521634101867678,
                0.39260947704315188
            ]
        }
    ]
}