{
    "generation": 146,
    "brains": [
        {
            "layers": [
                11,
                8,
                2
            ],
            "weights": [
                -0.4299023151397705,
                -0.1651490330696106,
                0.13560150563716889,
                -0.0047470927238464359,
                -0.12165302038192749,
                0.24042664468288423,
                -0.13971132040023805,
                0.4602266550064087,
                0.18105672299861909,
                -0.3013617992401123,
                -0.45171892642974856,
                -0.3224250078201294,
                -0.3164668083190918,
                -0.04565948247909546,
                0.11587148904800415,
                0.12181419134140015,
                -0.307378888130188,
                -0.2716207504272461,
                0.0901365876197815,
                0.09514075517654419,
                -0.31778383255004885,
                -0.44574427604675295,
                0.3137664794921875,
                0.22316883504390717,
                -0.030109822750091554,
                0.22474823892116548,
                -0.18173617124557496,
                -0.08011442422866821,
                -0.42267906665802,
                -0.4949883222579956,
                0.09146648645401001,
                -0.23330551385879517,
                0.28357160091400149,
                0.4550039768218994,
                -0.2310360074043274,
                -0.3347048759460449,
                0.4574993848800659,
                0.3877824544906616,
                -0.4544793367385864,
                0.3053995370864868,
                -0.4520237445831299,
                0.03276747465133667,
                0.3015044927597046,
                -0.2270933985710144,
                0.4448970556259155,
                0.07203859090805054,
                0.11948078870773316,
                0.014534533023834229,
                -0.2556368112564087,
                0.027792036533355714,
                0.3082878589630127,
                -0.2640979290008545,
                -0.24526089429855348,
                -0.04139429330825806,
                0.09189265966415405,
                0.13708482682704926,
                0.10722154378890991,
                -0.3190659284591675,
                -0.3973221778869629,
                -0.06753355264663696,
                0.2343808263540268,
                -0.030261337757110597,
                0.34651923179626467,
                -0.272499680519104,
                0.451995849609375,
                0.24515090882778169,
                -0.29028284549713137,
                0.23663078248500825,
                0.12302178144454956,
                -0.35441315174102785,
                -0.06890088319778443,
                -0.3188682794570923,
                0.20170556008815766,
                -0.04451781511306763,
                0.07184535264968872,
                -0.22307008504867555,
                0.45005786418914797,
                0.24441657960414887,
                0.29752981662750246,
                -0.35681986808776858,
                0.09907621145248413,
                -0.3265502452850342,
                0.16998277604579926,
                -0.24735325574874879,
                -0.2037171721458435,
                -0.4094712734222412,
                0.28450727462768557,
                -0.35180139541625979,
                -0.026196181774139406,
                0.27446603775024416,
                -0.4262394905090332,
                -0.07032495737075806,
                -0.04211312532424927,
                0.2094406932592392,
                -0.11069637537002564,
                -0.0014054179191589356,
                0.032345592975616458,
                0.20686422288417817,
                0.1566135734319687,
                0.45741045475006106,
                0.09578341245651245,
                0.1806015819311142,
                -0.4625124931335449,
                -0.05725818872451782
            ],
            "biases": [
                -0.3958730697631836,
                -0.43515872955322268,
                0.21230851113796235,
                -0.2804112434387207,
                0.4169001579284668,
                0.3490455150604248,
                -0.4573448896408081,
                0.214073047041893,
                -0.249256432056427,
                0.23728178441524507
            ]
        },
        {
            "layers": [
                11,
                8,
                2
            ],
            "weights": [
                -0.3281435966491699,
                -0.4727076292037964,
                -0.36620986461639407,
                0.29597043991088869,
                0.26369619369506838,
                0.030062615871429445,
                0.016736209392547609,
                0.02682584524154663,
                -0.30393660068511965,
                0.3475830554962158,
                0.3466862440109253,
                0.285233736038208,
                0.02071934938430786,
                0.3168516159057617,
                0.09518259763717652,
                0.14516983926296235,
                0.24006007611751557,
                -0.14788001775741578,
                -0.08543950319290161,
                0.44221222400665285,
                0.1633601039648056,
                -0.05134004354476929,
                0.3844599723815918,
                0.036097705364227298,
                -0.436165452003479,
                -0.1322292685508728,
                0.4935351610183716,
                0.0646170973777771,
                0.29291844367980959,
                -0.41232335567474368,
                0.0299033522605896,
                0.07127410173416138,
                -0.19431072473526,
                -0.1933487057685852,
                0.3708944320678711,
                -0.03576391935348511,
                -0.008009135723114014,
                0.4710712432861328,
                -0.47518718242645266,
                0.17740212380886079,
                0.13476644456386567,
                0.08180433511734009,
                -0.4480464458465576,
                0.48124754428863528,
                0.4753239154815674,
                -0.3038562536239624,
                -0.21805518865585328,
                -0.35174548625946047,
                -0.3935258388519287,
                0.3406423330307007,
                -0.03750389814376831,
                -0.015428364276885987,
                0.13823936879634858,
                -0.2983095645904541,
                -0.3798891305923462,
                0.040089190006256106,
                -0.1756184697151184,
                -0.1608911156654358,
                0.05351811647415161,
                -0.07344001531600952,
                -0.29512059688568118,
                0.0437580943107605,
                0.41143107414245608,
                -0.3833121061325073,
                -0.3326936960220337,
                0.266506552696228,
                0.4509924650192261,
                -0.07938581705093384,
                0.4709435701370239,
                0.25575757026672366,
                -0.4190819263458252,
                -0.23896580934524537,
                0.07337254285812378,
                -0.16720503568649293,
                -0.3851269483566284,
                0.2785301208496094,
                0.2739064693450928,
                0.4772179126739502,
                -0.4919605255126953,
                0.2496793121099472,
                -0.22443681955337525,
                -0.3647270202636719,
                -0.4497239589691162,
                0.3677241802215576,
                0.1129881739616394,
                -0.4872022867202759,
                -0.0997503399848938,
                0.0737949013710022,
                -0.4202042818069458,
                -0.23848968744277955,
                0.37689483165740969,
                0.025192201137542726,
                0.08800333738327027,
                -0.39819467067718508,
                -0.24163872003555299,
                -0.14241713285446168,
                0.16685329377651215,
                0.21198628842830659,
                -0.2633397579193115,
                -0.00942450761795044,
                -0.17150825262069703,
                -0.1670435070991516,
                0.027499616146087648,
                -0.4468562602996826
            ],
            "biases": [
                0.18889175355434419,
                0.07815510034561157,
                -0.005856335163116455,
                -0.05281287431716919,
                0.27871644496917727,
                0.20181499421596528,
                -0.3192085027694702,
                -0.34890449047088625,
                -0.4237889051437378,
                -0.41144776344299319
            ]
        },
        {
            "layers": [
                11,
                8,
                2
            ],
            "weights": [
                0.20235632359981538,
                -0.42768609523773196,
                0.18527470529079438,
                -0.34077560901641848,
                0.4688076972961426,
                0.0033177733421325685,
                0.14461468160152436,
                -0.24762815237045289,
                0.45469117164611819,
                -0.14980953931808473,
                0.39702534675598147,
                -0.20879513025283814,
                0.10896414518356323,
                -0.44053375720977785,
                -0.30794525146484377,
                0.4986603260040283,
                0.09481650590896607,
                -0.2193050980567932,
                0.06454581022262573,
                -0.44524550437927248,
                -0.04701739549636841,
                0.2787971496582031,
                0.12409466505050659,
                0.06107872724533081,
                0.42260682582855227,
                -0.2289486527442932,
                0.19705818593502046,
                -0.2985903024673462,
                0.4751971960067749,
                0.45829546451568606,
                -0.04289168119430542,
                0.052084267139434817,
                0.4962230920791626,
                -0.1135135293006897,
                -0.38051676750183108,
                0.33197081089019778,
                0.057893216609954837,
                -0.18372255563735963,
                -0.002774655818939209,
                0.42901790142059328,
                -0.462246298789978,
                0.33587825298309328,
                -0.28950440883636477,
                0.018444716930389406,
                -0.2667386531829834,
                -0.32009005546569826,
                -0.3646738529205322,
                -0.06473511457443237,
                0.032252609729766849,
                -0.36472225189208987,
                0.49573349952697756,
                0.2645242214202881,
                -0.3558793067932129,
                0.3122599124908447,
                0.05748838186264038,
                0.15040813386440278,
                -0.47567009925842287,
                -0.3129218816757202,
                0.376484751701355,
                -0.20181876420974732,
                -0.049314796924591067,
                0.25192391872406008,
                -0.01699930429458618,
                0.1595812886953354,
                0.48054707050323489,
                0.3040025234222412,
                -0.2055177092552185,
                -0.47422492504119875,
                -0.012424170970916748,
                -0.0026697516441345217,
                0.12481087446212769,
                -0.4250376224517822,
                -0.12843674421310426,
                -0.21578449010849,
                -0.3876281976699829,
                0.47482728958129885,
                0.4847954511642456,
                -0.06411641836166382,
                0.22477219998836518,
                -0.23065727949142457,
                0.36855900287628176,
                0.21686099469661714,
                -0.4977954626083374,
                0.20537398755550385,
                -0.055190861225128177,
                0.2905772924423218,
                0.02629905939102173,
                0.16878269612789155,
                -0.48487746715545657,
                0.4892911911010742,
                -0.2854282855987549,
                0.45309770107269289,
                -0.04526752233505249,
                0.20550380647182465,
                -0.21344953775405885,
                -0.19883042573928834,
                -0.30288398265838625,
                0.09895414113998413,
                -0.4906306266784668,
                -0.33792197704315188,
                -0.09685438871383667,
                0.4807990789413452,
                0.12550710141658784,
                0.2818565368652344
            ],
            "biases": [
                0.14562676846981049,
                0.2308947890996933,
                -0.24673765897750855,
                -0.43028438091278078,
                0.47131288051605227,
                0.35426223278045657,
                -0.43197500705718996,
                -0.17058712244033814,
                0.37234318256378176,
                -0.2902810573577881
            ]
        }
    ]
}