{
    "generation": 146,
    "brains": [
        {
            "layers": [
                11,
                8,
                2
            ],
            "weights": [
                0.011424697935581208,
                -0.10736650228500366,
                -0.3189738690853119,
                0.45924004912376406,
                0.4108906686306,
                -0.14473767578601838,
                -0.35472965240478518,
                0.17725351452827454,
                -0.23962360620498658,
                0.13067954778671266,
                -0.6810162663459778,
                0.21379604935646058,
                0.4144866466522217,
                0.0018678903579711915,
                -0.05296536162495613,
                -0.13507145643234254,
                0.6586987972259522,
                0.2881869971752167,
                0.17874646186828614,
                0.612546443939209,
                -0.3777278661727905,
                -0.275208979845047,
                0.5209707021713257,
                -0.48455923795700076,
                0.4341457188129425,
                -0.2422962188720703,
                0.19676613807678224,
                -0.4415576457977295,
                0.27396345138549807,
                -0.43231576681137087,
                0.4007070064544678,
                0.19710935652256013,
                0.21868804097175599,
                0.33308497071266177,
                0.10320133715867996,
                0.019712764769792558,
                -0.21645653247833253,
                0.061660025268793109,
                -0.2875097692012787,
                -0.5519580841064453,
                -0.08274736255407334,
                0.4026695191860199,
                -0.5303254723548889,
                -0.03506403788924217,
                0.11747109144926071,
                0.07852452248334885,
                -0.10104291886091232,
                -0.6075629591941834,
                0.09112006425857544,
                -0.30042368173599245,
                -0.24620047211647035,
                0.32236409187316897,
                0.23348699510097505,
                0.12151256948709488,
                -0.021903250366449357,
                -0.3295119106769562,
                0.13385874032974244,
                -0.010149873793125153,
                -0.015470534563064576,
                -0.21039050817489625,
                0.33321163058280947,
                0.44542819261550906,
                0.01231304556131363,
                -0.2402949184179306,
                0.15759888291358949,
                -0.1348685920238495,
                0.16703054308891297,
                -0.08050194382667542,
                -0.26137638092041018,
                -0.0473596528172493,
                -0.11370956897735596,
                -0.0017511025071144105,
                -0.4398951530456543,
                0.017394907772541047,
                0.10032164305448532,
                -0.36454811692237856,
                0.38205686211586,
                0.31831249594688418,
                0.23193687200546266,
                0.019754305481910707,
                -0.44727465510368349,
                0.28634047508239748,
                0.36607253551483157,
                -0.06707880645990372,
                -0.6290353536605835,
                0.1269143670797348,
                0.5115534663200378,
                0.17836786806583405,
                0.34999263286590578,
                0.6089895963668823,
                0.6091763377189636,
                -0.5081995725631714,
                -0.22955477237701417,
                0.3192231357097626,
                0.043345123529434207,
                0.29719406366348269,
                -0.33988186717033389,
                0.49083203077316286,
                -0.4289144277572632,
                -0.020476028323173524,
                -0.19082844257354737,
                0.3806458115577698,
                0.03583656996488571,
                -0.408263623714447
            ],
            "biases": [
                -0.43066954612731936,
                -0.13730525970458985,
                -0.1161559596657753,
                -0.40228623151779177,
                -0.12157439440488816,
                -0.021684207022190095,
                0.18815024197101594,
                -0.08726321160793305,
                -0.06949740648269654,
                0.36723729968070986
            ]
        },
        {
            "layers": [
                11,
                8,
                2
            ],
            "weights": [
                -0.06533867120742798,
                -0.20275133848190309,
                -0.32731786370277407,
                0.5082370638847351,
                0.29150867462158205,
                -0.16876310110092164,
                -0.4682070016860962,
                0.17725351452827454,
                -0.23962360620498658,
                0.13067954778671266,
                -0.6810162663459778,
                0.21379604935646058,
                0.4148268699645996,
                -0.024295292794704438,
                -0.10443123430013657,
                -0.13507145643234254,
                0.273027241230011,
                0.28538602590560915,
                0.24894645810127259,
                0.5289727449417114,
                -0.338448703289032,
                -0.2286471128463745,
                0.5325838923454285,
                -0.4018573760986328,
                0.4005671739578247,
                -0.1684475541114807,
                0.28195247054100039,
                -0.4415576457977295,
                0.27396345138549807,
                -0.43231576681137087,
                -0.4208558201789856,
                0.4634615182876587,
                0.30145829916000368,
                0.33308497071266177,
                -0.1996307075023651,
                0.05375680327415466,
                -0.21645653247833253,
                0.005433056503534317,
                -0.2875097692012787,
                -0.5519580841064453,
                0.1848231852054596,
                0.4026695191860199,
                -0.5118206739425659,
                -0.03506403788924217,
                0.2090310901403427,
                0.08160630613565445,
                -0.10104291886091232,
                -0.5654829144477844,
                0.03420871123671532,
                -0.27348095178604128,
                -0.0914033055305481,
                0.32236409187316897,
                0.4256271719932556,
                0.05678064748644829,
                -0.02677290141582489,
                -0.3295119106769562,
                0.13385874032974244,
                -0.010149873793125153,
                -0.07908249646425247,
                -0.21039050817489625,
                0.3419535160064697,
                0.41017407178878786,
                0.02148255705833435,
                -0.2517849802970886,
                0.24515563249588014,
                -0.03199440985918045,
                0.2311873733997345,
                -0.08050194382667542,
                -0.24058979749679566,
                0.09916553646326065,
                -0.1133442372083664,
                -0.0017511025071144105,
                -0.4398951530456543,
                0.006441779434680939,
                0.10032164305448532,
                -0.4100551903247833,
                0.38205686211586,
                0.24947041273117066,
                0.22037896513938905,
                -0.035766683518886569,
                -0.32269737124443056,
                0.28634047508239748,
                0.36607253551483157,
                -0.06707880645990372,
                -0.6290353536605835,
                0.1269143670797348,
                0.4632606506347656,
                0.3025978207588196,
                0.29544681310653689,
                0.5191207528114319,
                0.5099393129348755,
                -0.5081995725631714,
                -0.36141514778137209,
                0.3192231357097626,
                -0.4074215590953827,
                0.2290966510772705,
                -0.33988186717033389,
                0.49083203077316286,
                0.45665261149406435,
                -0.1389331817626953,
                -0.19082844257354737,
                0.3806458115577698,
                -0.03530139848589897,
                -0.5359955430030823
            ],
            "biases": [
                -0.43399035930633547,
                -0.42289435863494875,
                -0.20066189765930177,
                -0.3996084928512573,
                -0.12157439440488816,
                -0.19074954092502595,
                0.28964656591415408,
                -0.08726321160793305,
                0.38610753417015078,
                0.18186208605766297
            ]
        },
        {
            "layers": [
                11,
                8,
                2
            ],
            "weights": [
                -0.007291004061698914,
                -0.10736650228500366,
                -0.32731786370277407,
                0.5082370638847351,
                0.431306391954422,
                -0.22874662280082704,
                -0.3732941150665283,
                0.16050629317760468,
                -0.23962360620498658,
                0.16844747960567475,
                -0.6627438068389893,
                0.21379604935646058,
                0.4148268699645996,
                0.0018678903579711915,
                -0.12192906439304352,
                -0.13507145643234254,
                0.31739282608032229,
                0.2881869971752167,
                0.22578538954257966,
                0.5289727449417114,
                -0.33258333802223208,
                -0.275208979845047,
                0.4747062027454376,
                -0.48455923795700076,
                0.4005671739578247,
                -0.2422962188720703,
                0.19676613807678224,
                -0.4095780551433563,
                0.27396345138549807,
                -0.47210103273391726,
                -0.39991721510887148,
                0.19710935652256013,
                0.4761315584182739,
                0.28678810596466067,
                0.10320133715867996,
                0.019712764769792558,
                -0.24151721596717835,
                0.061660025268793109,
                -0.2875097692012787,
                -0.5519580841064453,
                -0.08274736255407334,
                0.4026695191860199,
                -0.4558597803115845,
                -0.03506403788924217,
                0.15841928124427796,
                0.19606158137321473,
                -0.10104291886091232,
                -0.6075629591941834,
                0.09112006425857544,
                -0.27348095178604128,
                -0.24620047211647035,
                0.32236409187316897,
                0.23348699510097505,
                0.05678064748644829,
                -0.021903250366449357,
                -0.3295119106769562,
                0.03845461457967758,
                0.07918769121170044,
                -0.015470534563064576,
                -0.21039050817489625,
                0.3984493017196655,
                0.5249857902526856,
                0.01231304556131363,
                -0.2477281093597412,
                0.15759888291358949,
                -0.1348685920238495,
                0.16703054308891297,
                -0.08050194382667542,
                -0.26137638092041018,
                0.01458902657032013,
                -0.11370956897735596,
                -0.0017511025071144105,
                -0.4398951530456543,
                -0.04722205549478531,
                0.057150013744831088,
                -0.4100551903247833,
                0.38205686211586,
                0.15844696760177613,
                0.28284990787506106,
                0.019754305481910707,
                -0.44727465510368349,
                0.28634047508239748,
                0.6961835026741028,
                0.08306489884853363,
                -0.6290353536605835,
                0.1269143670797348,
                0.5115534663200378,
                0.1702246069908142,
                0.2440914809703827,
                0.5952388048171997,
                0.5811240673065186,
                -0.4936661124229431,
                -0.22955477237701417,
                0.056260883808135989,
                0.043345123529434207,
                0.29719406366348269,
                -0.33988186717033389,
                0.49083203077316286,
                -0.4289144277572632,
                -0.020476028323173524,
                -0.19082844257354737,
                0.3806458115577698,
                -0.0936216190457344,
                -0.408263623714447
            ],
            "biases": [
                -0.43066954612731936,
                -0.13724826276302339,
                -0.1161559596657753,
                -0.49667370319366457,
                -0.07699667662382126,
                -0.19074954092502595,
                0.18815024197101594,
                0.026281040161848069,
                0.014320019632577896,
                0.16574501991271974
            ]
        },
        {
            "layers": [
                11,
                8,
                2
            ],
            "weights": [
                -0.06533867120742798,
                -0.20275133848190309,
                -0.32731786370277407,
                0.5082370638847351,
                0.26784905791282656,
                -0.16876310110092164,
                -0.4682070016860962,
                0.17725351452827454,
                -0.23962360620498658,
                0.13067954778671266,
                -0.6810162663459778,
                0.21379604935646058,
                0.4148268699645996,
                0.0018678903579711915,
                -0.10443123430013657,
                0.013894893229007721,
                0.6586987972259522,
                0.28538602590560915,
                0.22945444285869599,
                0.5289727449417114,
                -0.36540281772613528,
                -0.2286471128463745,
                0.4850478172302246,
                -0.5505009293556213,
                0.4005671739578247,
                -0.2422962188720703,
                0.28195247054100039,
                -0.4415576457977295,
                0.27396345138549807,
                -0.43231576681137087,
                -0.4208558201789856,
                0.4634615182876587,
                0.30145829916000368,
                0.33308497071266177,
                -0.2157403826713562,
                0.05375680327415466,
                -0.21645653247833253,
                0.005433056503534317,
                -0.2875097692012787,
                -0.5519580841064453,
                0.2618439793586731,
                0.36441007256507876,
                -0.4415190815925598,
                -0.01638204976916313,
                0.21412158012390138,
                0.08160630613565445,
                -0.14609003067016602,
                -0.5654829144477844,
                0.03420871123671532,
                -0.20674443244934083,
                -0.0914033055305481,
                -0.10134069621562958,
                0.4256271719932556,
                0.05678064748644829,
                -0.05902812257409096,
                -0.3295119106769562,
                0.13385874032974244,
                -0.010149873793125153,
                -0.07908249646425247,
                -0.21039050817489625,
                0.3984493017196655,
                0.44542819261550906,
                0.00043939054012298584,
                -0.2517849802970886,
                0.24515563249588014,
                -0.1310015469789505,
                0.16703054308891297,
                -0.08050194382667542,
                -0.26137638092041018,
                0.09916553646326065,
                -0.13521236181259156,
                -0.0017511025071144105,
                -0.4398951530456543,
                0.02680841088294983,
                0.10032164305448532,
                -0.4220416843891144,
                0.38205686211586,
                0.24947041273117066,
                0.22037896513938905,
                -0.035766683518886569,
                -0.2597229480743408,
                0.28634047508239748,
                0.36607253551483157,
                0.08306489884853363,
                -0.6290353536605835,
                0.1269143670797348,
                0.44064244627952578,
                0.3025978207588196,
                0.29544681310653689,
                0.6395574808120728,
                0.5099393129348755,
                -0.5081995725631714,
                -0.36141514778137209,
                0.3192231357097626,
                0.043345123529434207,
                0.2290966510772705,
                -0.33988186717033389,
                0.49083203077316286,
                0.45665261149406435,
                -0.12284573912620545,
                -0.19082844257354737,
                0.3806458115577698,
                -0.03530139848589897,
                -0.5359955430030823
            ],
            "biases": [
                -0.43399035930633547,
                -0.3323953151702881,
                -0.20066189765930177,
                -0.49667370319366457,
                -0.12157439440488816,
                -0.19074954092502595,
                0.19340866804122926,
                -0.08726321160793305,
                0.3040047287940979,
                0.18186208605766297
            ]
        },
        {
            "layers": [
                11,
                8,
                2
            ],
            "weights": [
                0.011424697935581208,
                -0.20275133848190309,
                -0.32731786370277407,
                0.5082370638847351,
                0.431306391954422,
                -0.16876310110092164,
                -0.4682070016860962,
                0.17725351452827454,
                -0.23962360620498658,
                0.13067954778671266,
                -0.6810162663459778,
                0.21379604935646058,
                0.4148268699645996,
                0.0018678903579711915,
                -0.10443123430013657,
                -0.08185577392578125,
                0.31739282608032229,
                0.28538602590560915,
                0.22945444285869599,
                0.612546443939209,
                -0.36540281772613528,
                -0.20539313554763795,
                0.4850478172302246,
                -0.4018573760986328,
                0.32281288504600527,
                -0.2422962188720703,
                0.2950507402420044,
                -0.4415576457977295,
                0.27396345138549807,
                -0.43231576681137087,
                -0.4208558201789856,
                0.4634615182876587,
                0.30145829916000368,
                0.33308497071266177,
                -0.2157403826713562,
                0.05375680327415466,
                -0.21645653247833253,
                0.005433056503534317,
                -0.2875097692012787,
                -0.5519580841064453,
                0.2618439793586731,
                0.4026695191860199,
                -0.4415190815925598,
                -0.03506403788924217,
                0.1215883269906044,
                0.17736481130123139,
                -0.10104291886091232,
                -0.478299081325531,
                0.1403496265411377,
                -0.20674443244934083,
                -0.07821955531835556,
                -0.17426902055740357,
                0.23348699510097505,
                0.05678064748644829,
                -0.05902812257409096,
                -0.3295119106769562,
                0.13385874032974244,
                0.07918769121170044,
                -0.1787000447511673,
                -0.21039050817489625,
                0.3984493017196655,
                0.4412856996059418,
                0.00043939054012298584,
                -0.2517849802970886,
                0.24515563249588014,
                -0.1348685920238495,
                0.16703054308891297,
                -0.08050194382667542,
                -0.26137638092041018,
                0.01458902657032013,
                -0.11370956897735596,
                -0.0017511025071144105,
                -0.4398951530456543,
                0.00020521506667137146,
                0.10032164305448532,
                -0.36454811692237856,
                0.38205686211586,
                0.31831249594688418,
                0.23193687200546266,
                0.019754305481910707,
                -0.2597229480743408,
                0.2999168336391449,
                0.36607253551483157,
                -0.06707880645990372,
                -0.5664063096046448,
                0.1269143670797348,
                0.5115534663200378,
                0.3025978207588196,
                0.29544681310653689,
                0.6395574808120728,
                0.5099393129348755,
                -0.4936661124229431,
                -0.36141514778137209,
                0.3192231357097626,
                -0.4074215590953827,
                0.2290966510772705,
                -0.33988186717033389,
                0.49083203077316286,
                -0.4289144277572632,
                -0.13780274987220765,
                -0.19082844257354737,
                0.3806458115577698,
                -0.03530139848589897,
                -0.5724851489067078
            ],
            "biases": [
                -0.43066954612731936,
                -0.33222436904907229,
                -0.17909136414527894,
                -0.49667370319366457,
                -0.12157439440488816,
                -0.19074954092502595,
                0.18815024197101594,
                -0.02820054441690445,
                0.014320019632577896,
                0.18186208605766297
            ]
        },
        {
            "layers": [
                11,
                8,
                2
            ],
            "weights": [
                0.011424697935581208,
                -0.20275133848190309,
                -0.32731786370277407,
                0.5082370638847351,
                0.26784905791282656,
                -0.16876310110092164,
                -0.4682070016860962,
                0.17725351452827454,
                -0.24382133781909944,
                0.13067954778671266,
                -0.6828143000602722,
                0.21379604935646058,
                0.3927842676639557,
                0.0018678903579711915,
                -0.10443123430013657,
                -0.13507145643234254,
                0.6586987972259522,
                0.28538602590560915,
                0.22945444285869599,
                0.5289727449417114,
                -0.338448703289032,
                -0.2286471128463745,
                0.5325838923454285,
                -0.5505009293556213,
                0.35534605383872988,
                -0.2422962188720703,
                0.28195247054100039,
                -0.4415576457977295,
                0.27396345138549807,
                -0.43231576681137087,
                -0.4208558201789856,
                0.4634615182876587,
                0.31634649634361269,
                0.33308497071266177,
                0.10320133715867996,
                0.05375680327415466,
                -0.1865626871585846,
                0.005433056503534317,
                -0.2875097692012787,
                -0.5519580841064453,
                0.2618439793586731,
                0.4026695191860199,
                -0.4415190815925598,
                -0.03506403788924217,
                0.21412158012390138,
                0.17736481130123139,
                -0.14609003067016602,
                -0.5654829144477844,
                0.03420871123671532,
                -0.20674443244934083,
                -0.07821955531835556,
                0.32236409187316897,
                0.4256271719932556,
                0.05678064748644829,
                -0.02677290141582489,
                -0.3295119106769562,
                0.13385874032974244,
                -0.010149873793125153,
                -0.07908249646425247,
                -0.2604576051235199,
                0.3419535160064697,
                0.44542819261550906,
                -0.03468506783246994,
                -0.2517849802970886,
                0.24123959243297578,
                -0.1310015469789505,
                0.16703054308891297,
                -0.08050194382667542,
                -0.24058979749679566,
                0.09916553646326065,
                -0.11370956897735596,
                -0.0017511025071144105,
                -0.4398951530456543,
                0.02680841088294983,
                -0.005986824631690979,
                -0.4100551903247833,
                0.38205686211586,
                0.1559048891067505,
                0.3206668794155121,
                -0.09150364995002747,
                -0.2597229480743408,
                0.28634047508239748,
                0.36607253551483157,
                -0.06707880645990372,
                -0.6290353536605835,
                0.1269143670797348,
                0.44064244627952578,
                0.31043124198913576,
                0.29544681310653689,
                0.6395574808120728,
                0.5099393129348755,
                -0.4936661124229431,
                -0.36141514778137209,
                0.3192231357097626,
                -0.4074215590953827,
                0.2290966510772705,
                -0.33988186717033389,
                0.49083203077316286,
                0.45665261149406435,
                -0.12284573912620545,
                -0.19082844257354737,
                0.3806458115577698,
                -0.03530139848589897,
                -0.5359955430030823
            ],
            "biases": [
                -0.43399035930633547,
                -0.1890588104724884,
                -0.20066189765930177,
                -0.3996084928512573,
                -0.08463746309280396,
                -0.19074954092502595,
                0.28964656591415408,
                -0.08726321160793305,
                0.3040047287940979,
                0.18186208605766297
            ]
        },
        {
            "layers": [
                11,
                8,
                2
            ],
            "weights": [
                0.009340941905975342,
                -0.20275133848190309,
                -0.32731786370277407,
                0.5082370638847351,
                0.26784905791282656,
                -0.16876310110092164,
                -0.5579568147659302,
                0.10734730213880539,
                -0.23962360620498658,
                0.13067954778671266,
                -0.6810162663459778,
                0.21379604935646058,
                0.4148268699645996,
                0.0018678903579711915,
                -0.05296536162495613,
                0.013894893229007721,
                0.31739282608032229,
                0.28538602590560915,
                0.24894645810127259,
                0.612546443939209,
                -0.3625867962837219,
                -0.20539313554763795,
                0.5325838923454285,
                -0.4018573760986328,
                0.4005671739578247,
                -0.2422962188720703,
                0.19676613807678224,
                -0.4415576457977295,
                0.27396345138549807,
                -0.43231576681137087,
                -0.4208558201789856,
                0.19710935652256013,
                0.30145829916000368,
                0.33308497071266177,
                0.10320133715867996,
                0.11917808651924133,
                -0.21645653247833253,
                0.061660025268793109,
                -0.2875097692012787,
                -0.5519580841064453,
                0.2618439793586731,
                0.4026695191860199,
                -0.4415190815925598,
                -0.03506403788924217,
                0.21412158012390138,
                0.08160630613565445,
                -0.10104291886091232,
                -0.5654829144477844,
                0.03420871123671532,
                -0.30042368173599245,
                -0.07821955531835556,
                -0.10134069621562958,
                0.3820208013057709,
                0.05678064748644829,
                -0.05902812257409096,
                -0.3295119106769562,
                0.13385874032974244,
                -0.010149873793125153,
                -0.20640984177589417,
                -0.21039050817489625,
                0.3984493017196655,
                0.44542819261550906,
                0.00043939054012298584,
                -0.2517849802970886,
                0.24515563249588014,
                -0.1310015469789505,
                0.16703054308891297,
                -0.08050194382667542,
                -0.26137638092041018,
                0.01458902657032013,
                -0.13521236181259156,
                -0.0017511025071144105,
                -0.4398951530456543,
                -0.04722205549478531,
                0.057150013744831088,
                -0.36454811692237856,
                0.38205686211586,
                0.24947041273117066,
                0.2039153128862381,
                -0.09814444184303284,
                -0.44727465510368349,
                0.28634047508239748,
                0.36607253551483157,
                -0.06707880645990372,
                -0.6290353536605835,
                0.1269143670797348,
                0.5115534663200378,
                0.3025978207588196,
                0.29544681310653689,
                0.6089895963668823,
                0.6091763377189636,
                -0.4936661124229431,
                -0.30143722891807558,
                0.38530126214027407,
                0.043345123529434207,
                0.2290966510772705,
                -0.33988186717033389,
                0.49083203077316286,
                -0.4289144277572632,
                -0.12284573912620545,
                -0.19082844257354737,
                0.3806458115577698,
                0.03583656996488571,
                -0.5359955430030823
            ],
            "biases": [
                -0.43066954612731936,
                -0.33222436904907229,
                -0.10747276991605759,
                -0.4042407274246216,
                -0.12157439440488816,
                -0.19074954092502595,
                0.18815024197101594,
                -0.08726321160793305,
                0.3040047287940979,
                0.18186208605766297
            ]
        },
        {
            "layers": [
                11,
                8,
                2
            ],
            "weights": [
                -0.06533867120742798,
                -0.20275133848190309,
                -0.32731786370277407,
                0.48977717757225039,
                0.26784905791282656,
                -0.16876310110092164,
                -0.4682070016860962,
                0.17725351452827454,
                -0.23962360620498658,
                0.13067954778671266,
                -0.6810162663459778,
                0.21379604935646058,
                0.4148268699645996,
                0.0018678903579711915,
                -0.10443123430013657,
                0.013894893229007721,
                0.6586987972259522,
                0.28538602590560915,
                0.22945444285869599,
                0.5289727449417114,
                -0.36540281772613528,
                -0.2286471128463745,
                0.4850478172302246,
                -0.5505009293556213,
                0.4005671739578247,
                -0.2422962188720703,
                0.28195247054100039,
                -0.4758286774158478,
                0.27396345138549807,
                -0.43231576681137087,
                -0.4208558201789856,
                0.4634615182876587,
                0.30145829916000368,
                0.33308497071266177,
                -0.2157403826713562,
                0.05375680327415466,
                -0.21645653247833253,
                0.005433056503534317,
                -0.2875097692012787,
                -0.5519580841064453,
                0.2618439793586731,
                0.36441007256507876,
                -0.4415190815925598,
                -0.01638204976916313,
                0.21412158012390138,
                0.08160630613565445,
                -0.14609003067016602,
                -0.5654829144477844,
                0.03420871123671532,
                -0.20674443244934083,
                -0.0914033055305481,
                -0.10134069621562958,
                0.4256271719932556,
                0.06737461686134339,
                -0.05902812257409096,
                -0.3295119106769562,
                0.13385874032974244,
                -0.010149873793125153,
                -0.07908249646425247,
                -0.21039050817489625,
                0.3984493017196655,
                0.44542819261550906,
                0.00043939054012298584,
                -0.2517849802970886,
                0.1795031726360321,
                -0.1310015469789505,
                0.16703054308891297,
                -0.08050194382667542,
                -0.26137638092041018,
                0.09916553646326065,
                -0.13521236181259156,
                -0.0017511025071144105,
                -0.4398951530456543,
                0.02680841088294983,
                0.10032164305448532,
                -0.44796183705329897,
                0.38205686211586,
                0.24947041273117066,
                0.22037896513938905,
                -0.035766683518886569,
                -0.2597229480743408,
                0.28634047508239748,
                0.36607253551483157,
                0.08306489884853363,
                -0.6290353536605835,
                0.1269143670797348,
                0.44064244627952578,
                0.3025978207588196,
                0.29544681310653689,
                0.6395574808120728,
                0.5099393129348755,
                -0.5081995725631714,
                -0.36141514778137209,
                0.3192231357097626,
                0.043345123529434207,
                0.29261308908462527,
                -0.33988186717033389,
                0.49083203077316286,
                0.45665261149406435,
                -0.12284573912620545,
                -0.19082844257354737,
                0.3806458115577698,
                -0.03530139848589897,
                -0.5359955430030823
            ],
            "biases": [
                -0.43399035930633547,
                -0.3323953151702881,
                -0.20066189765930177,
                -0.49667370319366457,
                -0.12157439440488816,
                -0.19074954092502595,
                0.19340866804122926,
                -0.08726321160793305,
                0.3040047287940979,
                0.18186208605766297
            ]
        },
        {
            "layers": [
                11,
                8,
                2
            ],
            "weights": [
                0.011424697935581208,
                -0.15843740105628968,
                -0.3189738690853119,
                0.5082370638847351,
                0.3481675684452057,
                -0.16876310110092164,
                -0.49102145433425906,
                0.17725351452827454,
                -0.23962360620498658,
                0.24534842371940614,
                -0.6810162663459778,
                0.24616007506847382,
                0.4148268699645996,
                0.0018678903579711915,
                -0.05296536162495613,
                0.0870688334107399,
                0.6586987972259522,
                0.2881869971752167,
                0.22945444285869599,
                0.5289727449417114,
                -0.36540281772613528,
                -0.275208979845047,
                0.4747062027454376,
                -0.48455923795700076,
                0.4005671739578247,
                -0.2422962188720703,
                0.3756069540977478,
                -0.310302197933197,
                0.2200004756450653,
                -0.43231576681137087,
                0.30498939752578738,
                0.19710935652256013,
                0.4761315584182739,
                0.33308497071266177,
                0.10320133715867996,
                0.019712764769792558,
                -0.26033222675323489,
                0.06179642304778099,
                -0.2875097692012787,
                -0.5519580841064453,
                -0.08274736255407334,
                0.4026695191860199,
                -0.4558597803115845,
                -0.03506403788924217,
                0.11747109144926071,
                0.19606158137321473,
                -0.10104291886091232,
                -0.6075629591941834,
                0.09112006425857544,
                -0.27348095178604128,
                -0.2063044160604477,
                0.32236409187316897,
                0.23348699510097505,
                0.12151256948709488,
                -0.021903250366449357,
                -0.3295119106769562,
                0.05298642814159393,
                -0.03740241751074791,
                -0.015470534563064576,
                -0.21039050817489625,
                0.451951265335083,
                0.44542819261550906,
                0.05144813656806946,
                -0.2402949184179306,
                0.24515563249588014,
                -0.1348685920238495,
                0.16703054308891297,
                -0.08050194382667542,
                -0.26137638092041018,
                0.01458902657032013,
                -0.11370956897735596,
                -0.0017511025071144105,
                -0.4398951530456543,
                0.017394907772541047,
                0.10032164305448532,
                -0.4100551903247833,
                0.38205686211586,
                0.24947041273117066,
                0.22037896513938905,
                0.019754305481910707,
                -0.23799657821655274,
                0.28634047508239748,
                0.6961835026741028,
                0.08306489884853363,
                -0.6290353536605835,
                0.1269143670797348,
                0.4632606506347656,
                0.2652665972709656,
                0.34999263286590578,
                0.6089895963668823,
                0.5326871275901794,
                -0.5081995725631714,
                -0.22955477237701417,
                0.056260883808135989,
                0.043345123529434207,
                0.22781306505203248,
                -0.33988186717033389,
                0.49083203077316286,
                0.45665261149406435,
                -0.020476028323173524,
                -0.19082844257354737,
                0.3510233163833618,
                -0.0936216190457344,
                -0.5039649605751038
            ],
            "biases": [
                -0.43066954612731936,
                -0.13730525970458985,
                -0.1161559596657753,
                -0.40228623151779177,
                -0.12157439440488816,
                -0.08174113184213638,
                0.19340866804122926,
                0.026281040161848069,
                0.014320019632577896,
                0.36723729968070986
            ]
        },
        {
            "layers": [
                11,
                8,
                2
            ],
            "weights": [
                -0.07791218161582947,
                -0.20275133848190309,
                -0.32731786370277407,
                0.5082370638847351,
                0.19513866305351258,
                -0.14473767578601838,
                -0.4682070016860962,
                0.17725351452827454,
                -0.24382133781909944,
                0.13067954778671266,
                -0.6627438068389893,
                0.21379604935646058,
                0.3499968349933624,
                -0.02304767072200775,
                -0.10443123430013657,
                -0.13507145643234254,
                0.273027241230011,
                0.28538602590560915,
                0.24894645810127259,
                0.612546443939209,
                -0.39355599880218508,
                -0.20539313554763795,
                0.5325838923454285,
                -0.4018573760986328,
                0.4005671739578247,
                -0.2422962188720703,
                0.19676613807678224,
                -0.4415576457977295,
                0.27396345138549807,
                -0.43231576681137087,
                -0.4208558201789856,
                0.19710935652256013,
                0.30145829916000368,
                0.33308497071266177,
                0.10320133715867996,
                0.11917808651924133,
                -0.21645653247833253,
                0.061660025268793109,
                -0.23064276576042176,
                -0.607406735420227,
                0.17370378971099854,
                0.4026695191860199,
                -0.4488625228404999,
                -0.03506403788924217,
                0.1215883269906044,
                0.12052305787801743,
                -0.017818883061408998,
                -0.4899199903011322,
                0.09112006425857544,
                -0.30042368173599245,
                -0.07821955531835556,
                0.32236409187316897,
                0.23348699510097505,
                0.05678064748644829,
                0.03677203506231308,
                -0.3295119106769562,
                0.13385874032974244,
                0.07918769121170044,
                -0.1787000447511673,
                -0.2604576051235199,
                0.3984493017196655,
                0.44542819261550906,
                0.01231304556131363,
                -0.2477281093597412,
                0.24515563249588014,
                -0.1348685920238495,
                0.16703054308891297,
                -0.08050194382667542,
                -0.24058979749679566,
                0.01458902657032013,
                -0.11370956897735596,
                -0.0017511025071144105,
                -0.4398951530456543,
                0.006441779434680939,
                0.057150013744831088,
                -0.4100551903247833,
                0.38205686211586,
                0.2417740523815155,
                0.3206668794155121,
                0.053158704191446307,
                -0.44727465510368349,
                0.28634047508239748,
                0.36607253551483157,
                -0.06707880645990372,
                -0.6290353536605835,
                0.1269143670797348,
                0.5233302712440491,
                0.17836786806583405,
                0.29544681310653689,
                0.7077629566192627,
                0.6091763377189636,
                -0.4936661124229431,
                -0.36141514778137209,
                0.3192231357097626,
                -0.4074215590953827,
                0.32088977098464968,
                -0.33988186717033389,
                0.4444459080696106,
                -0.4289144277572632,
                -0.12284573912620545,
                -0.19082844257354737,
                0.3806458115577698,
                -0.03530139848589897,
                -0.408263623714447
            ],
            "biases": [
                -0.43399035930633547,
                -0.33222436904907229,
                -0.10747276991605759,
                -0.3996084928512573,
                -0.08463746309280396,
                -0.19074954092502595,
                0.1417849063873291,
                -0.08726321160793305,
                0.014320019632577896,
                0.16574501991271974
            ]
        }
    ]
}