{
    "generation": 178,
    "brains": [
        {
            "layers": [
                11,
                8,
                2
            ],
            "weights": [
                -0.05552993714809418,
                -0.14255231618881226,
                -0.43612152338027956,
                0.23507055640220643,
                0.1897449791431427,
                -0.15531271696090699,
                -0.6145144104957581,
                -0.19851744174957276,
                -0.2649697959423065,
                0.08208947628736496,
                0.12368780374526978,
                0.43223604559898379,
                0.3909052014350891,
                -0.014969944953918457,
                -0.11805187910795212,
                0.11996382474899292,
                0.6201809048652649,
                0.17707347869873048,
                0.1311665177345276,
                0.4071713984012604,
                -0.22472336888313294,
                -0.19120031595230103,
                0.6877613663673401,
                -0.4880908131599426,
                0.44248703122138979,
                -0.1612682044506073,
                0.166823148727417,
                -0.23577788472175599,
                0.26276183128356936,
                -0.46117204427719118,
                0.13801738619804383,
                0.3069220185279846,
                0.3565358817577362,
                0.34721866250038149,
                0.19642803072929383,
                0.029923949390649797,
                -0.19720232486724854,
                -0.007859848439693451,
                -0.4105760455131531,
                -0.4934370517730713,
                0.3618549108505249,
                0.2720678746700287,
                -0.48243600130081179,
                -0.10873426496982575,
                0.12003859877586365,
                0.19606158137321473,
                0.022720981389284135,
                -0.5798800587654114,
                0.06496524810791016,
                -0.2726547122001648,
                -0.019405804574489595,
                0.2860807478427887,
                0.20824433863162995,
                0.21166905760765077,
                -0.060854602605104449,
                -0.11042017489671707,
                0.12319661676883698,
                -0.08282194286584854,
                -0.01993372291326523,
                -0.23875461518764497,
                0.43452951312065127,
                0.44542819261550906,
                0.12379589676856995,
                -0.19680523872375489,
                0.2328760027885437,
                -0.04230678826570511,
                0.30422186851501467,
                -0.07203623652458191,
                -0.3410723805427551,
                0.417082279920578,
                -0.29736509919166567,
                0.07103854417800904,
                -0.3040200471878052,
                0.21967709064483643,
                -0.06589526683092118,
                -0.4059152901172638,
                0.35132500529289248,
                0.426497220993042,
                0.21631503105163575,
                -0.17462360858917237,
                -0.1642719805240631,
                0.4344000816345215,
                0.6851597428321838,
                0.11681430786848068,
                -0.4422677159309387,
                0.1411401927471161,
                0.32949066162109377,
                0.3099699020385742,
                0.34999263286590578,
                0.5206551551818848,
                0.480905145406723,
                -0.6355846524238586,
                -0.2790692150592804,
                0.11407788842916489,
                0.19341658055782319,
                0.22728592157363892,
                -0.32179731130599978,
                0.43008342385292055,
                0.4652911424636841,
                0.008578658103942871,
                -0.28722602128982546,
                0.42620596289634707,
                -0.007052212953567505,
                -0.5134298801422119
            ],
            "biases": [
                -0.4039517045021057,
                -0.22784876823425294,
                -0.20066189765930177,
                -0.47083592414855959,
                -0.13918285071849824,
                -0.10080078989267349,
                0.334141343832016,
                0.030539657920598985,
                0.07728877663612366,
                0.17246678471565247
            ]
        },
        {
            "layers": [
                11,
                8,
                2
            ],
            "weights": [
                -0.05552993714809418,
                -0.12394563108682633,
                -0.3409605920314789,
                0.27130091190338137,
                0.5152877569198608,
                -0.10615291446447373,
                -0.5905210971832275,
                -0.14285942912101746,
                -0.2649697959423065,
                0.073667012155056,
                -0.7670942544937134,
                0.3430584669113159,
                0.340829461812973,
                0.061581432819366458,
                -0.07681912183761597,
                0.29574477672576907,
                0.6201809048652649,
                0.40172821283340456,
                0.22713863849639893,
                0.40908265113830569,
                -0.22472336888313294,
                -0.19120031595230103,
                0.6877613663673401,
                -0.4578590393066406,
                0.43551743030548098,
                -0.04564926400780678,
                0.166823148727417,
                -0.23577788472175599,
                0.028095006942749025,
                -0.4118034839630127,
                0.19552278518676759,
                0.22647613286972047,
                0.4592275023460388,
                0.3446601927280426,
                0.17072905600070954,
                0.005535654723644257,
                -0.1611473262310028,
                -0.029973160475492479,
                -0.4333040118217468,
                -0.5015593767166138,
                0.39622732996940615,
                0.28991907835006716,
                -0.45194655656814577,
                -0.10873426496982575,
                0.061272285878658298,
                0.13694602251052857,
                -0.009328961372375489,
                -0.5020453929901123,
                0.06496524810791016,
                -0.2169703245162964,
                -0.019405804574489595,
                0.20301327109336854,
                0.20824433863162995,
                0.18383896350860597,
                -0.060854602605104449,
                -0.26327472925186159,
                0.1223137378692627,
                -0.08282194286584854,
                -0.015470534563064576,
                -0.23875461518764497,
                0.46255257725715639,
                0.44542819261550906,
                0.07474091649055481,
                -0.19680523872375489,
                0.3463851809501648,
                -0.04230678826570511,
                0.07227496057748795,
                -0.15173152089118958,
                -0.2613256573677063,
                0.5267351865768433,
                -0.29736509919166567,
                0.07103854417800904,
                -0.3906451463699341,
                0.21967709064483643,
                0.014906026422977448,
                -0.48315542936325076,
                0.24309799075126649,
                0.426497220993042,
                0.1544131338596344,
                -0.17462360858917237,
                -0.1642719805240631,
                0.28454217314720156,
                0.6720090508460999,
                0.2650418281555176,
                -0.5254359245300293,
                0.1565362513065338,
                0.32949066162109377,
                0.3181875944137573,
                0.34999263286590578,
                0.5206551551818848,
                0.41889604926109316,
                -0.5180138945579529,
                -0.2522951662540436,
                0.11407788842916489,
                0.14799441397190095,
                0.22728592157363892,
                -0.3471371531486511,
                0.4902656674385071,
                0.45499294996261599,
                -0.0007868185639381409,
                -0.19211217761039735,
                0.44754400849342348,
                -0.007052212953567505,
                -0.5134298801422119
            ],
            "biases": [
                -0.2853907346725464,
                -0.31419485807418826,
                -0.20066189765930177,
                -0.46379077434539797,
                -0.1369134783744812,
                -0.10080078989267349,
                0.28483515977859499,
                0.030539657920598985,
                -0.007575903087854385,
                0.17246678471565247
            ]
        },
        {
            "layers": [
                11,
                8,
                2
            ],
            "weights": [
                -0.05552993714809418,
                -0.12394563108682633,
                -0.3454549312591553,
                0.27130091190338137,
                0.33539822697639468,
                -0.00793188065290451,
                -0.5905210971832275,
                -0.19851744174957276,
                -0.2649697959423065,
                0.073667012155056,
                -0.7670942544937134,
                0.43223604559898379,
                0.340829461812973,
                0.061581432819366458,
                -0.14086014032363892,
                0.11996382474899292,
                0.6201809048652649,
                0.40172821283340456,
                0.22713863849639893,
                0.4071713984012604,
                -0.22472336888313294,
                -0.20847854018211366,
                0.5353690385818481,
                -0.4578590393066406,
                0.43551743030548098,
                -0.07882010191679001,
                0.166823148727417,
                -0.23577788472175599,
                0.2930964529514313,
                -0.35038068890571597,
                0.19552278518676759,
                0.22647613286972047,
                0.4592275023460388,
                0.34721866250038149,
                0.17072905600070954,
                -0.05174965038895607,
                -0.21137475967407227,
                -0.029973160475492479,
                -0.4333040118217468,
                -0.5521253943443298,
                0.37493711709976199,
                0.2720678746700287,
                -0.45194655656814577,
                0.043608542531728747,
                0.061272285878658298,
                0.13694602251052857,
                -0.009328961372375489,
                -0.5020453929901123,
                0.06496524810791016,
                -0.2169703245162964,
                -0.019405804574489595,
                0.20301327109336854,
                0.20824433863162995,
                0.1387130320072174,
                -0.060854602605104449,
                -0.07970722764730454,
                0.1223137378692627,
                -0.07723752409219742,
                -0.015470534563064576,
                -0.23875461518764497,
                0.46255257725715639,
                0.44542819261550906,
                0.07474091649055481,
                -0.19680523872375489,
                0.2328760027885437,
                -0.04230678826570511,
                0.07227496057748795,
                -0.03436437249183655,
                -0.2613256573677063,
                0.492666631937027,
                -0.29736509919166567,
                0.07103854417800904,
                -0.3906451463699341,
                0.21967709064483643,
                -0.04577285796403885,
                -0.48315542936325076,
                0.24309799075126649,
                0.3724518418312073,
                0.2264905571937561,
                -0.17462360858917237,
                -0.1642719805240631,
                0.4195651412010193,
                0.6720090508460999,
                0.17199641466140748,
                -0.5254359245300293,
                0.1565362513065338,
                0.40783438086509707,
                0.3099699020385742,
                0.34999263286590578,
                0.5206551551818848,
                0.45038625597953799,
                -0.45830798149108889,
                -0.22644585371017457,
                0.11407788842916489,
                0.14799441397190095,
                0.22728592157363892,
                -0.32179731130599978,
                0.4902656674385071,
                0.4571196734905243,
                -0.0007868185639381409,
                -0.28722602128982546,
                0.4753563404083252,
                -0.007052212953567505,
                -0.4950445294380188
            ],
            "biases": [
                -0.2853907346725464,
                -0.31419485807418826,
                -0.20066189765930177,
                -0.46379077434539797,
                -0.1369134783744812,
                -0.10080078989267349,
                0.2911033034324646,
                0.030539657920598985,
                -0.007575903087854385,
                0.191317617893219
            ]
        },
        {
            "layers": [
                11,
                8,
                2
            ],
            "weights": [
                -0.05552993714809418,
                -0.12394563108682633,
                -0.41494613885879519,
                0.23507055640220643,
                0.1897449791431427,
                -0.15531271696090699,
                -0.579275906085968,
                -0.2915310859680176,
                -0.2649697959423065,
                0.08208947628736496,
                -0.7670942544937134,
                0.43223604559898379,
                0.340829461812973,
                0.0034779906272888185,
                -0.09828570485115051,
                0.09731368720531464,
                0.6201809048652649,
                0.40172821283340456,
                0.19284078478813172,
                0.415701299905777,
                -0.31940484046936037,
                -0.19120031595230103,
                0.5353690385818481,
                -0.516909658908844,
                0.44248703122138979,
                -0.07882010191679001,
                0.166823148727417,
                -0.1763220727443695,
                0.26602399349212649,
                -0.4118034839630127,
                0.19552278518676759,
                0.3069220185279846,
                0.3565358817577362,
                0.27119430899620058,
                0.10320133715867996,
                -0.1381596326828003,
                -0.19720232486724854,
                -0.007859848439693451,
                -0.34837010502815249,
                -0.5521253943443298,
                0.3598158657550812,
                0.44051194190979006,
                -0.4640263020992279,
                0.0011114589869976044,
                0.061272285878658298,
                0.1732446700334549,
                -0.009328961372375489,
                -0.5510690808296204,
                0.04801620543003082,
                -0.1427401304244995,
                -0.021614737808704377,
                0.2028176486492157,
                0.1643170714378357,
                0.21166905760765077,
                -0.023158695548772813,
                -0.17139264941215516,
                0.14069460332393647,
                -0.07723752409219742,
                -0.05900567024946213,
                -0.2823182940483093,
                0.3999137878417969,
                0.44542819261550906,
                0.07474091649055481,
                -0.19680523872375489,
                0.2328760027885437,
                -0.12221916019916535,
                0.18485651910305024,
                -0.03436437249183655,
                -0.3410723805427551,
                0.417082279920578,
                -0.29736509919166567,
                0.11237133294343949,
                -0.3906451463699341,
                0.2810667157173157,
                -0.06589526683092118,
                -0.3829917013645172,
                0.33193641901016238,
                0.1199619248509407,
                0.21631503105163575,
                -0.17462360858917237,
                -0.1642719805240631,
                0.4344000816345215,
                0.827769935131073,
                0.1158444732427597,
                -0.5254359245300293,
                0.10716170817613602,
                0.40783438086509707,
                0.3099699020385742,
                0.34999263286590578,
                0.5085866451263428,
                0.45038625597953799,
                -0.5563144087791443,
                -0.22644585371017457,
                0.11407788842916489,
                0.19341658055782319,
                0.22728592157363892,
                -0.32179731130599978,
                0.2537210285663605,
                0.4652911424636841,
                0.08751785755157471,
                -0.28722602128982546,
                0.42620596289634707,
                -0.09255584329366684,
                -0.36333170533180239
            ],
            "biases": [
                -0.3110012710094452,
                -0.31419485807418826,
                -0.20066189765930177,
                -0.46379077434539797,
                -0.09349760413169861,
                -0.15919078886508943,
                0.23641622066497804,
                0.030539657920598985,
                -0.007575903087854385,
                0.17246678471565247
            ]
        },
        {
            "layers": [
                11,
                8,
                2
            ],
            "weights": [
                -0.05552993714809418,
                -0.19330623745918275,
                -0.3428342640399933,
                0.23507055640220643,
                0.4356890916824341,
                -0.15531271696090699,
                -0.5905210971832275,
                -0.19851744174957276,
                -0.2649697959423065,
                0.15346422791481019,
                -0.7670942544937134,
                0.43223604559898379,
                0.43779033422470095,
                -0.11379736661911011,
                -0.2125025987625122,
                0.29574477672576907,
                0.6201809048652649,
                0.1290164589881897,
                0.1946742832660675,
                0.4542125463485718,
                -0.31940484046936037,
                -0.19120031595230103,
                0.5947001576423645,
                -0.4578590393066406,
                0.44248703122138979,
                -0.07882010191679001,
                0.166823148727417,
                -0.23577788472175599,
                0.3139548599720001,
                -0.4118034839630127,
                0.19552278518676759,
                0.3334125280380249,
                0.3948131501674652,
                0.34721866250038149,
                0.17072905600070954,
                -0.03727444261312485,
                -0.21137475967407227,
                -0.16638502478599549,
                -0.34837010502815249,
                -0.4934370517730713,
                0.4244834780693054,
                0.2720678746700287,
                -0.48243600130081179,
                0.0011114589869976044,
                0.061272285878658298,
                0.19606158137321473,
                -0.009328961372375489,
                -0.5020453929901123,
                0.04801620543003082,
                -0.2343212515115738,
                0.06516247987747193,
                0.20301327109336854,
                0.1643170714378357,
                0.1846221387386322,
                -0.14518387615680695,
                -0.07970722764730454,
                0.1223137378692627,
                -0.07723752409219742,
                -0.11920826137065888,
                -0.2677464485168457,
                0.46255257725715639,
                0.44542819261550906,
                0.35338878631591799,
                -0.32130032777786257,
                0.20792189240455628,
                -0.04230678826570511,
                0.30422186851501467,
                -0.15173152089118958,
                -0.18022209405899049,
                0.5267351865768433,
                -0.26224568486213686,
                0.11237133294343949,
                -0.4172860383987427,
                0.11637122929096222,
                -0.06589526683092118,
                -0.3217443823814392,
                0.38205686211586,
                0.426497220993042,
                0.1917388141155243,
                -0.17462360858917237,
                -0.1642719805240631,
                0.4335813522338867,
                0.621254563331604,
                0.08423704653978348,
                -0.5254359245300293,
                -0.022418707609176637,
                0.4352511167526245,
                0.3181875944137573,
                0.34999263286590578,
                0.5206551551818848,
                0.45038625597953799,
                -0.5563144087791443,
                -0.1881127953529358,
                0.06553418934345246,
                0.14799441397190095,
                0.22728592157363892,
                -0.20672816038131715,
                0.43008342385292055,
                0.49443644285202029,
                0.008578658103942871,
                -0.28722602128982546,
                0.22729924321174622,
                -0.007052212953567505,
                -0.30185118317604067
            ],
            "biases": [
                -0.32932549715042117,
                -0.31419485807418826,
                -0.20066189765930177,
                -0.49767494201660159,
                -0.13918285071849824,
                -0.19547073543071748,
                0.28964656591415408,
                0.030539657920598985,
                -0.03370320424437523,
                0.191317617893219
            ]
        },
        {
            "layers": [
                11,
                8,
                2
            ],
            "weights": [
                -0.05552993714809418,
                -0.12394563108682633,
                -0.43612152338027956,
                0.23507055640220643,
                0.1897449791431427,
                -0.15531271696090699,
                -0.6145144104957581,
                -0.19851744174957276,
                -0.16850915551185609,
                0.08208947628736496,
                0.12368780374526978,
                0.43223604559898379,
                0.43779033422470095,
                0.0034779906272888185,
                -0.09828570485115051,
                0.11996382474899292,
                0.6201809048652649,
                0.18432770669460298,
                0.1311665177345276,
                0.4071713984012604,
                -0.31940484046936037,
                -0.19120031595230103,
                0.5353690385818481,
                -0.516909658908844,
                0.44248703122138979,
                -0.1612682044506073,
                0.166823148727417,
                -0.23577788472175599,
                0.26276183128356936,
                -0.5654339790344238,
                0.24187850952148438,
                0.2789960503578186,
                0.3565358817577362,
                0.34721866250038149,
                0.19642803072929383,
                0.11492344737052918,
                -0.19720232486724854,
                0.0903751403093338,
                -0.4387298822402954,
                -0.4934370517730713,
                0.3618549108505249,
                0.2720678746700287,
                -0.38338786363601687,
                0.0011114589869976044,
                0.061272285878658298,
                0.1732446700334549,
                -0.009328961372375489,
                -0.5510690808296204,
                0.06496524810791016,
                -0.2517601251602173,
                -0.019405804574489595,
                0.2028176486492157,
                0.20824433863162995,
                0.1821814775466919,
                -0.060854602605104449,
                -0.17139264941215516,
                0.1223137378692627,
                -0.05183233693242073,
                -0.0630808100104332,
                -0.23875461518764497,
                0.43452951312065127,
                0.44542819261550906,
                0.07474091649055481,
                -0.19680523872375489,
                0.2328760027885437,
                -0.12221916019916535,
                0.18485651910305024,
                -0.12033732235431671,
                -0.17798537015914918,
                0.5152662396430969,
                -0.29736509919166567,
                0.20159536600112916,
                -0.3906451463699341,
                0.07347676157951355,
                -0.06589526683092118,
                -0.4059152901172638,
                0.33193641901016238,
                0.1199619248509407,
                0.21631503105163575,
                -0.17462360858917237,
                -0.1642719805240631,
                0.4344000816345215,
                0.7282161712646484,
                0.11681430786848068,
                -0.5254359245300293,
                0.0600915253162384,
                0.33645057678222659,
                0.3099699020385742,
                0.27248087525367739,
                0.5206551551818848,
                0.480905145406723,
                -0.4220791757106781,
                -0.2790692150592804,
                0.11407788842916489,
                0.19341658055782319,
                0.22728592157363892,
                -0.32179731130599978,
                0.4902656674385071,
                0.4652911424636841,
                0.008578658103942871,
                -0.1958526223897934,
                0.42620596289634707,
                -0.07842663675546646,
                -0.46481436491012576
            ],
            "biases": [
                -0.3110012710094452,
                -0.22784876823425294,
                -0.20066189765930177,
                -0.46379077434539797,
                -0.1613846719264984,
                -0.15919078886508943,
                0.334141343832016,
                0.030539657920598985,
                -0.007575903087854385,
                0.17246678471565247
            ]
        },
        {
            "layers": [
                11,
                8,
                2
            ],
            "weights": [
                -0.05227863788604736,
                -0.12394563108682633,
                -0.3428342640399933,
                0.27130091190338137,
                0.4153667092323303,
                -0.1102820485830307,
                -0.5905210971832275,
                -0.22463271021842957,
                -0.2649697959423065,
                0.073667012155056,
                -0.7670942544937134,
                0.3430584669113159,
                0.43779033422470095,
                0.0086502805352211,
                -0.14086014032363892,
                0.29574477672576907,
                0.6201809048652649,
                0.051908813416957858,
                0.13125544786453248,
                0.40908265113830569,
                -0.31940484046936037,
                -0.19120031595230103,
                0.6877613663673401,
                -0.4880908131599426,
                0.44248703122138979,
                -0.07882010191679001,
                0.15018713474273683,
                -0.23577788472175599,
                0.3139548599720001,
                -0.46117204427719118,
                0.19552278518676759,
                0.26251086592674258,
                0.4592275023460388,
                0.3446601927280426,
                0.17072905600070954,
                -0.05174965038895607,
                -0.1611473262310028,
                -0.05359269678592682,
                -0.34837010502815249,
                -0.4934370517730713,
                0.4244834780693054,
                0.2720678746700287,
                -0.48243600130081179,
                -0.10873426496982575,
                0.147243931889534,
                0.19606158137321473,
                -0.009328961372375489,
                -0.5020453929901123,
                0.11749235540628433,
                -0.2726547122001648,
                0.06516247987747193,
                0.20301327109336854,
                0.1550198793411255,
                0.18383896350860597,
                -0.060854602605104449,
                -0.07970722764730454,
                0.1223137378692627,
                -0.08282194286584854,
                -0.015470534563064576,
                -0.23875461518764497,
                0.46255257725715639,
                0.44542819261550906,
                0.35338878631591799,
                -0.19680523872375489,
                0.3463851809501648,
                -0.04230678826570511,
                0.30422186851501467,
                -0.15173152089118958,
                -0.22725284099578858,
                0.5267351865768433,
                -0.26224568486213686,
                0.14174184203147889,
                -0.3920992314815521,
                0.21967709064483643,
                -0.01456432044506073,
                -0.39470887184143069,
                0.38388514518737795,
                0.426497220993042,
                0.23162315785884858,
                -0.17462360858917237,
                -0.1642719805240631,
                0.28454217314720156,
                0.6940981149673462,
                0.1695793867111206,
                -0.5254359245300293,
                0.0642683282494545,
                0.32949066162109377,
                0.3181875944137573,
                0.34999263286590578,
                0.5059835314750671,
                0.45038625597953799,
                -0.5180138945579529,
                -0.2522951662540436,
                0.11407788842916489,
                0.14799441397190095,
                0.22728592157363892,
                -0.3471371531486511,
                0.43008342385292055,
                0.47195965051651,
                -0.0501832440495491,
                -0.28722602128982546,
                0.4753563404083252,
                -0.007052212953567505,
                -0.5134298801422119
            ],
            "biases": [
                -0.4039517045021057,
                -0.31419485807418826,
                -0.20066189765930177,
                -0.49767494201660159,
                -0.13918285071849824,
                -0.10080078989267349,
                0.2911033034324646,
                -0.004150256514549255,
                -0.11216616630554199,
                0.191317617893219
            ]
        },
        {
            "layers": [
                11,
                8,
                2
            ],
            "weights": [
                -0.05552993714809418,
                -0.12394563108682633,
                -0.41494613885879519,
                0.23507055640220643,
                0.1897449791431427,
                -0.15531271696090699,
                -0.5910934209823608,
                -0.1443955898284912,
                -0.2649697959423065,
                0.08208947628736496,
                0.12368780374526978,
                0.43223604559898379,
                0.4802577495574951,
                0.0034779906272888185,
                -0.09828570485115051,
                0.09731368720531464,
                0.7139506936073303,
                0.09152863174676895,
                0.13814476132392884,
                0.415701299905777,
                -0.31940484046936037,
                -0.19120031595230103,
                0.6877613663673401,
                -0.4880908131599426,
                0.4332748055458069,
                -0.038303129374980929,
                0.166823148727417,
                -0.23577788472175599,
                0.028095006942749025,
                -0.4118034839630127,
                0.19552278518676759,
                0.3069220185279846,
                0.3565358817577362,
                0.34721866250038149,
                0.11854492872953415,
                -0.1381596326828003,
                -0.19720232486724854,
                -0.007859848439693451,
                -0.4333040118217468,
                -0.5521253943443298,
                0.3598158657550812,
                0.34065133333206179,
                -0.4640263020992279,
                0.0011114589869976044,
                0.061272285878658298,
                0.1732446700334549,
                -0.05875314027070999,
                -0.5510690808296204,
                0.04801620543003082,
                -0.1427401304244995,
                -0.021614737808704377,
                0.2028176486492157,
                0.2230987548828125,
                0.21166905760765077,
                -0.060854602605104449,
                -0.11042017489671707,
                0.12566819787025453,
                -0.08282194286584854,
                -0.10593181848526001,
                -0.23875461518764497,
                0.46255257725715639,
                0.44542819261550906,
                0.14732930064201356,
                -0.19680523872375489,
                0.2328760027885437,
                -0.04230678826570511,
                0.30422186851501467,
                -0.03436437249183655,
                -0.3410723805427551,
                0.417082279920578,
                -0.29736509919166567,
                0.11237133294343949,
                -0.3906451463699341,
                0.21967709064483643,
                -0.06589526683092118,
                -0.3829917013645172,
                0.4059617519378662,
                0.426497220993042,
                0.21631503105163575,
                -0.17462360858917237,
                -0.1642719805240631,
                0.28454217314720156,
                0.827769935131073,
                0.14861878752708436,
                -0.5721592903137207,
                0.10172329097986222,
                0.40783438086509707,
                0.3099699020385742,
                0.34999263286590578,
                0.5206551551818848,
                0.45038625597953799,
                -0.5563144087791443,
                -0.2790692150592804,
                0.11407788842916489,
                0.19341658055782319,
                0.262783020734787,
                -0.32179731130599978,
                0.43008342385292055,
                0.4652911424636841,
                -0.0501832440495491,
                -0.30146002769470217,
                0.3415277898311615,
                -0.09255584329366684,
                -0.5134298801422119
            ],
            "biases": [
                -0.3110012710094452,
                -0.31419485807418826,
                -0.20066189765930177,
                -0.46379077434539797,
                -0.13918285071849824,
                -0.15919078886508943,
                0.23641622066497804,
                0.030539657920598985,
                -0.007575903087854385,
                0.17246678471565247
            ]
        },
        {
            "layers": [
                11,
                8,
                2
            ],
            "weights": [
                -0.05552993714809418,
                -0.12394563108682633,
                -0.43612152338027956,
                0.23507055640220643,
                0.1897449791431427,
                -0.15531271696090699,
                -0.6145144104957581,
                -0.19851744174957276,
                -0.16850915551185609,
                0.08208947628736496,
                -0.7670942544937134,
                0.43223604559898379,
                0.43779033422470095,
                0.0034779906272888185,
                -0.11805187910795212,
                0.11996382474899292,
                0.6201809048652649,
                0.17707347869873048,
                0.1311665177345276,
                0.415701299905777,
                -0.31940484046936037,
                -0.19120031595230103,
                0.5353690385818481,
                -0.49304619431495669,
                0.44248703122138979,
                -0.07882010191679001,
                0.0293368399143219,
                -0.1763220727443695,
                0.26602399349212649,
                -0.4118034839630127,
                0.19552278518676759,
                0.27248209714889529,
                0.3565358817577362,
                0.27119430899620058,
                0.19642803072929383,
                0.029923949390649797,
                -0.19720232486724854,
                -0.007859848439693451,
                -0.4387298822402954,
                -0.4934370517730713,
                0.3618549108505249,
                0.2720678746700287,
                -0.4640263020992279,
                0.0011114589869976044,
                0.12003859877586365,
                0.1732446700334549,
                0.022720981389284135,
                -0.5020453929901123,
                0.04801620543003082,
                -0.1427401304244995,
                0.0066484324634075169,
                0.2028176486492157,
                0.1643170714378357,
                0.2725886106491089,
                -0.023158695548772813,
                -0.24557891488075257,
                0.1223137378692627,
                -0.05183233693242073,
                -0.05900567024946213,
                -0.23875461518764497,
                0.43452951312065127,
                0.44542819261550906,
                0.07474091649055481,
                -0.19680523872375489,
                0.2328760027885437,
                -0.04230678826570511,
                0.12375448644161225,
                -0.0710345208644867,
                -0.3410723805427551,
                0.417082279920578,
                -0.29736509919166567,
                0.20159536600112916,
                -0.3906451463699341,
                0.07347676157951355,
                -0.06589526683092118,
                -0.4059152901172638,
                0.33193641901016238,
                0.1199619248509407,
                0.21631503105163575,
                -0.17462360858917237,
                -0.1642719805240631,
                0.4344000816345215,
                0.7282161712646484,
                0.1158444732427597,
                -0.5254359245300293,
                0.09147430211305618,
                0.40783438086509707,
                0.3099699020385742,
                0.34999263286590578,
                0.5085866451263428,
                0.44474175572395327,
                -0.4220791757106781,
                -0.22644585371017457,
                0.11407788842916489,
                0.19341658055782319,
                0.2293817698955536,
                -0.32179731130599978,
                0.4902656674385071,
                0.4652911424636841,
                0.08869536966085434,
                -0.28722602128982546,
                0.42620596289634707,
                -0.07842663675546646,
                -0.46481436491012576
            ],
            "biases": [
                -0.35529884696006777,
                -0.31419485807418826,
                -0.19382928311824799,
                -0.37214475870132449,
                -0.1613846719264984,
                -0.15919078886508943,
                0.3220056891441345,
                0.030539657920598985,
                -0.007575903087854385,
                0.17246678471565247
            ]
        },
        {
            "layers": [
                11,
                8,
                2
            ],
            "weights": [
                -0.05552993714809418,
                -0.12394563108682633,
                -0.3454549312591553,
                0.27130091190338137,
                0.33539822697639468,
                -0.00793188065290451,
                -0.5905210971832275,
                -0.19851744174957276,
                -0.2649697959423065,
                0.073667012155056,
                0.12368780374526978,
                0.4495070278644562,
                0.43779033422470095,
                0.061581432819366458,
                -0.09828570485115051,
                0.11996382474899292,
                0.6201809048652649,
                0.17707347869873048,
                0.22713863849639893,
                0.415701299905777,
                -0.22472336888313294,
                -0.19120031595230103,
                0.5353690385818481,
                -0.4578590393066406,
                0.39268219470977785,
                -0.1612682044506073,
                0.166823148727417,
                -0.23577788472175599,
                0.26276183128356936,
                -0.35038068890571597,
                0.19552278518676759,
                0.22647613286972047,
                0.3565358817577362,
                0.34721866250038149,
                0.17072905600070954,
                -0.05174965038895607,
                -0.2805421054363251,
                -0.029973160475492479,
                -0.4333040118217468,
                -0.4934370517730713,
                0.3618549108505249,
                0.44051194190979006,
                -0.38338786363601687,
                0.0011114589869976044,
                0.061272285878658298,
                0.13694602251052857,
                -0.009328961372375489,
                -0.5510690808296204,
                0.06496524810791016,
                -0.2169703245162964,
                -0.019405804574489595,
                0.2028176486492157,
                0.20824433863162995,
                0.1387130320072174,
                0.03580472245812416,
                -0.07970722764730454,
                0.05938059091567993,
                -0.09622414410114289,
                -0.0630808100104332,
                -0.23875461518764497,
                0.44239985942840578,
                0.3706052303314209,
                0.07474091649055481,
                -0.19680523872375489,
                0.2328760027885437,
                -0.12221916019916535,
                0.07227496057748795,
                -0.13279110193252564,
                -0.2613256573677063,
                0.417082279920578,
                -0.29736509919166567,
                0.18291828036308289,
                -0.3906451463699341,
                0.07347676157951355,
                -0.04577285796403885,
                -0.48315542936325076,
                0.33193641901016238,
                0.1199619248509407,
                0.21631503105163575,
                -0.17462360858917237,
                -0.1642719805240631,
                0.4195651412010193,
                0.827769935131073,
                0.17199641466140748,
                -0.5254359245300293,
                0.1793995350599289,
                0.40783438086509707,
                0.3099699020385742,
                0.34999263286590578,
                0.5206551551818848,
                0.45038625597953799,
                -0.45830798149108889,
                -0.2859845459461212,
                0.11407788842916489,
                0.19341658055782319,
                0.22728592157363892,
                -0.32179731130599978,
                0.4902656674385071,
                0.4652911424636841,
                -0.011842779815196991,
                -0.28722602128982546,
                0.42620596289634707,
                -0.07842663675546646,
                -0.4950445294380188
            ],
            "biases": [
                -0.26035115122795107,
                -0.31419485807418826,
                -0.20066189765930177,
                -0.46379077434539797,
                -0.1523754596710205,
                -0.15919078886508943,
                0.2911033034324646,
                0.030539657920598985,
                -0.007575903087854385,
                0.17246678471565247
            ]
        }
    ]
}