{
    "brains": [
        {
            "layers": [
                4,
                3,
                2
            ],
            "weights": [
                0.09803280234336853,
                -0.16131722927093507,
                -0.47332876920700076,
                0.5917655229568481,
                -0.15431621670722962,
                -0.006207585334777832,
                0.05652818828821182,
                0.18584683537483216,
                -0.5072433948516846,
                0.08761738985776901,
                0.31816619634628298,
                -0.6277288794517517,
                -0.5225645303726196,
                0.5204445123672485,
                0.13079701364040376,
                0.29657575488090517,
                0.7500268220901489,
                -0.46638432145118716
            ],
            "biases": [
                -0.13475698232650758,
                0.16371876001358033,
                -0.03482154384255409,
                -0.32626524567604067,
                0.09044590592384339
            ]
        },
        {
            "layers": [
                4,
                3,
                2
            ],
            "weights": [
                0.07315177470445633,
                -0.2382701337337494,
                -0.503768801689148,
                0.3815563917160034,
                -0.1406804919242859,
                -0.006207585334777832,
                0.09222644567489624,
                0.20653602480888368,
                -0.29299014806747439,
                0.051299601793289188,
                0.23751966655254365,
                -0.9783037304878235,
                -0.5297492146492004,
                0.4579048454761505,
                0.07614315301179886,
                0.3779233396053314,
                0.7500268220901489,
                -0.49611175060272219
            ],
            "biases": [
                -0.25671565532684328,
                0.16371876001358033,
                0.11033235490322113,
                -0.1880645751953125,
                0.09044590592384339
            ]
        },
        {
            "layers": [
                4,
                3,
                2
            ],
            "weights": [
                0.07315177470445633,
                -0.2382701337337494,
                -0.503768801689148,
                0.3815563917160034,
                -0.1406804919242859,
                -0.006207585334777832,
                0.09222644567489624,
                0.20653602480888368,
                -0.29299014806747439,
                0.045712463557720187,
                0.2535398304462433,
                -0.9783037304878235,
                -0.5297492146492004,
                0.4579048454761505,
                0.07614315301179886,
                0.3779233396053314,
                0.7500268220901489,
                -0.49611175060272219
            ],
            "biases": [
                -0.25671565532684328,
                0.16371876001358033,
                0.11033235490322113,
                -0.1880645751953125,
                0.09044590592384339
            ]
        },
        {
            "layers": [
                4,
                3,
                2
            ],
            "weights": [
                0.07315177470445633,
                -0.17844337224960328,
                -0.47332876920700076,
                0.3432861566543579,
                -0.08617817610502243,
                -0.006207585334777832,
                0.2922491729259491,
                0.24139495193958283,
                -0.2749687135219574,
                0.045712463557720187,
                0.3097319006919861,
                -0.923668622970581,
                -0.42711785435676577,
                0.4579048454761505,
                0.07614315301179886,
                0.2287980020046234,
                0.8230602741241455,
                -0.5328509211540222
            ],
            "biases": [
                -0.13395565748214723,
                0.2406771183013916,
                0.11033235490322113,
                -0.32626524567604067,
                0.2196711301803589
            ]
        },
        {
            "layers": [
                4,
                3,
                2
            ],
            "weights": [
                0.09803280234336853,
                -0.16131722927093507,
                -0.47332876920700076,
                0.5917655229568481,
                -0.15431621670722962,
                -0.006207585334777832,
                0.05652818828821182,
                0.2816517949104309,
                -0.5072433948516846,
                0.08761738985776901,
                0.31816619634628298,
                -0.6277288794517517,
                -0.5225645303726196,
                0.5204445123672485,
                0.13079701364040376,
                0.3253456652164459,
                0.7500268220901489,
                -0.46638432145118716
            ],
            "biases": [
                -0.13475698232650758,
                0.16371876001358033,
                0.029902402311563493,
                -0.32626524567604067,
                0.09044590592384339
            ]
        },
        {
            "layers": [
                4,
                3,
                2
            ],
            "weights": [
                0.07315177470445633,
                -0.2382701337337494,
                -0.503768801689148,
                0.3815563917160034,
                -0.1406804919242859,
                -0.006207585334777832,
                0.09222644567489624,
                0.20653602480888368,
                -0.29299014806747439,
                0.045712463557720187,
                0.2535398304462433,
                -0.9783037304878235,
                -0.5297492146492004,
                0.4579048454761505,
                0.07614315301179886,
                0.3779233396053314,
                0.7500268220901489,
                -0.49611175060272219
            ],
            "biases": [
                -0.2402886301279068,
                0.16371876001358033,
                0.11033235490322113,
                -0.1880645751953125,
                0.09044590592384339
            ]
        },
        {
            "layers": [
                4,
                3,
                2
            ],
            "weights": [
                0.09803280234336853,
                -0.16131722927093507,
                -0.49964669346809389,
                0.5917655229568481,
                -0.15431621670722962,
                -0.006207585334777832,
                0.08186013996601105,
                0.2816517949104309,
                -0.5072433948516846,
                0.08761738985776901,
                0.31816619634628298,
                -0.6277288794517517,
                -0.5225645303726196,
                0.5204445123672485,
                0.13079701364040376,
                0.29657575488090517,
                0.7500268220901489,
                -0.46638432145118716
            ],
            "biases": [
                -0.13475698232650758,
                0.16371876001358033,
                0.029902402311563493,
                -0.28318193554878237,
                0.09044590592384339
            ]
        },
        {
            "layers": [
                4,
                3,
                2
            ],
            "weights": [
                0.09803280234336853,
                -0.16131722927093507,
                -0.47332876920700076,
                0.5917655229568481,
                -0.15431621670722962,
                -0.006207585334777832,
                0.05652818828821182,
                0.2816517949104309,
                -0.5072433948516846,
                0.14370742440223695,
                0.31816619634628298,
                -0.6277288794517517,
                -0.5225645303726196,
                0.5204445123672485,
                0.13079701364040376,
                0.29657575488090517,
                0.7500268220901489,
                -0.46638432145118716
            ],
            "biases": [
                -0.13475698232650758,
                0.16371876001358033,
                -0.037102896720170978,
                -0.32626524567604067,
                0.09044590592384339
            ]
        },
        {
            "layers": [
                4,
                3,
                2
            ],
            "weights": [
                0.059792544692754748,
                -0.13159628212451936,
                -0.48804157972335818,
                0.42574870586395266,
                -0.1139272004365921,
                -0.0012463480234146119,
                0.055117178708314899,
                0.5064534544944763,
                -0.2749687135219574,
                0.045712463557720187,
                0.3097319006919861,
                -0.923668622970581,
                -0.5297492146492004,
                0.4579048454761505,
                0.07614315301179886,
                0.2287980020046234,
                0.7500268220901489,
                -0.49611175060272219
            ],
            "biases": [
                -0.25671565532684328,
                0.16371876001358033,
                0.11033235490322113,
                -0.25930067896842959,
                0.25921502709388735
            ]
        },
        {
            "layers": [
                4,
                3,
                2
            ],
            "weights": [
                0.009813368320465088,
                -0.09968336671590805,
                -0.47332876920700076,
                0.49442392587661745,
                -0.2598181664943695,
                0.03629760444164276,
                0.09222644567489624,
                0.24186131358146668,
                -0.2749687135219574,
                0.045712463557720187,
                0.3698641061782837,
                -0.9899620413780212,
                -0.5225645303726196,
                0.6553766131401062,
                0.07614315301179886,
                0.21216078102588654,
                0.8052481412887573,
                -0.49611175060272219
            ],
            "biases": [
                -0.1639789342880249,
                0.16371876001358033,
                0.19836562871932984,
                -0.32626524567604067,
                0.19197773933410645
            ]
        }
    ]
}