{
    "brains": [
        {
            "layers": [
                14,
                8,
                2
            ],
            "weights": [
                0.5157353281974793,
                0.06613914668560028,
                0.36039113998413088,
                -0.2833845913410187,
                0.1601286232471466,
                -0.33298882842063906,
                -0.3245096206665039,
                -0.0627269446849823,
                0.04097064584493637,
                0.4693903923034668,
                0.10218065977096558,
                -0.04360324144363403,
                -0.08766302466392517,
                0.009454846382141114,
                0.16620072722434998,
                -0.3132082521915436,
                0.19372767210006715,
                0.3548831343650818,
                0.755978524684906,
                -0.18668703734874726,
                1.1068733930587769,
                0.378298819065094,
                -0.038629576563835147,
                0.3058215379714966,
                -0.26259779930114748,
                -0.47763580083847048,
                0.1760728657245636,
                -0.34937846660614016,
                -0.29686492681503298,
                -0.24389280378818513,
                -0.3671652376651764,
                -0.04738546162843704,
                0.3318403661251068,
                0.04078152775764465,
                -0.07781601697206497,
                -0.3555144965648651,
                0.6001725792884827,
                -0.25079572200775149,
                -0.022649943828582765,
                0.19955240190029145,
                -0.10631879419088364,
                0.2590252757072449,
                -0.6494698524475098,
                0.221308171749115,
                -0.18552730977535249,
                0.2960265278816223,
                -0.45932435989379885,
                0.09515067934989929,
                0.22757771611213685,
                -0.3916260302066803,
                -0.6399707198143005,
                0.33164355158805849,
                -0.07242089509963989,
                -0.4862361252307892,
                -0.47359538078308108,
                -0.2364022135734558,
                -0.016782060265541078,
                -0.10572514683008194,
                -0.47113439440727236,
                0.4604639410972595,
                -0.2380770742893219,
                -0.1956617385149002,
                -0.18840517103672028,
                -0.37694114446640017,
                -0.09577429294586182,
                -0.06733137369155884,
                0.12787362933158875,
                0.48088717460632326,
                -0.21678274869918824,
                -0.019860628992319108,
                -0.10358752310276032,
                -0.15525761246681214,
                0.19351018965244294,
                -0.09236590564250946,
                0.18655917048454286,
                0.040882378816604617,
                -0.19417621195316316,
                0.32345131039619448,
                -0.08459517359733582,
                0.23275300860404969,
                0.451318621635437,
                0.23553566634655,
                -0.16630840301513673,
                -0.38810035586357119,
                0.36022740602493288,
                -0.35215628147125246,
                -0.018458403646945955,
                0.014247000217437745,
                -0.3358117640018463,
                -0.30906644463539126,
                -0.4459231197834015,
                -0.40040671825408938,
                -0.09722954034805298,
                0.26651811599731448,
                0.09866861253976822,
                0.09075385332107544,
                -0.19466036558151246,
                -0.296455979347229,
                -0.4263310432434082,
                -0.13458555936813355,
                -0.1392342448234558,
                0.3200607895851135,
                0.000299990177154541,
                0.1444844901561737,
                -0.3851890563964844,
                -0.47000837326049807,
                0.2095218002796173,
                -0.2533336877822876,
                -0.11007696390151978,
                -0.3373045325279236,
                -0.3758556842803955,
                -0.31072700023651125,
                -0.6193727254867554,
                0.6909889578819275,
                -0.9316046237945557,
                0.5448538661003113,
                0.3306797444820404,
                0.603367269039154,
                -0.44555866718292239,
                0.1962897777557373,
                0.2477128952741623,
                0.7759774327278137,
                -0.35666903853416445,
                -0.3084428012371063,
                -0.5655762553215027,
                -0.34161296486854555,
                -0.40001070499420168,
                0.2631199359893799
            ],
            "biases": [
                -0.23331621289253236,
                0.07654652744531632,
                -0.3652172386646271,
                0.39328157901763918,
                0.13760602474212647,
                0.057264573872089389,
                -0.22287780046463014,
                -0.012047197669744492,
                -0.03157351166009903,
                -0.22602704167366029
            ]
        },
        {
            "layers": [
                14,
                8,
                2
            ],
            "weights": [
                0.5157353281974793,
                0.06613914668560028,
                0.2954288125038147,
                -0.2833845913410187,
                0.155828058719635,
                -0.31251341104507449,
                -0.3020077645778656,
                0.016991116106510164,
                0.31672805547714236,
                0.5318432450294495,
                0.10218065977096558,
                0.24472175538539887,
                -0.13918298482894898,
                0.08127843588590622,
                0.11458941549062729,
                -0.23550084233283997,
                0.30142807960510256,
                0.45025837421417239,
                0.8545328974723816,
                -0.18668703734874726,
                1.010448932647705,
                0.33643490076065066,
                -0.038629576563835147,
                0.3058215379714966,
                -0.2860579490661621,
                -0.47763580083847048,
                0.017496049404144288,
                -0.42808854579925539,
                -0.3309664726257324,
                -0.21108537912368775,
                -0.4036966860294342,
                -0.2571426331996918,
                0.28590327501296999,
                -0.03476431220769882,
                -0.16572757065296174,
                -0.3461243212223053,
                0.6136033535003662,
                0.4837900400161743,
                -0.04046523571014404,
                0.3647148013114929,
                -0.28661394119262698,
                0.019327223300933839,
                -0.6494698524475098,
                0.36986058950424197,
                -0.18552730977535249,
                0.3025471568107605,
                -0.45932435989379885,
                0.06871739774942398,
                0.1201801672577858,
                -0.3037428855895996,
                -0.5657490491867065,
                0.35990726947784426,
                -0.23421746492385865,
                -0.025084733963012697,
                -0.47359538078308108,
                -0.2364022135734558,
                0.09265249222517014,
                -0.18942025303840638,
                -0.5055825710296631,
                0.4513706862926483,
                -0.1588273048400879,
                -0.1956617385149002,
                -0.24263425171375276,
                -0.37694114446640017,
                -0.14199313521385194,
                0.05319017171859741,
                -0.11041945219039917,
                0.48088717460632326,
                -0.21678274869918824,
                -0.3021286725997925,
                0.101644366979599,
                -0.06841986626386643,
                0.3590643107891083,
                -0.09236590564250946,
                0.18655917048454286,
                0.040882378816604617,
                -0.23654834926128388,
                0.23584839701652528,
                0.015857107937335969,
                0.214971661567688,
                -0.05281883478164673,
                0.3410203456878662,
                -0.15523570775985719,
                -0.4620722532272339,
                0.3332254886627197,
                -0.4007468521595001,
                -0.06863921880722046,
                0.014247000217437745,
                -0.3565204441547394,
                -0.287169486284256,
                -0.492590069770813,
                -0.2499852478504181,
                0.4878579378128052,
                0.21932142972946168,
                0.16282176971435548,
                0.09075385332107544,
                -0.3486595153808594,
                -0.03338056802749634,
                -0.4263310432434082,
                -0.13458555936813355,
                -0.1392342448234558,
                0.28279805183410647,
                -0.07752103358507157,
                0.1610267013311386,
                -0.3851890563964844,
                -0.5665692687034607,
                -0.20564335584640504,
                -0.5337554812431336,
                -0.44805848598480227,
                -0.44783321022987368,
                -0.3758556842803955,
                -0.1963607668876648,
                -0.6193727254867554,
                0.6142030358314514,
                -0.6669660806655884,
                0.29628846049308779,
                0.3306797444820404,
                0.6994547247886658,
                -0.4522291421890259,
                -0.3115699291229248,
                0.0357801616191864,
                0.8581965565681458,
                -0.35666903853416445,
                -0.33242589235305788,
                -0.5655762553215027,
                -0.3944486975669861,
                -0.40001070499420168,
                0.187811478972435
            ],
            "biases": [
                -0.23331621289253236,
                0.23078174889087678,
                -0.35203325748443606,
                0.17034104466438294,
                0.10178093612194061,
                0.06460022181272507,
                -0.1769382208585739,
                0.05475987121462822,
                -0.17654436826705934,
                -0.2109808325767517
            ]
        },
        {
            "layers": [
                14,
                8,
                2
            ],
            "weights": [
                -0.06629949063062668,
                0.04192405939102173,
                0.29424428939819338,
                -0.3357846140861511,
                0.2553640604019165,
                -0.5559857487678528,
                -0.36979812383651736,
                -0.0023100152611732485,
                0.05551232397556305,
                -0.09422309696674347,
                0.45131146907806399,
                -0.0012912154197692872,
                -0.4350888729095459,
                -0.48944342136383059,
                0.11458941549062729,
                -0.31379079818725588,
                0.2183220535516739,
                0.4153209328651428,
                0.8637627959251404,
                -0.29525017738342287,
                1.0666658878326417,
                0.343476802110672,
                -0.004211649298667908,
                0.22174416482448579,
                -0.18351024389266969,
                0.4312400817871094,
                -0.03861278295516968,
                -0.31047099828720095,
                -0.3309664726257324,
                -0.22588008642196656,
                -0.3678549528121948,
                -0.19537222385406495,
                0.29657137393951418,
                -0.07594027370214462,
                -0.03068927302956581,
                -0.12432141602039337,
                0.6380678415298462,
                0.5461096167564392,
                0.04204028844833374,
                -0.22097736597061158,
                0.4021168053150177,
                0.24244342744350434,
                -0.6032885313034058,
                0.221308171749115,
                -0.17910906672477723,
                0.36678895354270937,
                -0.4389438033103943,
                0.12471112608909607,
                0.20336228609085084,
                -0.2931814193725586,
                -0.5702568888664246,
                0.30486738681793215,
                -0.2174280285835266,
                -0.09327429533004761,
                0.30465054512023928,
                0.34047913551330569,
                -0.016782060265541078,
                -0.1461915373802185,
                -0.5712237358093262,
                0.40695518255233767,
                -0.2524794638156891,
                -0.26664915680885317,
                -0.13655322790145875,
                -0.722416877746582,
                -0.5388281941413879,
                -0.4792177677154541,
                -0.3186643123626709,
                0.42174649238586428,
                0.3889664113521576,
                -0.33160340785980227,
                -0.016849912703037263,
                -0.06676393002271652,
                0.3732914626598358,
                -0.09479831159114838,
                0.3383259177207947,
                0.2607068419456482,
                -0.31597667932510378,
                0.23584839701652528,
                -0.02914883941411972,
                0.32724297046661379,
                -0.3645537197589874,
                -0.2474471926689148,
                -0.4745814800262451,
                0.36189091205596926,
                0.3332254886627197,
                -0.2720196843147278,
                -0.1365988850593567,
                0.3050304353237152,
                -0.04549356549978256,
                -0.391485333442688,
                0.2868516445159912,
                0.18104158341884614,
                0.2723716199398041,
                -0.397436261177063,
                -0.16342759132385255,
                -0.006638653576374054,
                -0.11061888933181763,
                -0.3733070492744446,
                -0.040829241275787356,
                -0.27834653854370119,
                -0.469937801361084,
                0.25406086444854739,
                0.4787311255931854,
                0.35640156269073489,
                -0.3370475769042969,
                0.10940378904342652,
                -0.20564335584640504,
                -0.2533336877822876,
                -0.44805848598480227,
                -0.4121973514556885,
                -0.43558913469314577,
                -0.2044554352760315,
                -0.36189505457878115,
                0.7452095150947571,
                -0.6669660806655884,
                0.3230128288269043,
                0.3306797444820404,
                0.610770583152771,
                -0.34674715995788576,
                0.25855553150177,
                0.13077855110168458,
                0.9086272716522217,
                -0.27268916368484499,
                -0.44342538714408877,
                -0.3224385380744934,
                -0.3944486975669861,
                0.14220629632472993,
                0.2970612049102783
            ],
            "biases": [
                -0.11720790714025498,
                0.11572318524122238,
                -0.13084787130355836,
                0.06811831146478653,
                0.2682587504386902,
                0.024591397494077684,
                -0.18025490641593934,
                0.05475987121462822,
                0.2164413183927536,
                -0.07982784509658814
            ]
        },
        {
            "layers": [
                14,
                8,
                2
            ],
            "weights": [
                -0.40555477142333987,
                -0.03526028245687485,
                0.20146341621875764,
                -0.024875283241271974,
                0.2553640604019165,
                -0.31251341104507449,
                -0.3020077645778656,
                0.08921317011117935,
                0.03267059475183487,
                0.1879635751247406,
                0.45131146907806399,
                0.24472175538539887,
                0.09553758054971695,
                0.48023664951324465,
                0.07605721056461334,
                -0.26985540986061098,
                0.15301361680030824,
                0.41807639598846438,
                0.755978524684906,
                -0.12327120453119278,
                1.0672160387039185,
                0.3048088550567627,
                0.04062488675117493,
                -0.067807137966156,
                -0.24615097045898438,
                0.33973172307014468,
                0.017496049404144288,
                -0.34937846660614016,
                -0.42018038034439089,
                -0.3042337894439697,
                -0.3671652376651764,
                -0.11570482701063156,
                0.3971840441226959,
                -0.007546517997980118,
                -0.07781601697206497,
                -0.3047247529029846,
                0.7460904121398926,
                0.48005592823028567,
                0.09033843129873276,
                0.016239583492279054,
                -0.1999303698539734,
                -0.13518041372299195,
                -0.6032885313034058,
                0.2294747531414032,
                -0.14740753173828126,
                0.41219544410705569,
                -0.42665550112724306,
                0.12471112608909607,
                0.18134424090385438,
                -0.21144956350326539,
                -0.6399707198143005,
                0.3243574798107147,
                -0.16456669569015504,
                -0.025084733963012697,
                -0.47359538078308108,
                0.32519862055778506,
                -0.016782060265541078,
                -0.15686380863189698,
                -0.5763028860092163,
                0.4268568158149719,
                -0.1588273048400879,
                -0.1956617385149002,
                -0.2596991956233978,
                -0.6327306628227234,
                -0.5395113229751587,
                -0.5135663151741028,
                -0.03319519758224487,
                0.07296336442232132,
                -0.21678274869918824,
                0.012910664081573487,
                0.05761882662773132,
                -0.16826841235160829,
                0.14483103156089784,
                -0.09260903298854828,
                0.10062596946954727,
                0.0005874484777450562,
                -0.21816422045230866,
                0.32068654894828799,
                -0.011661611497402192,
                0.2801811695098877,
                -0.37246018648147585,
                0.23363593220710755,
                -0.09650641679763794,
                -0.3588859438896179,
                0.4658927917480469,
                -0.345811128616333,
                -0.06863921880722046,
                -0.39447930455207827,
                -0.04549356549978256,
                -0.287169486284256,
                -0.09547913074493408,
                -0.26472723484039309,
                0.4878579378128052,
                0.21932142972946168,
                -0.22918492555618287,
                -0.07138723134994507,
                -0.2748366892337799,
                -0.2325124442577362,
                -0.20373255014419557,
                -0.052979983389377597,
                -0.20253485441207887,
                -0.15781420469284059,
                0.4572322368621826,
                -0.2047603726387024,
                -0.24471169710159303,
                -0.47000837326049807,
                -0.20564335584640504,
                0.11398159712553024,
                -0.21367426216602326,
                -0.23242276906967164,
                -0.44193392992019656,
                -0.09849053621292114,
                -0.44990047812461855,
                0.6472569704055786,
                -0.891410768032074,
                0.44897139072418215,
                0.27727609872817995,
                0.6994547247886658,
                0.054707229137420657,
                0.26483142375946047,
                0.06418979912996292,
                0.7759774327278137,
                -0.2989218831062317,
                -0.3084428012371063,
                -0.2470850944519043,
                -0.38051655888557436,
                -0.19604986906051637,
                0.2970612049102783
            ],
            "biases": [
                -0.18115708231925965,
                0.23078174889087678,
                -0.22835345566272736,
                0.04145035147666931,
                0.058855198323726657,
                0.06460022181272507,
                -0.2826631963253021,
                -0.053693775087594989,
                0.21661554276943208,
                -0.40205255150794985
            ]
        },
        {
            "layers": [
                14,
                8,
                2
            ],
            "weights": [
                0.5157353281974793,
                0.06613914668560028,
                0.15607205033302308,
                -0.2833845913410187,
                0.056587040424346927,
                -0.33298882842063906,
                0.15401791036128999,
                0.1085318922996521,
                0.03603597730398178,
                -0.3718876540660858,
                0.47211968898773196,
                -0.04360324144363403,
                -0.13918298482894898,
                -0.32578539848327639,
                0.1948447823524475,
                -0.23550084233283997,
                0.20555412769317628,
                -0.34855687618255618,
                -0.4087867736816406,
                0.4151657819747925,
                -0.2517072260379791,
                0.4705432653427124,
                0.0017331801354885102,
                0.3058215379714966,
                -0.014486193656921387,
                -0.47763580083847048,
                0.03698378801345825,
                0.49104106426239016,
                -0.3586652874946594,
                -0.21108537912368775,
                -0.403265118598938,
                -0.20920473337173463,
                -0.03066474199295044,
                0.17693816125392915,
                -0.11061239242553711,
                -0.0795266404747963,
                0.6136033535003662,
                -0.16004592180252076,
                0.0246136412024498,
                0.19955240190029145,
                -0.37756431102752688,
                -0.027871109545230867,
                0.49443650245666506,
                0.44377434253692629,
                -0.18552730977535249,
                0.11714917421340943,
                -0.45932435989379885,
                0.10797778517007828,
                0.22757771611213685,
                0.12475210428237915,
                -0.49055159091949465,
                0.35990726947784426,
                -0.07242089509963989,
                -0.4250452518463135,
                -0.5188733339309692,
                0.49084949493408205,
                0.15858565270900727,
                -0.2056882381439209,
                0.2248782217502594,
                -0.3142109811306,
                0.4533824920654297,
                -0.4470933675765991,
                -0.27946802973747256,
                -0.21231460571289063,
                -0.28064990043640139,
                -0.1388670802116394,
                0.21318362653255464,
                0.48088717460632326,
                0.13438020646572114,
                -0.027860410511493684,
                -0.10358752310276032,
                -0.06841986626386643,
                -0.4422239065170288,
                -0.1083444207906723,
                0.37680843472480776,
                0.040882378816604617,
                0.21533022820949555,
                0.32345131039619448,
                0.015857107937335969,
                -0.07988160848617554,
                -0.4885218143463135,
                0.3410203456878662,
                -0.06682330369949341,
                0.40362584590911868,
                -0.3717458248138428,
                0.5483660101890564,
                0.4274998903274536,
                -0.09409528970718384,
                0.36480712890625,
                -0.2877105474472046,
                0.056995734572410586,
                -0.36759310960769656,
                -0.3662412166595459,
                0.1561516374349594,
                0.14475999772548676,
                -0.04479426145553589,
                -0.3486595153808594,
                -0.03338056802749634,
                -0.22934097051620484,
                0.10069519281387329,
                0.33599674701690676,
                -0.052585385739803317,
                -0.14420562982559205,
                -0.0537988543510437,
                0.3311939239501953,
                0.611491322517395,
                -0.30995869636535647,
                -0.19971638917922975,
                -0.11007696390151978,
                -0.43697869777679446,
                -0.10794228315353394,
                0.418013334274292,
                0.4780554473400116,
                0.44758427143096926,
                0.2820916771888733,
                0.5448538661003113,
                0.3306797444820404,
                0.603367269039154,
                0.06237020343542099,
                -0.18811970949172975,
                0.17171156406402589,
                -0.17324930429458619,
                0.0359194353222847,
                -0.33242589235305788,
                -0.1848633885383606,
                0.12128382921218872,
                -0.40001070499420168,
                0.2687127888202667
            ],
            "biases": [
                -0.23331621289253236,
                -0.2383008599281311,
                -0.35203325748443606,
                0.4182148873806,
                -0.10673564672470093,
                0.057264573872089389,
                -0.11457981914281845,
                -0.012047197669744492,
                0.32483744621276858,
                -0.3007667064666748
            ]
        },
        {
            "layers": [
                14,
                8,
                2
            ],
            "weights": [
                -0.40555477142333987,
                0.03523416072130203,
                0.2954288125038147,
                -0.35323619842529299,
                0.2465427964925766,
                -0.31251341104507449,
                -0.3763704001903534,
                0.016991116106510164,
                0.26452767848968508,
                0.4693903923034668,
                0.45131146907806399,
                0.24472175538539887,
                0.09553758054971695,
                -0.154666930437088,
                0.11458941549062729,
                -0.2733290195465088,
                0.1557016670703888,
                0.329120934009552,
                0.755978524684906,
                -0.35359060764312746,
                1.010448932647705,
                0.3048088550567627,
                0.07962784916162491,
                -0.14933288097381593,
                -0.2860579490661621,
                0.33973172307014468,
                0.017496049404144288,
                -0.37225964665412905,
                -0.3309664726257324,
                -0.3042337894439697,
                -0.3671652376651764,
                -0.20810511708259583,
                0.3971840441226959,
                -0.07594027370214462,
                -0.07781601697206497,
                -0.3461243212223053,
                0.7460904121398926,
                0.4837900400161743,
                -0.04046523571014404,
                0.33921337127685549,
                -0.13319751620292664,
                0.17068958282470704,
                -0.6494698524475098,
                0.221308171749115,
                -0.07310850918292999,
                0.36134007573127749,
                -0.42665550112724306,
                0.09515067934989929,
                0.2589893937110901,
                -0.21144956350326539,
                -0.6399707198143005,
                0.25027990341186526,
                -0.23421746492385865,
                -0.025084733963012697,
                -0.47359538078308108,
                0.36123815178871157,
                -0.016782060265541078,
                -0.10572514683008194,
                -0.5055825710296631,
                0.4268568158149719,
                -0.32160839438438418,
                -0.1956617385149002,
                -0.2596991956233978,
                -0.6327306628227234,
                -0.42494410276412966,
                -0.0007491707801818848,
                -0.050937190651893619,
                0.42174649238586428,
                -0.21678274869918824,
                -0.06734152883291245,
                0.05761882662773132,
                -0.15930385887622834,
                0.3590643107891083,
                -0.17180660367012025,
                0.3383259177207947,
                0.13603198528289796,
                -0.26680031418800356,
                0.23584839701652528,
                -0.011661611497402192,
                0.27038657665252688,
                0.45932912826538088,
                0.2591845989227295,
                -0.09650641679763794,
                -0.3588859438896179,
                0.3447920083999634,
                -0.3762120008468628,
                -0.058420583605766299,
                -0.39447930455207827,
                -0.38936400413513186,
                -0.287169486284256,
                -0.492590069770813,
                -0.32384324073791506,
                0.4878579378128052,
                0.21932142972946168,
                0.09866861253976822,
                0.18325483798980714,
                -0.26120051741600039,
                -0.296455979347229,
                -0.4263310432434082,
                0.13353942334651948,
                -0.1053881049156189,
                -0.15781420469284059,
                0.13325420022010804,
                -0.16352510452270509,
                -0.3851890563964844,
                -0.47000837326049807,
                -0.11666487902402878,
                -0.2533336877822876,
                -0.44805848598480227,
                -0.22901418805122376,
                0.27921801805496218,
                -0.1963607668876648,
                -0.4894328713417053,
                0.6142030358314514,
                -0.6669660806655884,
                0.29628846049308779,
                0.3306797444820404,
                0.7891994118690491,
                -0.44555866718292239,
                0.3156760036945343,
                0.06418979912996292,
                0.7934463024139404,
                -0.4384024739265442,
                -0.3084428012371063,
                -0.27926918864250185,
                -0.2947328984737396,
                0.14220629632472993,
                0.15508005023002625
            ],
            "biases": [
                -0.2410900592803955,
                0.23078174889087678,
                -0.3211766183376312,
                0.17034104466438294,
                0.13760602474212647,
                0.06460022181272507,
                -0.13517922163009644,
                0.05475987121462822,
                -0.17654436826705934,
                -0.3107612133026123
            ]
        },
        {
            "layers": [
                14,
                8,
                2
            ],
            "weights": [
                0.4970340430736542,
                -0.05194583535194397,
                0.2755458354949951,
                -0.4173058867454529,
                0.23286990821361543,
                -0.31519976258277895,
                -0.3020077645778656,
                -0.0627269446849823,
                0.26452767848968508,
                -0.4708261787891388,
                -0.3466273546218872,
                -0.04360324144363403,
                0.21379990875720979,
                0.06388259679079056,
                0.1154598519206047,
                -0.23550084233283997,
                0.20555412769317628,
                0.42867621779441836,
                0.673662006855011,
                -0.1512809842824936,
                1.0914217233657838,
                0.29950660467147829,
                -0.10679320991039276,
                0.39523351192474368,
                -0.2860579490661621,
                0.15436577796936036,
                0.1595151275396347,
                -0.42808854579925539,
                -0.3586652874946594,
                -0.24389280378818513,
                -0.244638592004776,
                -0.2042355239391327,
                0.29657137393951418,
                -0.034332770854234698,
                -0.0431402325630188,
                -0.5697633624076843,
                0.6136033535003662,
                0.48008978366851809,
                0.0246136412024498,
                0.19955240190029145,
                0.0014412179589271546,
                0.24665461480617524,
                -0.6494698524475098,
                0.36986058950424197,
                -0.1673908829689026,
                0.2357945442199707,
                -0.4760596752166748,
                0.10696001350879669,
                0.26426833868026736,
                -0.21144956350326539,
                -0.6399707198143005,
                0.3627360761165619,
                -0.07242089509963989,
                0.29186880588531496,
                0.3519575297832489,
                -0.16398805379867555,
                -0.016782060265541078,
                -0.2056882381439209,
                -0.567125141620636,
                0.463387668132782,
                -0.32160839438438418,
                -0.35435178875923159,
                -0.15607871115207673,
                -0.4340888559818268,
                -0.22502142190933228,
                -0.05236536264419556,
                -0.489971399307251,
                0.6986624598503113,
                -0.2820931077003479,
                -0.3021286725997925,
                -0.10358752310276032,
                -0.16162031888961793,
                0.27447807788848879,
                -0.08339381217956543,
                0.24879074096679688,
                0.015670515596866609,
                -0.20204183459281922,
                0.2556644380092621,
                0.14252117276191712,
                -0.2982059717178345,
                -0.012257184833288193,
                0.43345826864242556,
                -0.15523570775985719,
                -0.3917568325996399,
                -0.3717458248138428,
                0.5483660101890564,
                -0.10865384340286255,
                0.0479816272854805,
                -0.2115536332130432,
                0.11188369244337082,
                -0.00910860300064087,
                -0.3662780523300171,
                -0.293759822845459,
                -0.28923988342285159,
                0.14475999772548676,
                0.3548486530780792,
                -0.1446971297264099,
                0.23589541018009187,
                -0.21819287538528443,
                -0.13458555936813355,
                0.12549351155757905,
                0.3045927882194519,
                0.33217310905456545,
                -0.021120011806488038,
                -0.3851890563964844,
                -0.15691199898719788,
                0.2095218002796173,
                -0.2533336877822876,
                -0.06486696004867554,
                -0.46237802505493166,
                0.19738434255123139,
                -0.18058829009532929,
                -0.5332638025283814,
                0.6115279793739319,
                -0.8854544758796692,
                0.5455665588378906,
                0.24791023135185243,
                0.775794267654419,
                -0.3992125391960144,
                0.2654465436935425,
                0.023152679204940797,
                0.7181479930877686,
                -0.25953537225723269,
                -0.3148037791252136,
                -0.5695023536682129,
                -0.3944486975669861,
                -0.40001070499420168,
                0.187811478972435
            ],
            "biases": [
                -0.2248712182044983,
                -0.005063243210315704,
                -0.35203325748443606,
                0.32957735657691958,
                0.10178093612194061,
                0.06460022181272507,
                -0.21157535910606385,
                -0.012047197669744492,
                -0.0685679018497467,
                -0.32100075483322146
            ]
        },
        {
            "layers": [
                14,
                8,
                2
            ],
            "weights": [
                -0.37859418988227847,
                0.03523416072130203,
                0.2954288125038147,
                -0.35323619842529299,
                0.2465427964925766,
                -0.31251341104507449,
                -0.24262014031410218,
                -0.0627269446849823,
                0.26452767848968508,
                0.4693903923034668,
                0.45131146907806399,
                0.24472175538539887,
                0.2580298185348511,
                -0.154666930437088,
                0.11458941549062729,
                -0.3132082521915436,
                0.23824168741703034,
                0.329120934009552,
                0.755978524684906,
                -0.4243502914905548,
                1.1068733930587769,
                0.33581751585006716,
                0.04062488675117493,
                -0.15170437097549439,
                -0.2383302003145218,
                0.24543701112270356,
                0.017496049404144288,
                -0.34937846660614016,
                -0.3309664726257324,
                -0.24389280378818513,
                -0.3671652376651764,
                -0.2042355239391327,
                0.3971840441226959,
                -0.07594027370214462,
                -0.07781601697206497,
                -0.3555144965648651,
                0.7460904121398926,
                0.4837900400161743,
                -0.022649943828582765,
                0.33921337127685549,
                -0.10631879419088364,
                0.19280694425106049,
                -0.6494698524475098,
                0.221308171749115,
                -0.07310850918292999,
                0.36678895354270937,
                -0.42665550112724306,
                0.09515067934989929,
                0.2575015127658844,
                -0.1959952861070633,
                -0.6399707198143005,
                0.25027990341186526,
                -0.17007261514663697,
                -0.01068490743637085,
                -0.47359538078308108,
                0.4221767783164978,
                -0.016782060265541078,
                -0.10572514683008194,
                -0.4880807101726532,
                0.4268568158149719,
                -0.32160839438438418,
                -0.1956617385149002,
                -0.2089596539735794,
                -0.6327306628227234,
                -0.4083070158958435,
                -0.06733137369155884,
                -0.11041945219039917,
                0.4676172137260437,
                -0.21678274869918824,
                -0.019860628992319108,
                0.05761882662773132,
                -0.15525761246681214,
                0.2732013463973999,
                -0.09236590564250946,
                0.3383259177207947,
                0.07712220400571823,
                -0.21816422045230866,
                0.23584839701652528,
                -0.08459517359733582,
                0.23275300860404969,
                0.451318621635437,
                0.22623084485530854,
                -0.09650641679763794,
                -0.362412691116333,
                0.3332254886627197,
                -0.35215628147125246,
                -0.018458403646945955,
                -0.3843963146209717,
                -0.38936400413513186,
                -0.3752199411392212,
                -0.4459231197834015,
                -0.40040671825408938,
                0.4878579378128052,
                0.26651811599731448,
                0.09866861253976822,
                0.09075385332107544,
                -0.19466036558151246,
                -0.296455979347229,
                -0.4263310432434082,
                0.13353942334651948,
                -0.1392342448234558,
                -0.15781420469284059,
                0.18479931354522706,
                -0.16352510452270509,
                -0.3851890563964844,
                -0.47000837326049807,
                -0.20564335584640504,
                -0.2533336877822876,
                -0.44805848598480227,
                -0.26963233947753909,
                0.19738434255123139,
                -0.1963607668876648,
                -0.46875816583633425,
                0.6481229066848755,
                -0.6669660806655884,
                0.29628846049308779,
                0.42587238550186159,
                0.6994547247886658,
                -0.44555866718292239,
                0.1962897777557373,
                0.00126706063747406,
                0.7759774327278137,
                -0.4384024739265442,
                -0.3084428012371063,
                -0.27926918864250185,
                -0.34161296486854555,
                0.15983223915100099,
                0.1866959184408188
            ],
            "biases": [
                -0.339826762676239,
                0.21852263808250428,
                -0.3652172386646271,
                0.17034104466438294,
                0.13760602474212647,
                0.06460022181272507,
                -0.22287780046463014,
                0.05475987121462822,
                -0.17654436826705934,
                -0.22602704167366029
            ]
        },
        {
            "layers": [
                14,
                8,
                2
            ],
            "weights": [
                -0.40555477142333987,
                0.03523416072130203,
                0.2954288125038147,
                -0.35323619842529299,
                0.2465427964925766,
                -0.31251341104507449,
                -0.3020077645778656,
                0.016991116106510164,
                0.26452767848968508,
                0.4693903923034668,
                0.45131146907806399,
                0.24472175538539887,
                0.09553758054971695,
                -0.154666930437088,
                0.11458941549062729,
                -0.2733290195465088,
                0.23824168741703034,
                0.329120934009552,
                0.755978524684906,
                -0.35359060764312746,
                1.010448932647705,
                0.3048088550567627,
                0.04062488675117493,
                -0.067807137966156,
                -0.2860579490661621,
                0.33973172307014468,
                0.017496049404144288,
                -0.34937846660614016,
                -0.3309664726257324,
                -0.3042337894439697,
                -0.3671652376651764,
                -0.1696716547012329,
                0.3971840441226959,
                -0.07594027370214462,
                -0.07781601697206497,
                -0.3461243212223053,
                0.7460904121398926,
                0.4837900400161743,
                -0.04046523571014404,
                0.33921337127685549,
                -0.1999303698539734,
                0.19280694425106049,
                -0.6494698524475098,
                0.221308171749115,
                -0.07310850918292999,
                0.36134007573127749,
                -0.42665550112724306,
                0.09515067934989929,
                0.18134424090385438,
                -0.21144956350326539,
                -0.6399707198143005,
                0.25027990341186526,
                -0.23421746492385865,
                -0.025084733963012697,
                -0.47359538078308108,
                0.32519862055778506,
                -0.016782060265541078,
                -0.10572514683008194,
                -0.5055825710296631,
                0.4268568158149719,
                -0.32160839438438418,
                -0.1956617385149002,
                -0.2596991956233978,
                -0.6327306628227234,
                -0.42494410276412966,
                -0.0007491707801818848,
                -0.11041945219039917,
                0.42174649238586428,
                -0.21678274869918824,
                0.012910664081573487,
                0.05761882662773132,
                -0.16162031888961793,
                0.3590643107891083,
                -0.09236590564250946,
                0.3383259177207947,
                0.07712220400571823,
                -0.21816422045230866,
                0.23584839701652528,
                -0.011661611497402192,
                0.27038657665252688,
                0.45932912826538088,
                0.2591845989227295,
                -0.09650641679763794,
                -0.3588859438896179,
                0.3332254886627197,
                -0.4007468521595001,
                -0.06863921880722046,
                -0.39447930455207827,
                -0.38936400413513186,
                -0.287169486284256,
                -0.492590069770813,
                -0.32384324073791506,
                0.4878579378128052,
                0.21932142972946168,
                0.09866861253976822,
                0.09075385332107544,
                -0.18536365032196046,
                -0.296455979347229,
                -0.4263310432434082,
                0.13353942334651948,
                -0.1392342448234558,
                -0.15781420469284059,
                0.13325420022010804,
                -0.16352510452270509,
                -0.3851890563964844,
                -0.47000837326049807,
                -0.20564335584640504,
                -0.2533336877822876,
                -0.44805848598480227,
                -0.22901418805122376,
                0.19738434255123139,
                -0.1963607668876648,
                -0.4894328713417053,
                0.6142030358314514,
                -0.6669660806655884,
                0.29628846049308779,
                0.3306797444820404,
                0.6994547247886658,
                -0.44555866718292239,
                0.26483142375946047,
                0.06418979912996292,
                0.7759774327278137,
                -0.4384024739265442,
                -0.3084428012371063,
                -0.27926918864250185,
                -0.2509569823741913,
                0.14220629632472993,
                0.1866959184408188
            ],
            "biases": [
                -0.2410900592803955,
                0.23078174889087678,
                -0.3211766183376312,
                0.17034104466438294,
                0.13760602474212647,
                0.06460022181272507,
                -0.13615569472312928,
                0.05475987121462822,
                -0.17654436826705934,
                -0.3107612133026123
            ]
        },
        {
            "layers": [
                14,
                8,
                2
            ],
            "weights": [
                -0.40555477142333987,
                -0.03526028245687485,
                0.20146341621875764,
                -0.3357846140861511,
                0.2553640604019165,
                -0.2986975312232971,
                -0.3556100130081177,
                -0.0627269446849823,
                -0.04180276393890381,
                0.4693903923034668,
                0.40318143367767336,
                -0.32220304012298586,
                -0.48264655470848086,
                -0.09118501842021942,
                0.11458941549062729,
                -0.3423570692539215,
                0.16656309366226197,
                0.3991175889968872,
                0.7277323007583618,
                -0.3817133903503418,
                1.0666658878326417,
                0.343476802110672,
                0.04062488675117493,
                0.15722905099391938,
                -0.2860579490661621,
                -0.2539299726486206,
                -0.4077953100204468,
                -0.31047099828720095,
                -0.3964405059814453,
                -0.24389280378818513,
                -0.495307594537735,
                -0.2642776668071747,
                0.29657137393951418,
                0.029552973806858064,
                -0.03068927302956581,
                -0.21126709878444673,
                0.6380678415298462,
                0.6373658776283264,
                0.04204028844833374,
                -0.22097736597061158,
                0.4874850809574127,
                0.24244342744350434,
                -0.6032885313034058,
                0.221308171749115,
                -0.07310850918292999,
                0.2258596420288086,
                -0.38307151198387148,
                0.12471112608909607,
                0.1612938642501831,
                -0.2634451985359192,
                -0.5433011651039124,
                0.3956945538520813,
                -0.19290012121200562,
                -0.19030612707138062,
                -0.47359538078308108,
                0.3641112744808197,
                -0.016782060265541078,
                -0.15686380863189698,
                -0.5712237358093262,
                0.41693511605262759,
                -0.1588273048400879,
                -0.31901296973228457,
                -0.13655322790145875,
                -0.4910472333431244,
                -0.4415128529071808,
                0.31978657841682436,
                -0.4837144613265991,
                0.42174649238586428,
                -0.288995623588562,
                0.13409720361232758,
                -0.10091331601142883,
                -0.16826841235160829,
                0.14483103156089784,
                -0.09236590564250946,
                0.10062596946954727,
                0.3189079463481903,
                -0.21816422045230866,
                0.23584839701652528,
                0.07434612512588501,
                0.253051221370697,
                0.45932912826538088,
                0.2591845989227295,
                -0.0013037249445915223,
                0.3459908366203308,
                0.4658927917480469,
                -0.345811128616333,
                -0.06863921880722046,
                0.2938110828399658,
                -0.04549356549978256,
                -0.05582016706466675,
                -0.09547913074493408,
                0.18104158341884614,
                0.49551910161972048,
                -0.397436261177063,
                0.13382713496685029,
                -0.07138723134994507,
                -0.16392403841018678,
                -0.21559828519821168,
                0.05648914724588394,
                0.35898008942604067,
                -0.29253053665161135,
                0.43178844451904299,
                0.3454320430755615,
                0.006809361279010773,
                -0.23052871227264405,
                -0.47000837326049807,
                -0.40525129437446597,
                -0.2533336877822876,
                -0.44805848598480227,
                -0.056827984750270846,
                0.19738434255123139,
                -0.09849053621292114,
                -0.5332638025283814,
                0.6481229066848755,
                -0.6669660806655884,
                0.44897139072418215,
                0.38903653621673586,
                0.697717547416687,
                -0.44555866718292239,
                0.26483142375946047,
                0.13077855110168458,
                0.9086272716522217,
                -0.35016193985939028,
                -0.4194827079772949,
                -0.27926918864250185,
                -0.3944486975669861,
                0.04634404927492142,
                0.1866959184408188
            ],
            "biases": [
                -0.18115708231925965,
                0.15749093890190125,
                -0.3211766183376312,
                0.012650474905967713,
                0.0061918869614601139,
                -0.055560097098350528,
                -0.2826631963253021,
                0.05475987121462822,
                -0.17654436826705934,
                -0.3812788724899292
            ]
        }
    ]
}