{
    "generation": 0,
    "worldType": 0,
    "presetName": "Climbing Challenge",
    "worldGenSeed": 270.59918212890627,
    "mapChanges": [
        {
            "position": {
                "x": -12,
                "y": -24,
                "z": 0
            },
            "tileName": ""
        },
        {
            "position": {
                "x": -111,
                "y": 34,
                "z": 0
            },
            "tileName": ""
        },
        {
            "position": {
                "x": -38,
                "y": 30,
                "z": 0
            },
            "tileName": ""
        },
        {
            "position": {
                "x": -101,
                "y": 2,
                "z": 0
            },
            "tileName": ""
        },
        {
            "position": {
                "x": -101,
                "y": 1,
                "z": 0
            },
            "tileName": ""
        },
        {
            "position": {
                "x": -103,
                "y": 1,
                "z": 0
            },
            "tileName": ""
        },
        {
            "position": {
                "x": -50,
                "y": 39,
                "z": 0
            },
            "tileName": ""
        },
        {
            "position": {
                "x": -49,
                "y": 40,
                "z": 0
            },
            "tileName": ""
        },
        {
            "position": {
                "x": -49,
                "y": 39,
                "z": 0
            },
            "tileName": ""
        },
        {
            "position": {
                "x": -44,
                "y": 39,
                "z": 0
            },
            "tileName": ""
        },
        {
            "position": {
                "x": -77,
                "y": 23,
                "z": 0
            },
            "tileName": ""
        },
        {
            "position": {
                "x": -77,
                "y": 29,
                "z": 0
            },
            "tileName": ""
        },
        {
            "position": {
                "x": -67,
                "y": 29,
                "z": 0
            },
            "tileName": ""
        },
        {
            "position": {
                "x": -46,
                "y": 20,
                "z": 0
            },
            "tileName": ""
        },
        {
            "position": {
                "x": -60,
                "y": 40,
                "z": 0
            },
            "tileName": ""
        },
        {
            "position": {
                "x": -59,
                "y": 40,
                "z": 0
            },
            "tileName": ""
        }
    ],
    "creatures": [
        {
            "speciesName": "LandCreature",
            "position": {
                "x": -100.48110961914063,
                "y": 1.5189332962036133,
                "z": 0.0
            },
            "velocity": {
                "x": 0.0,
                "y": 0.0
            },
            "brainData": {
                "layers": [
                    9,
                    7,
                    2
                ],
                "weights": [
                    0.2815566062927246,
                    0.20640181005001069,
                    0.06020456552505493,
                    0.14416919648647309,
                    0.0867660641670227,
                    0.04309326410293579,
                    -0.34679901599884035,
                    0.44923651218414309,
                    -0.33833491802215578,
                    -0.4553263187408447,
                    -0.09431296586990357,
                    0.388832688331604,
                    0.26446330547332766,
                    -0.4356808662414551,
                    0.4757446050643921,
                    0.0066637396812438969,
                    0.18555305898189546,
                    -0.1887996792793274,
                    0.29981529712677,
                    -0.2587747573852539,
                    -0.3092641830444336,
                    0.22233425080776215,
                    -0.04922217130661011,
                    0.12197667360305786,
                    0.14407573640346528,
                    -0.3523283004760742,
                    -0.16188138723373414,
                    0.2783457040786743,
                    -0.3973292112350464,
                    -0.4707937240600586,
                    0.1854787915945053,
                    0.13879941403865815,
                    -0.23218947649002076,
                    0.49446821212768557,
                    0.21008239686489106,
                    0.2979116439819336,
                    -0.4049837589263916,
                    -0.169816792011261,
                    -0.4163917303085327,
                    -0.3435208797454834,
                    -0.33953285217285159,
                    -0.10218816995620728,
                    0.47015678882598879,
                    -0.15223246812820435,
                    0.14263127744197846,
                    -0.3097275495529175,
                    0.2875809669494629,
                    -0.03761333227157593,
                    -0.03318387269973755,
                    -0.4169929027557373,
                    0.02622133493423462,
                    -0.16544479131698609,
                    -0.354253888130188,
                    -0.3428117036819458,
                    0.16258679330348969,
                    -0.10016709566116333,
                    0.2437288612127304,
                    0.043021976947784427,
                    -0.4818274974822998,
                    0.053754985332489017,
                    0.45345377922058108,
                    0.45434415340423586,
                    0.4658493995666504,
                    -0.4214209318161011,
                    -0.11424988508224487,
                    -0.1941022276878357,
                    0.4607652425765991,
                    0.37928271293640139,
                    -0.3609488010406494,
                    -0.4865450859069824,
                    -0.25769054889678957,
                    0.32671093940734866,
                    -0.2337685227394104,
                    -0.3246530294418335,
                    0.08231598138809204,
                    0.007214844226837158,
                    0.013137996196746827
                ],
                "biases": [
                    -0.07408410310745239,
                    0.4094034433364868,
                    0.21862004697322846,
                    0.01232820749282837,
                    0.406488299369812,
                    -0.2138180136680603,
                    0.29305195808410647,
                    -0.36297571659088137,
                    0.1338658183813095
                ]
            }
        },
        {
            "speciesName": "LandCreature",
            "position": {
                "x": -94.58326721191406,
                "y": 1.5203522443771363,
                "z": 0.0
            },
            "velocity": {
                "x": -0.0009717943612486124,
                "y": 6.496885696094523e-9
            },
            "brainData": {
                "layers": [
                    9,
                    7,
                    2
                ],
                "weights": [
                    0.27183711528778078,
                    -0.1816001534461975,
                    0.02570420503616333,
                    -0.32880711555480959,
                    0.16742025315761567,
                    -0.12035161256790161,
                    0.2848755121231079,
                    0.05843073129653931,
                    0.2774543762207031,
                    -0.24096018075942994,
                    0.2157810777425766,
                    0.3288973569869995,
                    0.4232286214828491,
                    -0.1305803656578064,
                    -0.4581491947174072,
                    0.2734411954879761,
                    -0.18401867151260377,
                    0.277225136756897,
                    -0.15953975915908814,
                    -0.29062747955322268,
                    0.29517900943756106,
                    0.42546582221984866,
                    -0.09858518838882446,
                    -0.49530482292175295,
                    0.3634483814239502,
                    0.1789712756872177,
                    0.35818636417388918,
                    0.23719321191310883,
                    -0.47562944889068606,
                    -0.08901005983352661,
                    -0.4854426383972168,
                    -0.4104071855545044,
                    0.37140142917633059,
                    -0.023621022701263429,
                    0.09338635206222534,
                    -0.4764324426651001,
                    0.323323130607605,
                    0.08802288770675659,
                    -0.2973170280456543,
                    0.05438786745071411,
                    -0.028338730335235597,
                    -0.40729570388793948,
                    -0.2029610276222229,
                    -0.28176069259643557,
                    0.041921913623809817,
                    0.44900357723236086,
                    -0.36824214458465578,
                    0.22027729451656342,
                    0.1143832802772522,
                    -0.2194165587425232,
                    0.1120108962059021,
                    -0.31736183166503909,
                    -0.3962138891220093,
                    -0.10849267244338989,
                    -0.49821269512176516,
                    -0.46583807468414309,
                    -0.17353230714797975,
                    -0.32854163646698,
                    0.4106330871582031,
                    0.1443704217672348,
                    0.46756649017333987,
                    0.0970340371131897,
                    0.07854396104812622,
                    0.49609196186065676,
                    -0.47665417194366457,
                    0.41464805603027346,
                    -0.37119555473327639,
                    0.3407479524612427,
                    0.4139750003814697,
                    -0.39098024368286135,
                    0.20802496373653413,
                    0.13526247441768647,
                    -0.07855767011642456,
                    -0.039459407329559329,
                    -0.10941201448440552,
                    0.49088001251220705,
                    -0.06992191076278687
                ],
                "biases": [
                    -0.07039040327072144,
                    0.4405372142791748,
                    0.03942900896072388,
                    0.4084784984588623,
                    0.41418588161468508,
                    0.18774186074733735,
                    0.4397919178009033,
                    -0.1428026556968689,
                    0.08744388818740845
                ]
            }
        },
        {
            "speciesName": "LandCreature",
            "position": {
                "x": -93.57032012939453,
                "y": 1.521478295326233,
                "z": 0.0
            },
            "velocity": {
                "x": -0.0010766985360533,
                "y": -7.012344482859589e-9
            },
            "brainData": {
                "layers": [
                    9,
                    7,
                    2
                ],
                "weights": [
                    0.13167797029018403,
                    -0.16074496507644654,
                    0.33472347259521487,
                    0.22541938722133637,
                    0.4462317228317261,
                    0.2937040328979492,
                    -0.49006903171539309,
                    0.3698955774307251,
                    -0.39318013191223147,
                    0.3405066728591919,
                    0.27798354625701907,
                    0.14404962956905366,
                    0.19282375276088715,
                    -0.3107391595840454,
                    -0.05964404344558716,
                    0.24066482484340669,
                    0.13884292542934419,
                    -0.23303920030593873,
                    0.2007603496313095,
                    -0.05600923299789429,
                    0.2633770704269409,
                    -0.0108223557472229,
                    -0.41031384468078616,
                    0.45106756687164309,
                    -0.16029208898544312,
                    0.11599022150039673,
                    0.42076385021209719,
                    -0.43635833263397219,
                    -0.3413330316543579,
                    -0.3157583475112915,
                    0.16802643239498139,
                    -0.21269482374191285,
                    0.35154128074645998,
                    0.02427119016647339,
                    -0.047931134700775149,
                    0.17473898828029633,
                    -0.06770879030227661,
                    0.26151394844055178,
                    0.20212076604366303,
                    0.21267686784267426,
                    -0.24649256467819215,
                    0.19088242948055268,
                    0.3726990222930908,
                    -0.012257874011993409,
                    0.4442417621612549,
                    -0.08107489347457886,
                    0.3792005777359009,
                    -0.23341363668441773,
                    -0.07426875829696655,
                    0.4263712167739868,
                    0.2938157320022583,
                    0.09628349542617798,
                    -0.3701639175415039,
                    0.3502706289291382,
                    -0.04472857713699341,
                    -0.0592380166053772,
                    0.32920610904693606,
                    0.20301328599452973,
                    0.12201517820358277,
                    0.11391431093215943,
                    0.13074682652950288,
                    0.022351324558258058,
                    0.4445286989212036,
                    -0.007224977016448975,
                    0.19286976754665376,
                    -0.49187302589416506,
                    -0.36462974548339846,
                    -0.44600415229797366,
                    0.3187001943588257,
                    -0.14936202764511109,
                    0.2513805627822876,
                    0.08273965120315552,
                    0.054322898387908939,
                    -0.11236339807510376,
                    0.4755692481994629,
                    -0.4607417583465576,
                    -0.18845409154891969
                ],
                "biases": [
                    0.24017737805843354,
                    0.4157438278198242,
                    -0.0657913088798523,
                    0.4322080612182617,
                    0.22077558934688569,
                    -0.08845490217208862,
                    0.38633298873901369,
                    0.39047467708587649,
                    -0.38095223903656008
                ]
            }
        },
        {
            "speciesName": "LandCreature",
            "position": {
                "x": -92.55866241455078,
                "y": 1.7361751794815064,
                "z": 0.0
            },
            "velocity": {
                "x": -0.0012235641479492188,
                "y": 0.0
            },
            "brainData": {
                "layers": [
                    9,
                    7,
                    2
                ],
                "weights": [
                    0.12047117948532105,
                    0.39925336837768557,
                    -0.4362680912017822,
                    -0.20075589418411256,
                    -0.4501771926879883,
                    0.45799529552459719,
                    0.3324347734451294,
                    -0.034892261028289798,
                    -0.36222290992736819,
                    0.11547285318374634,
                    0.3561917543411255,
                    0.10437089204788208,
                    0.14358292520046235,
                    -0.18860739469528199,
                    -0.08543747663497925,
                    0.44400525093078616,
                    -0.30831944942474368,
                    0.4968172311782837,
                    -0.3211559057235718,
                    -0.05251437425613403,
                    -0.13573187589645387,
                    -0.1874038577079773,
                    -0.40041863918304446,
                    -0.3650311231613159,
                    0.08200770616531372,
                    0.1906130164861679,
                    -0.0426521897315979,
                    -0.47506844997406008,
                    -0.3535503149032593,
                    -0.47938477993011477,
                    -0.41530144214630129,
                    -0.33006906509399416,
                    -0.2506444454193115,
                    -0.3131704330444336,
                    0.33360743522644045,
                    0.14144562184810639,
                    -0.41139960289001467,
                    -0.2799384593963623,
                    -0.35008060932159426,
                    0.2160777896642685,
                    0.4709881544113159,
                    0.4564741849899292,
                    0.14252303540706635,
                    0.36270761489868166,
                    0.1693619340658188,
                    -0.27550721168518069,
                    0.13915596902370454,
                    0.37849748134613039,
                    0.18736682832241059,
                    -0.45036160945892336,
                    -0.21242600679397584,
                    0.19964252412319184,
                    -0.16468912363052369,
                    -0.24941319227218629,
                    -0.05876821279525757,
                    -0.298159122467041,
                    0.4973299503326416,
                    0.31779253482818606,
                    0.35543692111968996,
                    0.32775020599365237,
                    -0.40329599380493166,
                    -0.33062803745269778,
                    0.15994511544704438,
                    0.19401787221431733,
                    0.07714670896530152,
                    0.3360179662704468,
                    0.179665669798851,
                    -0.41117727756500246,
                    0.4307265281677246,
                    0.3426154851913452,
                    0.47382688522338869,
                    0.01353675127029419,
                    -0.2199738621711731,
                    0.3717747926712036,
                    -0.49069416522979739,
                    -0.3860834836959839,
                    0.10080307722091675
                ],
                "biases": [
                    -0.4476497173309326,
                    -0.48418593406677248,
                    -0.4981386661529541,
                    0.45451271533966067,
                    -0.41688084602355959,
                    -0.09982198476791382,
                    -0.028475821018218995,
                    0.35392260551452639,
                    0.3774757385253906
                ]
            }
        },
        {
            "speciesName": "LandCreature",
            "position": {
                "x": -91.54780578613281,
                "y": 1.7747611999511719,
                "z": 0.0
            },
            "velocity": {
                "x": -0.0007829666137695313,
                "y": 1.4901161193847657e-8
            },
            "brainData": {
                "layers": [
                    9,
                    7,
                    2
                ],
                "weights": [
                    0.018675625324249269,
                    0.18965207040309907,
                    0.14973197877407075,
                    -0.14409667253494264,
                    -0.1366068720817566,
                    0.4922231435775757,
                    0.30386197566986086,
                    -0.41155219078063967,
                    0.12234467267990112,
                    -0.13565558195114137,
                    0.4645735025405884,
                    0.3728315830230713,
                    -0.3220853805541992,
                    0.34670186042785647,
                    -0.3837261199951172,
                    -0.028042852878570558,
                    -0.3806788921356201,
                    0.46158576011657717,
                    -0.2555638551712036,
                    -0.4101595878601074,
                    0.14712749421596528,
                    0.23509739339351655,
                    -0.1571243405342102,
                    0.35825932025909426,
                    0.2764260768890381,
                    -0.40752387046813967,
                    -0.05254858732223511,
                    0.2724266052246094,
                    -0.3380393981933594,
                    0.04514569044113159,
                    -0.13664263486862184,
                    -0.002259552478790283,
                    -0.41190361976623537,
                    0.23719631135463715,
                    0.4730476140975952,
                    0.49650418758392336,
                    0.49162042140960696,
                    -0.22736209630966187,
                    0.46807873249053957,
                    -0.08080273866653443,
                    0.2816343307495117,
                    -0.4179280996322632,
                    0.04957312345504761,
                    -0.02649790048599243,
                    0.43927061557769778,
                    0.47303342819213869,
                    -0.32995712757110598,
                    0.15960083901882173,
                    -0.22473913431167603,
                    0.3824906349182129,
                    0.41825950145721438,
                    -0.21768778562545777,
                    -0.2100122570991516,
                    0.14228211343288423,
                    -0.00170975923538208,
                    0.37944018840789797,
                    -0.2718738317489624,
                    -0.3054378032684326,
                    -0.27355098724365237,
                    -0.48528826236724856,
                    -0.475421667098999,
                    -0.4909086227416992,
                    0.4562811851501465,
                    0.1489304155111313,
                    -0.06465405225753784,
                    -0.4698258638381958,
                    0.10154753923416138,
                    -0.12458676099777222,
                    0.3524733781814575,
                    0.47505879402160647,
                    0.19546149671077729,
                    0.4833022356033325,
                    -0.16547399759292603,
                    0.4119586944580078,
                    -0.09934669733047486,
                    -0.3727686405181885,
                    0.32637953758239748
                ],
                "biases": [
                    -0.2990926504135132,
                    0.4964514970779419,
                    0.09751027822494507,
                    -0.37788617610931399,
                    -0.40199828147888186,
                    -0.16703981161117555,
                    0.27874743938446047,
                    0.2539304494857788,
                    0.3402973413467407
                ]
            }
        },
        {
            "speciesName": "LandCreature",
            "position": {
                "x": -90.53738403320313,
                "y": 1.5189454555511475,
                "z": 0.0
            },
            "velocity": {
                "x": -0.00027231936110183597,
                "y": -1.781257363830946e-10
            },
            "brainData": {
                "layers": [
                    9,
                    7,
                    2
                ],
                "weights": [
                    -0.08777588605880737,
                    -0.21752303838729859,
                    -0.23944038152694703,
                    -0.08549600839614868,
                    -0.16030603647232057,
                    -0.08507424592971802,
                    0.10945779085159302,
                    -0.4734276533126831,
                    -0.029179275035858156,
                    0.26712822914123537,
                    -0.23244696855545045,
                    0.02413266897201538,
                    -0.36930525302886965,
                    -0.28929829597473147,
                    0.16735373437404633,
                    0.4857574701309204,
                    0.2704179286956787,
                    0.1445380300283432,
                    0.07352584600448609,
                    0.4572312831878662,
                    0.4380795955657959,
                    -0.13814884424209596,
                    -0.18751579523086549,
                    0.04108947515487671,
                    0.02586597204208374,
                    -0.0653030276298523,
                    0.49856138229370119,
                    0.12064570188522339,
                    0.2023312896490097,
                    0.4297546148300171,
                    0.21164999902248383,
                    -0.3309464454650879,
                    0.2212345451116562,
                    -0.20522433519363404,
                    -0.2577904462814331,
                    -0.09922569990158081,
                    0.07005172967910767,
                    0.19671009480953217,
                    0.017064273357391359,
                    0.44945502281188967,
                    0.08748894929885864,
                    -0.05880659818649292,
                    0.1534625142812729,
                    -0.36265289783477785,
                    -0.2597362995147705,
                    -0.3209712505340576,
                    -0.07069724798202515,
                    -0.35861361026763918,
                    0.2668929100036621,
                    0.16630183160305024,
                    -0.25272440910339358,
                    -0.06694632768630982,
                    -0.11170881986618042,
                    0.11631947755813599,
                    -0.29375576972961428,
                    0.02552121877670288,
                    0.48461031913757326,
                    -0.3956388235092163,
                    0.17302750051021577,
                    0.454756498336792,
                    0.38517284393310549,
                    -0.31289005279541018,
                    0.39639902114868166,
                    -0.1598694920539856,
                    -0.45512819290161135,
                    -0.42533910274505618,
                    0.4937821626663208,
                    0.14393578469753266,
                    -0.05257755517959595,
                    -0.17349332571029664,
                    0.26955151557922366,
                    0.3034588098526001,
                    0.27086520195007326,
                    0.24645398557186128,
                    -0.006044328212738037,
                    0.16628406941890717,
                    -0.4804706573486328
                ],
                "biases": [
                    -0.16297584772109986,
                    -0.12655740976333619,
                    0.20071302354335786,
                    -0.4682157039642334,
                    -0.11718136072158814,
                    0.26882338523864748,
                    -0.08092159032821655,
                    -0.3478543758392334,
                    -0.4790937900543213
                ]
            }
        },
        {
            "speciesName": "LandCreature",
            "position": {
                "x": -89.52716064453125,
                "y": 1.518943428993225,
                "z": 0.0
            },
            "velocity": {
                "x": 3.9508449845016e-9,
                "y": 2.125738696179269e-9
            },
            "brainData": {
                "layers": [
                    9,
                    7,
                    2
                ],
                "weights": [
                    0.3891103267669678,
                    0.16245649755001069,
                    0.11551827192306519,
                    0.09012526273727417,
                    -0.12396281957626343,
                    0.19232772290706635,
                    -0.3928946256637573,
                    0.4878730773925781,
                    -0.33133578300476076,
                    0.28692948818206789,
                    0.36590254306793215,
                    -0.19815033674240113,
                    0.06907469034194946,
                    0.2971876859664917,
                    -0.38921117782592776,
                    -0.11161381006240845,
                    0.2311999648809433,
                    -0.2984393835067749,
                    -0.2766411304473877,
                    0.29973137378692629,
                    0.15238510072231294,
                    0.41333138942718508,
                    0.11265403032302857,
                    -0.33644187450408938,
                    0.4564943313598633,
                    -0.12899237871170045,
                    -0.3632690906524658,
                    -0.08926564455032349,
                    0.18210135400295258,
                    -0.024180948734283448,
                    0.07329851388931275,
                    0.4401700496673584,
                    0.492031455039978,
                    0.39491546154022219,
                    0.034771740436553958,
                    0.3518099784851074,
                    -0.027850806713104249,
                    -0.020373404026031495,
                    0.3717457056045532,
                    -0.2367507815361023,
                    0.4733668565750122,
                    -0.1378369927406311,
                    0.12441259622573853,
                    0.19815956056118012,
                    0.08042067289352417,
                    -0.012445151805877686,
                    -0.05572444200515747,
                    0.1543121188879013,
                    0.05579429864883423,
                    0.06369799375534058,
                    0.37559282779693606,
                    0.378902792930603,
                    0.07813972234725952,
                    0.37378644943237307,
                    0.18885718286037446,
                    -0.18187052011489869,
                    0.04702359437942505,
                    -0.3658275604248047,
                    -0.4460219144821167,
                    0.4733259677886963,
                    -0.061837732791900638,
                    -0.29014790058135989,
                    -0.25420069694519045,
                    0.20069538056850434,
                    0.3002650737762451,
                    0.29634320735931399,
                    0.3852694034576416,
                    -0.0965544581413269,
                    -0.39109504222869875,
                    -0.3904377222061157,
                    0.310901403427124,
                    -0.4067126512527466,
                    0.2214256376028061,
                    -0.23607486486434937,
                    -0.09483128786087036,
                    -0.3515511751174927,
                    -0.415216326713562
                ],
                "biases": [
                    0.16489718854427339,
                    0.09158426523208618,
                    0.4855523109436035,
                    0.13569997251033784,
                    -0.10736161470413208,
                    -0.11176306009292603,
                    0.26855266094207766,
                    0.09161406755447388,
                    0.02444225549697876
                ]
            }
        },
        {
            "speciesName": "LandCreature",
            "position": {
                "x": -88.51704406738281,
                "y": 1.5192162990570069,
                "z": 0.0
            },
            "velocity": {
                "x": -1.9539925233402756e-14,
                "y": 6.322836476613247e-9
            },
            "brainData": {
                "layers": [
                    9,
                    7,
                    2
                ],
                "weights": [
                    -0.4450787305831909,
                    -0.1759384274482727,
                    0.46388542652130129,
                    0.47063183784484866,
                    -0.30663788318634035,
                    0.41842567920684817,
                    -0.48974311351776125,
                    0.3995479345321655,
                    0.3855215311050415,
                    0.24614523351192475,
                    -0.11719256639480591,
                    -0.11530393362045288,
                    -0.14273053407669068,
                    -0.35885560512542727,
                    0.4146846532821655,
                    -0.05722254514694214,
                    0.3311058282852173,
                    0.061450302600860599,
                    -0.10864251852035523,
                    -0.012424886226654053,
                    -0.2122388482093811,
                    -0.1073639988899231,
                    -0.22494548559188844,
                    -0.1228070855140686,
                    -0.1144222617149353,
                    -0.2030656933784485,
                    0.25620782375335696,
                    -0.4017544984817505,
                    -0.4950827360153198,
                    0.3288412094116211,
                    0.4019118547439575,
                    0.1372229903936386,
                    -0.18620485067367555,
                    -0.39255213737487795,
                    0.09394329786300659,
                    -0.4456150531768799,
                    -0.142811119556427,
                    -0.30477094650268557,
                    -0.14790338277816773,
                    0.1521540731191635,
                    -0.009543359279632569,
                    -0.12960797548294068,
                    0.009893715381622315,
                    -0.4070858955383301,
                    -0.06317263841629029,
                    -0.3842252492904663,
                    0.0929064154624939,
                    -0.4892958402633667,
                    0.20441685616970063,
                    -0.2790408134460449,
                    0.39884471893310549,
                    0.29041409492492678,
                    -0.03753131628036499,
                    0.03525739908218384,
                    -0.41579926013946535,
                    -0.41677677631378176,
                    -0.22340458631515504,
                    0.08051127195358277,
                    -0.14794069528579713,
                    0.28040003776550295,
                    -0.00885540246963501,
                    -0.37699460983276369,
                    0.04413193464279175,
                    0.46242427825927737,
                    0.022045791149139406,
                    0.01097792387008667,
                    -0.4047377109527588,
                    0.2209768146276474,
                    -0.12957900762557984,
                    -0.29577064514160159,
                    -0.15168529748916627,
                    -0.486849308013916,
                    -0.33854496479034426,
                    0.3661837577819824,
                    0.18975447118282319,
                    -0.027940571308135988,
                    0.31939661502838137
                ],
                "biases": [
                    0.03131526708602905,
                    -0.36291563510894778,
                    -0.07012706995010376,
                    0.22536538541316987,
                    0.24735401570796967,
                    -0.44610166549682619,
                    -0.4903014898300171,
                    0.3260359764099121,
                    0.014710843563079834
                ]
            }
        },
        {
            "speciesName": "LandCreature",
            "position": {
                "x": -90.53144836425781,
                "y": 2.533944606781006,
                "z": 0.0
            },
            "velocity": {
                "x": -0.0005445941933430731,
                "y": 2.1318555809557439e-9
            },
            "brainData": {
                "layers": [
                    9,
                    7,
                    2
                ],
                "weights": [
                    0.3308718204498291,
                    0.31630122661590578,
                    0.26650357246398928,
                    0.09636753797531128,
                    -0.40488719940185549,
                    -0.07658809423446655,
                    -0.03972238302230835,
                    0.40614044666290285,
                    0.06608456373214722,
                    0.3361477851867676,
                    0.020553290843963624,
                    -0.32361674308776858,
                    0.2956514358520508,
                    0.4653170108795166,
                    -0.46443212032318118,
                    -0.13032299280166627,
                    0.12416189908981323,
                    0.01867121458053589,
                    0.37533652782440188,
                    -0.2630012035369873,
                    -0.23890060186386109,
                    0.10321599245071411,
                    0.3412930965423584,
                    -0.2265424132347107,
                    -0.03017181158065796,
                    -0.042913854122161868,
                    0.3345116376876831,
                    0.37982022762298586,
                    0.3580368757247925,
                    0.29920339584350588,
                    0.14163170754909516,
                    0.3612746000289917,
                    0.016074001789093019,
                    -0.36295437812805178,
                    0.41068267822265627,
                    -0.3063843250274658,
                    -0.24848240613937379,
                    0.4739494323730469,
                    -0.3163365125656128,
                    -0.26585566997528078,
                    -0.4046328067779541,
                    0.21385835111141206,
                    0.10962992906570435,
                    -0.052851974964141849,
                    -0.4273587465286255,
                    -0.3021659851074219,
                    -0.1087067723274231,
                    -0.10645681619644165,
                    -0.4579606056213379,
                    0.18890689313411714,
                    -0.018873512744903566,
                    0.2732226848602295,
                    -0.40704119205474856,
                    0.43904244899749758,
                    -0.19792026281356812,
                    0.1397613137960434,
                    -0.08665376901626587,
                    0.12682674825191499,
                    -0.08517831563949585,
                    -0.30716896057128909,
                    -0.18325001001358033,
                    -0.027960598468780519,
                    0.32909607887268069,
                    -0.09202295541763306,
                    -0.48061418533325198,
                    0.16701291501522065,
                    -0.4218660593032837,
                    -0.42648768424987795,
                    0.060502469539642337,
                    0.4527113437652588,
                    0.17869709432125092,
                    -0.04643303155899048,
                    -0.347137451171875,
                    -0.280545711517334,
                    0.2862449884414673,
                    0.05224543809890747,
                    -0.048953473567962649
                ],
                "biases": [
                    -0.35163378715515139,
                    0.1876666396856308,
                    0.3276318311691284,
                    -0.11938232183456421,
                    0.2326577752828598,
                    0.42191076278686526,
                    0.307613730430603,
                    -0.13067179918289185,
                    -0.20569103956222535
                ]
            }
        },
        {
            "speciesName": "LandCreature",
            "position": {
                "x": -89.51024627685547,
                "y": 2.5342166423797609,
                "z": 0.0
            },
            "velocity": {
                "x": -0.8101939558982849,
                "y": 0.0
            },
            "brainData": {
                "layers": [
                    9,
                    7,
                    2
                ],
                "weights": [
                    0.3989126682281494,
                    0.08819359540939331,
                    -0.11949771642684937,
                    -0.13647550344467164,
                    0.489108681678772,
                    0.2979079484939575,
                    -0.16858536005020142,
                    -0.18230551481246949,
                    0.018627583980560304,
                    0.2714269161224365,
                    -0.0681731104850769,
                    0.1324370950460434,
                    -0.25619828701019289,
                    -0.48531603813171389,
                    -0.4228304624557495,
                    0.006335079669952393,
                    0.10479933023452759,
                    -0.4197896718978882,
                    0.43320906162261965,
                    0.4927701950073242,
                    -0.08781164884567261,
                    0.029495656490325929,
                    0.3159308433532715,
                    -0.26031720638275149,
                    -0.35558927059173586,
                    0.41613268852233889,
                    -0.3436242341995239,
                    0.2291114181280136,
                    0.44382381439208987,
                    -0.4838070869445801,
                    0.2796875238418579,
                    0.3474876880645752,
                    0.008596837520599366,
                    0.2772754430770874,
                    0.20953868329524995,
                    0.33444201946258547,
                    0.09944099187850952,
                    -0.30078625679016116,
                    -0.33313536643981936,
                    0.24250636994838715,
                    0.04239553213119507,
                    -0.3173884153366089,
                    -0.30262601375579836,
                    0.4941885471343994,
                    0.36870718002319338,
                    -0.0726807713508606,
                    -0.10544627904891968,
                    -0.28862202167510989,
                    0.15020059049129487,
                    0.05476278066635132,
                    -0.31372594833374026,
                    -0.27907466888427737,
                    0.45976173877716067,
                    0.04425591230392456,
                    0.4166438579559326,
                    -0.01233130693435669,
                    0.001625359058380127,
                    0.4617234468460083,
                    0.443310022354126,
                    0.3187284469604492,
                    0.3368467092514038,
                    -0.37003791332244875,
                    -0.29671919345855715,
                    0.25193798542022707,
                    0.40496742725372317,
                    -0.4830218553543091,
                    -0.3410531282424927,
                    0.3591334819793701,
                    0.22017322480678559,
                    -0.2668269872665405,
                    0.11219817399978638,
                    0.1389390081167221,
                    -0.3699836730957031,
                    0.20145557820796967,
                    0.24752353131771089,
                    -0.13753920793533326,
                    0.31966733932495119
                ],
                "biases": [
                    0.37678050994873049,
                    -0.0007355809211730957,
                    -0.44730639457702639,
                    0.06805258989334107,
                    -0.1380874514579773,
                    -0.26556694507598879,
                    0.3004286289215088,
                    0.265231728553772,
                    -0.07688254117965698
                ]
            }
        }
    ],
    "foodPositions": [
        {
            "x": -98.0,
            "y": 1.5,
            "z": 0.0
        },
        {
            "x": -81.0,
            "y": 4.5,
            "z": 0.0
        },
        {
            "x": -66.0,
            "y": 6.5,
            "z": 0.0
        },
        {
            "x": -51.0,
            "y": 10.5,
            "z": 0.0
        },
        {
            "x": -36.0,
            "y": 13.5,
            "z": 0.0
        },
        {
            "x": -23.0,
            "y": 16.5,
            "z": 0.0
        },
        {
            "x": -8.0,
            "y": 20.5,
            "z": 0.0
        },
        {
            "x": 6.0,
            "y": 24.5,
            "z": 0.0
        },
        {
            "x": 21.0,
            "y": 27.5,
            "z": 0.0
        },
        {
            "x": 36.0,
            "y": 29.5,
            "z": 0.0
        },
        {
            "x": 51.0,
            "y": 32.5,
            "z": 0.0
        },
        {
            "x": 66.0,
            "y": 34.5,
            "z": 0.0
        },
        {
            "x": 79.0,
            "y": 37.5,
            "z": 0.0
        },
        {
            "x": 93.0,
            "y": 40.5,
            "z": 0.0
        },
        {
            "x": 106.0,
            "y": 42.5,
            "z": 0.0
        },
        {
            "x": 120.0,
            "y": 45.5,
            "z": 0.0
        },
        {
            "x": -98.0,
            "y": 1.5,
            "z": 0.0
        },
        {
            "x": -81.0,
            "y": 4.5,
            "z": 0.0
        },
        {
            "x": -67.0,
            "y": 8.5,
            "z": 0.0
        },
        {
            "x": -54.0,
            "y": 11.5,
            "z": 0.0
        },
        {
            "x": -40.0,
            "y": 14.5,
            "z": 0.0
        },
        {
            "x": -25.0,
            "y": 16.5,
            "z": 0.0
        },
        {
            "x": -12.0,
            "y": 19.5,
            "z": 0.0
        },
        {
            "x": 2.0,
            "y": 21.5,
            "z": 0.0
        },
        {
            "x": 17.0,
            "y": 24.5,
            "z": 0.0
        },
        {
            "x": 32.0,
            "y": 27.5,
            "z": 0.0
        },
        {
            "x": 47.0,
            "y": 29.5,
            "z": 0.0
        },
        {
            "x": 62.0,
            "y": 31.5,
            "z": 0.0
        },
        {
            "x": 77.0,
            "y": 33.5,
            "z": 0.0
        },
        {
            "x": 92.0,
            "y": 35.5,
            "z": 0.0
        },
        {
            "x": 107.0,
            "y": 39.5,
            "z": 0.0
        },
        {
            "x": 122.0,
            "y": 43.5,
            "z": 0.0
        },
        {
            "x": -98.0,
            "y": 1.5,
            "z": 0.0
        },
        {
            "x": -80.0,
            "y": 5.5,
            "z": 0.0
        },
        {
            "x": -65.0,
            "y": 8.5,
            "z": 0.0
        },
        {
            "x": -52.0,
            "y": 11.5,
            "z": 0.0
        },
        {
            "x": -37.0,
            "y": 15.5,
            "z": 0.0
        },
        {
            "x": -24.0,
            "y": 19.5,
            "z": 0.0
        },
        {
            "x": -10.0,
            "y": 23.5,
            "z": 0.0
        },
        {
            "x": 3.0,
            "y": 26.5,
            "z": 0.0
        },
        {
            "x": 17.0,
            "y": 30.5,
            "z": 0.0
        },
        {
            "x": 31.0,
            "y": 34.5,
            "z": 0.0
        },
        {
            "x": 45.0,
            "y": 38.5,
            "z": 0.0
        },
        {
            "x": 59.0,
            "y": 42.5,
            "z": 0.0
        },
        {
            "x": 72.0,
            "y": 45.5,
            "z": 0.0
        },
        {
            "x": 85.0,
            "y": 48.5,
            "z": 0.0
        },
        {
            "x": 100.0,
            "y": 51.5,
            "z": 0.0
        },
        {
            "x": 114.0,
            "y": 53.5,
            "z": 0.0
        },
        {
            "x": -98.0,
            "y": 1.5,
            "z": 0.0
        },
        {
            "x": -81.0,
            "y": 3.5,
            "z": 0.0
        },
        {
            "x": -66.0,
            "y": 7.5,
            "z": 0.0
        },
        {
            "x": -51.0,
            "y": 11.5,
            "z": 0.0
        },
        {
            "x": -38.0,
            "y": 14.5,
            "z": 0.0
        },
        {
            "x": -25.0,
            "y": 18.5,
            "z": 0.0
        },
        {
            "x": -11.0,
            "y": 20.5,
            "z": 0.0
        },
        {
            "x": 3.0,
            "y": 22.5,
            "z": 0.0
        },
        {
            "x": 17.0,
            "y": 26.5,
            "z": 0.0
        },
        {
            "x": 32.0,
            "y": 29.5,
            "z": 0.0
        },
        {
            "x": 47.0,
            "y": 31.5,
            "z": 0.0
        },
        {
            "x": 61.0,
            "y": 35.5,
            "z": 0.0
        },
        {
            "x": 75.0,
            "y": 38.5,
            "z": 0.0
        },
        {
            "x": 89.0,
            "y": 40.5,
            "z": 0.0
        },
        {
            "x": 103.0,
            "y": 43.5,
            "z": 0.0
        },
        {
            "x": 117.0,
            "y": 45.5,
            "z": 0.0
        },
        {
            "x": -98.0,
            "y": 1.5,
            "z": 0.0
        },
        {
            "x": -80.0,
            "y": 4.5,
            "z": 0.0
        },
        {
            "x": -65.0,
            "y": 7.5,
            "z": 0.0
        },
        {
            "x": -51.0,
            "y": 10.5,
            "z": 0.0
        },
        {
            "x": -36.0,
            "y": 13.5,
            "z": 0.0
        },
        {
            "x": -22.0,
            "y": 16.5,
            "z": 0.0
        },
        {
            "x": -8.0,
            "y": 20.5,
            "z": 0.0
        },
        {
            "x": 5.0,
            "y": 22.5,
            "z": 0.0
        },
        {
            "x": 19.0,
            "y": 24.5,
            "z": 0.0
        },
        {
            "x": 32.0,
            "y": 28.5,
            "z": 0.0
        },
        {
            "x": 46.0,
            "y": 31.5,
            "z": 0.0
        },
        {
            "x": 60.0,
            "y": 34.5,
            "z": 0.0
        },
        {
            "x": 75.0,
            "y": 36.5,
            "z": 0.0
        },
        {
            "x": 88.0,
            "y": 38.5,
            "z": 0.0
        },
        {
            "x": 101.0,
            "y": 41.5,
            "z": 0.0
        },
        {
            "x": 116.0,
            "y": 44.5,
            "z": 0.0
        },
        {
            "x": -66.5,
            "y": 7.5,
            "z": 0.0
        }
    ],
    "activeSpeciesNames": [
        "LandCreature"
    ]
}