{
    "generation": 0,
    "worldType": 0,
    "worldGenSeed": 128.73280334472657,
    "mapChanges": [
        {
            "position": {
                "x": 8,
                "y": 10,
                "z": 0
            },
            "tileName": "grass"
        },
        {
            "position": {
                "x": 3,
                "y": 21,
                "z": 0
            },
            "tileName": "grass"
        },
        {
            "position": {
                "x": 72,
                "y": 78,
                "z": 0
            },
            "tileName": "grass"
        },
        {
            "position": {
                "x": 63,
                "y": 57,
                "z": 0
            },
            "tileName": "grass"
        },
        {
            "position": {
                "x": 1,
                "y": 93,
                "z": 0
            },
            "tileName": "grass"
        },
        {
            "position": {
                "x": 1,
                "y": 91,
                "z": 0
            },
            "tileName": "grass"
        },
        {
            "position": {
                "x": -77,
                "y": 10,
                "z": 0
            },
            "tileName": "grass"
        },
        {
            "position": {
                "x": -76,
                "y": 10,
                "z": 0
            },
            "tileName": "grass"
        },
        {
            "position": {
                "x": -75,
                "y": 10,
                "z": 0
            },
            "tileName": "grass"
        },
        {
            "position": {
                "x": -74,
                "y": 10,
                "z": 0
            },
            "tileName": "grass"
        },
        {
            "position": {
                "x": -73,
                "y": 9,
                "z": 0
            },
            "tileName": "grass"
        },
        {
            "position": {
                "x": -72,
                "y": 9,
                "z": 0
            },
            "tileName": "grass"
        },
        {
            "position": {
                "x": -71,
                "y": 9,
                "z": 0
            },
            "tileName": "grass"
        },
        {
            "position": {
                "x": 94,
                "y": 102,
                "z": 0
            },
            "tileName": "grass"
        },
        {
            "position": {
                "x": 95,
                "y": 103,
                "z": 0
            },
            "tileName": "grass"
        },
        {
            "position": {
                "x": 19,
                "y": 10,
                "z": 0
            },
            "tileName": "grass"
        }
    ],
    "creatures": [
        {
            "speciesName": "Fish",
            "position": {
                "x": -36.73735809326172,
                "y": 7.503582954406738,
                "z": 0.0
            },
            "velocity": {
                "x": 0.0,
                "y": 0.0
            },
            "brainData": {
                "layers": [
                    11,
                    8,
                    2
                ],
                "weights": [
                    -0.37474071979522707,
                    0.17365442216396333,
                    -0.017897427082061769,
                    0.16359959542751313,
                    0.17038999497890473,
                    0.4147663116455078,
                    0.3982433080673218,
                    -0.19155126810073853,
                    0.16198419034481049,
                    0.30917274951934817,
                    -0.3808584213256836,
                    -0.06121033430099487,
                    -0.3667306900024414,
                    0.17666123807430268,
                    0.30596089363098147,
                    -0.024120986461639406,
                    0.4636169672012329,
                    -0.25923287868499758,
                    0.12166708707809448,
                    -0.15731948614120484,
                    0.3025834560394287,
                    -0.4823291301727295,
                    -0.23924130201339723,
                    0.07817548513412476,
                    0.15279971063137055,
                    -0.3229893445968628,
                    -0.25628018379211428,
                    0.45577776432037356,
                    -0.09417599439620972,
                    0.34585607051849368,
                    -0.4273838996887207,
                    -0.20169061422348023,
                    0.056558072566986087,
                    -0.3534139394760132,
                    -0.22895056009292603,
                    -0.1565071940422058,
                    -0.1144832968711853,
                    0.38437509536743166,
                    0.4674183130264282,
                    -0.19379979372024537,
                    0.22610174119472505,
                    0.384731650352478,
                    -0.2551666498184204,
                    -0.1262398362159729,
                    0.19866465032100678,
                    0.18006788194179536,
                    0.44651365280151369,
                    0.1634727567434311,
                    0.05096668004989624,
                    -0.49600720405578616,
                    0.46228671073913576,
                    0.3126332759857178,
                    -0.41805148124694826,
                    0.0808764100074768,
                    0.27971935272216799,
                    0.11056822538375855,
                    -0.39325273036956789,
                    -0.19319134950637818,
                    -0.29068148136138918,
                    -0.2244604229927063,
                    0.33232390880584719,
                    -0.2949180603027344,
                    0.4872901439666748,
                    0.12896929681301118,
                    -0.30377936363220217,
                    -0.37221646308898928,
                    -0.3828233480453491,
                    -0.26949357986450198,
                    0.31430506706237795,
                    -0.4605456590652466,
                    0.27912747859954836,
                    -0.26711225509643557,
                    0.1870201677083969,
                    0.08317285776138306,
                    -0.2172033190727234,
                    -0.46739697456359866,
                    -0.029559195041656495,
                    0.049778640270233157,
                    -0.0921744704246521,
                    -0.41604506969451907,
                    -0.17579776048660279,
                    0.17739175260066987,
                    -0.06135040521621704,
                    0.004984557628631592,
                    -0.44761180877685549,
                    0.2214401811361313,
                    0.12663041055202485,
                    0.23347662389278413,
                    -0.26272881031036379,
                    -0.36416125297546389,
                    -0.33064913749694826,
                    0.34551262855529787,
                    -0.1863524317741394,
                    -0.4953345060348511,
                    -0.08959370851516724,
                    -0.17527002096176148,
                    -0.3818197250366211,
                    0.049011170864105228,
                    -0.4810371398925781,
                    -0.30006229877471926,
                    -0.17251545190811158,
                    -0.4048076868057251,
                    0.2749873399734497,
                    0.3862900733947754
                ],
                "biases": [
                    0.3796498775482178,
                    -0.3929479122161865,
                    0.2175959199666977,
                    -0.06861454248428345,
                    -0.005468904972076416,
                    -0.234730064868927,
                    -0.42819011211395266,
                    -0.21725720167160035,
                    -0.3966790437698364,
                    -0.2544769048690796
                ]
            }
        },
        {
            "speciesName": "Fish",
            "position": {
                "x": -29.186351776123048,
                "y": 75.91869354248047,
                "z": 0.0
            },
            "velocity": {
                "x": 0.09307576715946198,
                "y": -0.875494658946991
            },
            "brainData": {
                "layers": [
                    11,
                    8,
                    2
                ],
                "weights": [
                    0.42900753021240237,
                    -0.09422415494918823,
                    -0.2609422206878662,
                    -0.43994200229644778,
                    -0.29852747917175295,
                    -0.2763185501098633,
                    -0.07070451974868775,
                    0.17180000245571137,
                    0.11819702386856079,
                    -0.40347063541412356,
                    0.2284672111272812,
                    -0.0550723671913147,
                    0.018845021724700929,
                    -0.06514126062393189,
                    -0.40065526962280276,
                    0.011597931385040284,
                    0.2113618701696396,
                    0.05310744047164917,
                    0.09368199110031128,
                    0.14035581052303315,
                    -0.30156683921813967,
                    0.1082262396812439,
                    0.33819127082824709,
                    -0.10910707712173462,
                    -0.42895710468292239,
                    -0.01504141092300415,
                    0.2550477981567383,
                    0.18349789083003999,
                    0.23585210740566255,
                    0.19919954240322114,
                    -0.01759999990463257,
                    0.23612116277217866,
                    -0.21151572465896607,
                    0.07760339975357056,
                    -0.20737260580062867,
                    0.27925825119018557,
                    0.41211843490600588,
                    -0.23940223455429078,
                    0.17365501821041108,
                    -0.4354797601699829,
                    0.020914852619171144,
                    0.020853817462921144,
                    0.39077675342559817,
                    0.2834712266921997,
                    -0.12981325387954713,
                    0.15924571454524995,
                    0.29578840732574465,
                    0.01843315362930298,
                    0.1152237057685852,
                    0.10016387701034546,
                    -0.3500121831893921,
                    0.05071645975112915,
                    0.15864263474941255,
                    0.4727262258529663,
                    -0.16574221849441529,
                    -0.34116506576538088,
                    0.4365665912628174,
                    0.4254157543182373,
                    -0.01054316759109497,
                    -0.18807345628738404,
                    0.27890288829803469,
                    0.3566175699234009,
                    -0.20537501573562623,
                    0.09089738130569458,
                    -0.4193958044052124,
                    0.19216667115688325,
                    0.006779372692108154,
                    -0.07470530271530152,
                    0.19278691709041596,
                    -0.19537407159805299,
                    0.41179609298706057,
                    0.2617298364639282,
                    0.40978050231933596,
                    -0.07725805044174195,
                    -0.3302346467971802,
                    -0.44809460639953616,
                    -0.3377279043197632,
                    0.29155290126800539,
                    -0.1765781044960022,
                    -0.35022056102752688,
                    0.27701103687286379,
                    0.2932978868484497,
                    -0.48451459407806399,
                    0.44781506061553957,
                    0.18152688443660737,
                    0.19803176820278169,
                    0.49692070484161379,
                    -0.2874715328216553,
                    0.3876521587371826,
                    0.07418245077133179,
                    0.03855031728744507,
                    -0.17583757638931275,
                    -0.49709439277648928,
                    0.08892351388931275,
                    0.19586263597011567,
                    -0.2578073740005493,
                    -0.38727056980133059,
                    -0.14364701509475709,
                    0.43597137928009035,
                    -0.3853189945220947,
                    -0.3949272632598877,
                    0.1322018951177597,
                    0.07404202222824097,
                    0.0962877869606018
                ],
                "biases": [
                    0.36900222301483157,
                    -0.2996823787689209,
                    0.07602185010910034,
                    -0.032821714878082278,
                    -0.18055051565170289,
                    -0.39785075187683108,
                    0.24315045773983003,
                    -0.2324175238609314,
                    -0.08542734384536743,
                    -0.272660493850708
                ]
            }
        },
        {
            "speciesName": "Fish",
            "position": {
                "x": 2.172651529312134,
                "y": 45.11192321777344,
                "z": 0.0
            },
            "velocity": {
                "x": 6.74439811706543,
                "y": -4.144442081451416
            },
            "brainData": {
                "layers": [
                    11,
                    8,
                    2
                ],
                "weights": [
                    -0.3171004056930542,
                    0.0070223212242126469,
                    0.21268519759178163,
                    -0.043232619762420657,
                    -0.19319790601730348,
                    0.2699390649795532,
                    -0.3868807554244995,
                    0.35051095485687258,
                    -0.1696358323097229,
                    0.39628756046295168,
                    -0.27687954902648928,
                    -0.47425568103790285,
                    -0.31462228298187258,
                    -0.288830041885376,
                    -0.2086358666419983,
                    -0.33206987380981448,
                    -0.18708908557891847,
                    0.3460329473018646,
                    0.018751345574855806,
                    -0.3664517402648926,
                    0.24826711416244508,
                    -0.3014014959335327,
                    0.42895781993865969,
                    -0.09484533965587616,
                    0.04971498250961304,
                    -0.4941807985305786,
                    0.47685983777046206,
                    0.3709903955459595,
                    0.026736795902252198,
                    0.12758003175258637,
                    0.027323424816131593,
                    -0.1089494377374649,
                    -0.4273958206176758,
                    -0.32194840908050539,
                    -0.03007877618074417,
                    0.35594749450683596,
                    -0.09127813577651978,
                    0.04284018278121948,
                    0.3184982240200043,
                    0.46693265438079836,
                    0.1006026491522789,
                    0.44490087032318118,
                    0.020564019680023195,
                    -0.3660414218902588,
                    0.17426131665706635,
                    -0.4017159938812256,
                    -0.11810499429702759,
                    -0.42134296894073489,
                    -0.2113134264945984,
                    0.04190582036972046,
                    0.14015041291713715,
                    0.2829113006591797,
                    -0.3187437057495117,
                    -0.4332329034805298,
                    0.31049251556396487,
                    -0.48897838592529299,
                    0.349029541015625,
                    -0.4698981046676636,
                    0.11626024544239044,
                    0.11890500783920288,
                    0.2107146829366684,
                    -0.13113385438919068,
                    -0.38262128829956057,
                    0.007837951183319092,
                    -0.1409701704978943,
                    0.08011966943740845,
                    -0.4713888168334961,
                    0.08401244878768921,
                    -0.4512758255004883,
                    0.41166895627975466,
                    0.13707135617733003,
                    0.29913949966430666,
                    -0.33350038528442385,
                    -0.20683950185775758,
                    0.019451797008514406,
                    0.21535061299800874,
                    -0.2677845358848572,
                    0.42378437519073489,
                    0.13598965108394624,
                    -0.060467302799224856,
                    -0.3947051763534546,
                    -0.15195757150650025,
                    -0.31060242652893069,
                    0.4031915068626404,
                    -0.0205652117729187,
                    0.07563179731369019,
                    -0.2733227014541626,
                    0.1312079280614853,
                    -0.028404057025909425,
                    0.4790184497833252,
                    -0.43123069405555727,
                    0.40205466747283938,
                    -0.1797681450843811,
                    -0.3516170084476471,
                    0.10700720548629761,
                    -0.3184767961502075,
                    0.20385204255580903,
                    0.24738216400146485,
                    -0.03627735376358032,
                    -0.04460042715072632,
                    -0.19013243913650514,
                    0.13154099881649018,
                    -0.40718936920166018,
                    0.4108768701553345
                ],
                "biases": [
                    -0.5235205888748169,
                    0.2817328870296478,
                    -0.3495856523513794,
                    -0.3538082242012024,
                    -0.2911792993545532,
                    0.3990708887577057,
                    -0.3610248565673828,
                    0.04741090536117554,
                    0.1788720190525055,
                    -0.2981133460998535
                ]
            }
        },
        {
            "speciesName": "Fish",
            "position": {
                "x": -50.49643325805664,
                "y": 7.501152038574219,
                "z": 0.0
            },
            "velocity": {
                "x": 0.0,
                "y": 0.0
            },
            "brainData": {
                "layers": [
                    11,
                    8,
                    2
                ],
                "weights": [
                    0.42900753021240237,
                    -0.11350136995315552,
                    -0.014315187931060791,
                    -0.2763974368572235,
                    0.443705677986145,
                    -0.2763185501098633,
                    -0.19910210371017457,
                    0.20360182225704194,
                    -0.26851844787597659,
                    -0.4164670407772064,
                    -0.3307745158672333,
                    -0.0550723671913147,
                    0.018845021724700929,
                    -0.06514126062393189,
                    -0.40065526962280276,
                    0.011597931385040284,
                    -0.4192392826080322,
                    -0.04611142724752426,
                    0.09368199110031128,
                    0.14035581052303315,
                    -0.26966428756713869,
                    -0.11142803728580475,
                    0.33819127082824709,
                    0.374074250459671,
                    -0.42895710468292239,
                    -0.34879815578460696,
                    0.09584464877843857,
                    0.38725078105926516,
                    -0.4087371826171875,
                    0.18567177653312684,
                    0.0425073504447937,
                    0.23612116277217866,
                    0.27118539810180666,
                    -0.019480712711811067,
                    -0.22837164998054505,
                    0.2758524417877197,
                    0.41211843490600588,
                    -0.23940223455429078,
                    0.08133310079574585,
                    -0.4354797601699829,
                    0.020914852619171144,
                    -0.19710344076156617,
                    -0.28257596492767336,
                    0.17017649114131928,
                    -0.12981325387954713,
                    0.4543064832687378,
                    0.2560570240020752,
                    0.09934774786233902,
                    0.1152237057685852,
                    0.3316681385040283,
                    -0.3500121831893921,
                    0.05071645975112915,
                    -0.30190908908843996,
                    0.05800908803939819,
                    -0.16574221849441529,
                    0.4133404791355133,
                    0.4365665912628174,
                    0.16866658627986909,
                    -0.06011241674423218,
                    0.4038550853729248,
                    0.27890288829803469,
                    0.4458019435405731,
                    -0.20537501573562623,
                    0.2637186050415039,
                    0.4734588861465454,
                    -0.029394567012786866,
                    0.006779372692108154,
                    -0.265625,
                    0.21340680122375489,
                    0.2632005214691162,
                    0.41179609298706057,
                    0.2617298364639282,
                    0.40978050231933596,
                    -0.07725805044174195,
                    -0.3302346467971802,
                    -0.21649307012557984,
                    -0.06010931730270386,
                    0.29155290126800539,
                    -0.27533796429634097,
                    0.1476524919271469,
                    0.27701103687286379,
                    -0.03061574697494507,
                    -0.4910662770271301,
                    0.5216302871704102,
                    -0.3904212713241577,
                    0.19803176820278169,
                    0.561866044998169,
                    -0.2874715328216553,
                    -0.30475032329559328,
                    -0.24048477411270142,
                    0.03855031728744507,
                    -0.2719087302684784,
                    -0.2244720458984375,
                    -0.44658100605010989,
                    0.19586263597011567,
                    -0.2339882254600525,
                    -0.45631885528564455,
                    -0.4187368154525757,
                    0.43597137928009035,
                    -0.042416155338287356,
                    -0.3949272632598877,
                    0.1322018951177597,
                    -0.24023956060409547,
                    -0.388230562210083
                ],
                "biases": [
                    0.36900222301483157,
                    -0.2996823787689209,
                    0.07602185010910034,
                    -0.032821714878082278,
                    -0.2622033357620239,
                    -0.41756898164749148,
                    0.17710834741592408,
                    0.42160332202911379,
                    -0.3055747151374817,
                    -0.19695132970809937
                ]
            }
        },
        {
            "speciesName": "Fish",
            "position": {
                "x": 7.698800563812256,
                "y": 61.26002502441406,
                "z": 0.0
            },
            "velocity": {
                "x": 0.1858786642551422,
                "y": -4.075456619262695
            },
            "brainData": {
                "layers": [
                    11,
                    8,
                    2
                ],
                "weights": [
                    -0.03231614828109741,
                    -0.11350136995315552,
                    -0.2609422206878662,
                    -0.43994200229644778,
                    -0.29852747917175295,
                    -0.1874740719795227,
                    -0.25353384017944338,
                    0.20360182225704194,
                    0.17538410425186158,
                    0.5042064785957336,
                    -0.30552709102630618,
                    -0.0550723671913147,
                    -0.4455760717391968,
                    0.4008212089538574,
                    -0.40065526962280276,
                    0.011597931385040284,
                    0.2113618701696396,
                    0.35037875175476076,
                    -0.03731757402420044,
                    0.25304698944091799,
                    -0.26966428756713869,
                    0.04792880266904831,
                    0.33819127082824709,
                    -0.10910707712173462,
                    -0.3552893102169037,
                    -0.34879815578460696,
                    0.06060425192117691,
                    0.18349789083003999,
                    -0.4087371826171875,
                    -0.1010625958442688,
                    0.0425073504447937,
                    0.23612116277217866,
                    -0.21151572465896607,
                    0.1960253119468689,
                    -0.2333737015724182,
                    0.2758524417877197,
                    0.41211843490600588,
                    -0.18283718824386598,
                    0.010588131844997406,
                    -0.37738335132598879,
                    -0.19541150331497193,
                    0.020853817462921144,
                    0.39077675342559817,
                    0.2834712266921997,
                    0.4273718595504761,
                    0.4543064832687378,
                    0.2560570240020752,
                    0.025532342493534089,
                    0.1152237057685852,
                    0.018765680491924287,
                    -0.3500121831893921,
                    0.2475360482931137,
                    -0.30190908908843996,
                    0.4263142943382263,
                    -0.16574221849441529,
                    0.3772469758987427,
                    0.02521449327468872,
                    0.4254157543182373,
                    -0.07906794548034668,
                    0.46587368845939639,
                    0.21483460068702699,
                    0.3566175699234009,
                    0.3722708225250244,
                    0.2637186050415039,
                    0.4734588861465454,
                    0.19216667115688325,
                    -0.43519020080566409,
                    -0.33324602246284487,
                    0.19278691709041596,
                    0.2632005214691162,
                    0.41179609298706057,
                    0.2617298364639282,
                    0.40978050231933596,
                    0.04942959547042847,
                    -0.3302346467971802,
                    -0.44809460639953616,
                    -0.11801046133041382,
                    0.29155290126800539,
                    -0.1765781044960022,
                    0.1476524919271469,
                    0.26785963773727419,
                    -0.07557368278503418,
                    -0.202248215675354,
                    0.44781506061553957,
                    -0.3904212713241577,
                    0.22205734252929688,
                    0.1732574999332428,
                    0.08727699518203736,
                    -0.30475032329559328,
                    0.07418245077133179,
                    0.3929367959499359,
                    -0.478529691696167,
                    -0.16251260042190553,
                    -0.44658100605010989,
                    0.10711713880300522,
                    -0.2578073740005493,
                    -0.31717681884765627,
                    -0.14364701509475709,
                    0.43597137928009035,
                    -0.13283297419548036,
                    0.15407058596611024,
                    0.18020783364772798,
                    -0.24023956060409547,
                    -0.388230562210083
                ],
                "biases": [
                    0.36900222301483157,
                    -0.2996823787689209,
                    0.07602185010910034,
                    -0.032821714878082278,
                    -0.2622033357620239,
                    0.3756411075592041,
                    0.14325378835201264,
                    0.42160332202911379,
                    -0.3167504072189331,
                    -0.19695132970809937
                ]
            }
        },
        {
            "speciesName": "Fish",
            "position": {
                "x": 49.757598876953128,
                "y": 41.070499420166019,
                "z": 0.0
            },
            "velocity": {
                "x": 2.0209057331085207,
                "y": 7.482616424560547
            },
            "brainData": {
                "layers": [
                    11,
                    8,
                    2
                ],
                "weights": [
                    0.20250092446804048,
                    0.07964009046554566,
                    -0.29804956912994387,
                    -0.2548518180847168,
                    -0.19834116101264954,
                    -0.472054123878479,
                    -0.06289523839950562,
                    0.1666649430990219,
                    0.5090618133544922,
                    0.3739020824432373,
                    -0.1268358826637268,
                    -0.22779116034507752,
                    -0.09989947080612183,
                    0.3639821708202362,
                    -0.2425345778465271,
                    0.39260339736938479,
                    0.45371854305267336,
                    -0.24911266565322877,
                    0.3732175827026367,
                    0.28870415687561037,
                    -0.12047809362411499,
                    -0.35407695174217226,
                    -0.07136308401823044,
                    -0.48153746128082278,
                    -0.24532347917556764,
                    0.22151468694210053,
                    0.2778424024581909,
                    0.47177624702453616,
                    0.3422929048538208,
                    -0.14242368936538697,
                    0.43609118461608889,
                    0.0377081036567688,
                    -0.3725641965866089,
                    0.1168108582496643,
                    0.24455033242702485,
                    -0.34006619453430178,
                    -0.0156518816947937,
                    0.4472769796848297,
                    0.2893102169036865,
                    -0.33978939056396487,
                    0.0024238228797912599,
                    0.13169334828853608,
                    -0.43538951873779299,
                    0.14848004281520844,
                    -0.38165390491485598,
                    -0.13954290747642518,
                    0.49754440784454348,
                    0.04327601194381714,
                    0.01700645685195923,
                    0.015962302684783937,
                    -0.4379991292953491,
                    0.25261807441711428,
                    -0.44345247745513918,
                    -0.43699419498443606,
                    -0.24560052156448365,
                    -0.4331172704696655,
                    -0.04841989278793335,
                    -0.4264497756958008,
                    0.03839904069900513,
                    -0.4681887626647949,
                    0.2760387063026428,
                    -0.43001818656921389,
                    -0.1367543339729309,
                    0.2864725589752197,
                    0.46958351135253909,
                    0.3720046281814575,
                    0.38611066341400149,
                    0.43928563594818118,
                    0.44103169441223147,
                    0.09189242124557495,
                    -0.4355844259262085,
                    0.1878083050251007,
                    -0.1948968768119812,
                    -0.15504151582717896,
                    -0.25969481468200686,
                    0.12225192785263062,
                    0.24771974980831147,
                    0.1490635722875595,
                    -0.18505626916885377,
                    0.35526251792907717,
                    0.29334497451782229,
                    -0.46397003531455996,
                    0.3199363946914673,
                    0.3231416940689087,
                    0.27371513843536379,
                    -0.4249964952468872,
                    0.20237289369106294,
                    0.4278339147567749,
                    -0.22925204038619996,
                    0.057455480098724368,
                    -0.47871455550193789,
                    0.0607791543006897,
                    0.23681388795375825,
                    -0.057237207889556888,
                    -0.05029851198196411,
                    -0.39226317405700686,
                    -0.37832677364349368,
                    0.1372152417898178,
                    -0.20307332277297975,
                    0.45237624645233157,
                    -0.3257744312286377,
                    -0.13565164804458619,
                    0.08303815126419068,
                    0.37006115913391116
                ],
                "biases": [
                    -0.49614274501800539,
                    0.4929462671279907,
                    -0.19811087846755982,
                    -0.3613540232181549,
                    0.4175184965133667,
                    0.09359104931354523,
                    0.3900768756866455,
                    0.08403366804122925,
                    0.46671855449676516,
                    0.2843153476715088
                ]
            }
        },
        {
            "speciesName": "Fish",
            "position": {
                "x": 50.496421813964847,
                "y": 60.40133285522461,
                "z": 0.0
            },
            "velocity": {
                "x": -1.9929318284539478e-7,
                "y": -0.7139006853103638
            },
            "brainData": {
                "layers": [
                    11,
                    8,
                    2
                ],
                "weights": [
                    0.36996763944625857,
                    -0.11350136995315552,
                    -0.014315187931060791,
                    -0.1421746015548706,
                    0.45370838046073916,
                    -0.472054123878479,
                    -0.19910210371017457,
                    0.1666649430990219,
                    0.07010629773139954,
                    0.3739020824432373,
                    -0.30552709102630618,
                    0.3947131633758545,
                    -0.29921698570251467,
                    -0.4577147960662842,
                    -0.1870909333229065,
                    0.3720821738243103,
                    0.3297300338745117,
                    0.35037875175476076,
                    0.1348593533039093,
                    0.25304698944091799,
                    0.20822928845882417,
                    -0.13908439874649049,
                    -0.38241732120513918,
                    -0.48153746128082278,
                    -0.37050771713256838,
                    0.01025766134262085,
                    0.3643026351928711,
                    0.1640108823776245,
                    0.3422929048538208,
                    -0.1010625958442688,
                    0.0425073504447937,
                    0.30431318283081057,
                    -0.06423181295394898,
                    0.2947896718978882,
                    -0.2333737015724182,
                    -0.4537653625011444,
                    0.11954182386398316,
                    0.26958543062210085,
                    0.15953674912452699,
                    -0.29020655155181887,
                    -0.19541150331497193,
                    -0.19710344076156617,
                    -0.4429127871990204,
                    0.17017649114131928,
                    -0.38165390491485598,
                    -0.4725918769836426,
                    0.2560570240020752,
                    -0.20829135179519654,
                    -0.41962099075317385,
                    0.33993470668792727,
                    0.09595578908920288,
                    -0.08925801515579224,
                    -0.033810436725616458,
                    0.03588411957025528,
                    -0.2417030930519104,
                    -0.4331172704696655,
                    0.02521449327468872,
                    0.16866658627986909,
                    -0.06011241674423218,
                    -0.18457159399986268,
                    0.3045297861099243,
                    0.4905734062194824,
                    -0.1367543339729309,
                    -0.354092001914978,
                    0.4734588861465454,
                    -0.029394567012786866,
                    -0.43519020080566409,
                    -0.265625,
                    -0.2573676109313965,
                    0.09189242124557495,
                    0.11127442121505737,
                    0.2472205013036728,
                    0.31576669216156008,
                    -0.0029145851731300356,
                    -0.08684678375720978,
                    0.12225192785263062,
                    -0.06010931730270386,
                    -0.005851924419403076,
                    0.14260528981685639,
                    0.1476524919271469,
                    -0.13601058721542359,
                    -0.03061574697494507,
                    0.1715768426656723,
                    0.38860708475112917,
                    -0.3904212713241577,
                    0.33096274733543398,
                    0.07746368646621704,
                    0.08727699518203736,
                    -0.3980594575405121,
                    -0.4588165283203125,
                    0.44260501861572268,
                    0.0013578534126281739,
                    -0.16251260042190553,
                    -0.057237207889556888,
                    -0.33879220485687258,
                    -0.2339882254600525,
                    -0.37832677364349368,
                    0.13795927166938783,
                    -0.20307332277297975,
                    -0.042416155338287356,
                    -0.3257744312286377,
                    -0.2302667498588562,
                    -0.24023956060409547,
                    -0.43763017654418948
                ],
                "biases": [
                    -0.2170305699110031,
                    -0.4007297456264496,
                    0.25824105739593508,
                    0.18680690228939057,
                    -0.22825928032398225,
                    -0.0364348441362381,
                    0.14325378835201264,
                    -0.38193535804748537,
                    0.46671855449676516,
                    0.2843153476715088
                ]
            }
        },
        {
            "speciesName": "Fish",
            "position": {
                "x": -10.603014945983887,
                "y": 37.39559555053711,
                "z": 0.0
            },
            "velocity": {
                "x": 2.591557264328003,
                "y": 8.338581085205079
            },
            "brainData": {
                "layers": [
                    11,
                    8,
                    2
                ],
                "weights": [
                    -0.048686861991882327,
                    0.0070223212242126469,
                    -0.014315187931060791,
                    -0.20090216398239137,
                    -0.19319790601730348,
                    -0.1874740719795227,
                    -0.3868807554244995,
                    0.20360182225704194,
                    -0.2540699243545532,
                    0.4359252452850342,
                    -0.27687954902648928,
                    0.3947131633758545,
                    -0.3916965425014496,
                    0.4008212089538574,
                    -0.1870909333229065,
                    -0.4291524887084961,
                    -0.4192392826080322,
                    0.26219916343688967,
                    -0.059065043926239017,
                    -0.2799915671348572,
                    -0.26966428756713869,
                    -0.15131133794784547,
                    0.399433970451355,
                    -0.0780600905418396,
                    0.04971498250961304,
                    -0.5088357329368591,
                    0.13611482083797456,
                    0.3709903955459595,
                    0.026736795902252198,
                    0.12758003175258637,
                    0.05795704200863838,
                    -0.13702267408370973,
                    -0.4273958206176758,
                    0.2947896718978882,
                    -0.12646153569221497,
                    0.28650450706481936,
                    0.11954182386398316,
                    0.04284018278121948,
                    0.044230867177248,
                    0.46693265438079836,
                    -0.19541150331497193,
                    0.36301350593566897,
                    -0.28257596492767336,
                    0.17017649114131928,
                    0.4273718595504761,
                    0.46325981616973879,
                    0.2560570240020752,
                    -0.42134296894073489,
                    -0.2113134264945984,
                    0.33993470668792727,
                    0.14015041291713715,
                    0.3316041827201843,
                    -0.30190908908843996,
                    -0.4332329034805298,
                    0.31049251556396487,
                    -0.48897838592529299,
                    0.02521449327468872,
                    -0.45960378646850588,
                    -0.0640735849738121,
                    0.33463963866233828,
                    -0.2570466995239258,
                    0.4905734062194824,
                    -0.38262128829956057,
                    0.2637186050415039,
                    0.4734588861465454,
                    -0.029394567012786866,
                    -0.43519020080566409,
                    0.08401244878768921,
                    -0.48250919580459597,
                    0.19562330842018128,
                    0.1595449298620224,
                    0.2920234501361847,
                    -0.33350038528442385,
                    0.077512726187706,
                    -0.09207898378372193,
                    -0.16455921530723573,
                    -0.06010931730270386,
                    0.4725419282913208,
                    0.14260528981685639,
                    0.22776326537132264,
                    -0.3947051763534546,
                    -0.15195757150650025,
                    -0.22601807117462159,
                    0.048574626445770267,
                    -0.0205652117729187,
                    0.40047740936279299,
                    -0.2733227014541626,
                    0.1312079280614853,
                    -0.30475032329559328,
                    -0.24048477411270142,
                    -0.4549187421798706,
                    0.40205466747283938,
                    -0.1797681450843811,
                    -0.44658100605010989,
                    0.42999088764190676,
                    -0.2339882254600525,
                    0.20385204255580903,
                    -0.3204195499420166,
                    -0.41142332553863528,
                    -0.042416155338287356,
                    0.21873126924037934,
                    0.13154099881649018,
                    -0.40718936920166018,
                    0.4108768701553345
                ],
                "biases": [
                    -0.49923762679100039,
                    -0.2620161771774292,
                    -0.3495856523513794,
                    -0.2097962200641632,
                    -0.2911792993545532,
                    0.5325955152511597,
                    -0.3610248565673828,
                    0.42160332202911379,
                    0.14465251564979554,
                    -0.19695132970809937
                ]
            }
        },
        {
            "speciesName": "Fish",
            "position": {
                "x": 0.5003405213356018,
                "y": 47.40842056274414,
                "z": 0.0
            },
            "velocity": {
                "x": 1.878748893737793,
                "y": -1.2319278717041016
            },
            "brainData": {
                "layers": [
                    11,
                    8,
                    2
                ],
                "weights": [
                    -0.2826867997646332,
                    0.0070223212242126469,
                    0.26129150390625,
                    -0.028939343988895417,
                    -0.19319790601730348,
                    -0.1135217547416687,
                    -0.3868807554244995,
                    0.35051095485687258,
                    0.22585368156433106,
                    -0.15834110975265504,
                    0.09140388667583466,
                    -0.2376834750175476,
                    -0.31462228298187258,
                    -0.3914923667907715,
                    -0.2086358666419983,
                    0.32195985317230227,
                    -0.13000261783599854,
                    -0.08144956827163696,
                    -0.1006244421005249,
                    -0.33565664291381838,
                    0.21131466329097749,
                    0.44204044342041018,
                    0.42895781993865969,
                    -0.05559819936752319,
                    0.04971498250961304,
                    -0.5084496140480042,
                    0.45802345871925356,
                    0.4585661292076111,
                    0.44964849948883059,
                    0.12758003175258637,
                    0.027323424816131593,
                    -0.14670510590076447,
                    -0.4273958206176758,
                    -0.32194840908050539,
                    0.3303661346435547,
                    0.28650450706481936,
                    -0.09127813577651978,
                    0.4612043499946594,
                    0.2857781648635864,
                    0.46693265438079836,
                    0.21632450819015504,
                    -0.3239670991897583,
                    0.020564019680023195,
                    -0.3660414218902588,
                    0.09143606573343277,
                    -0.4017159938812256,
                    -0.11810499429702759,
                    -0.43125373125076296,
                    -0.2113134264945984,
                    0.09332595765590668,
                    0.14015041291713715,
                    0.19940684735774995,
                    -0.3187437057495117,
                    -0.005694448947906494,
                    0.31049251556396487,
                    0.3309420347213745,
                    -0.20930689573287965,
                    -0.36678415536880495,
                    0.24132607877254487,
                    0.11890500783920288,
                    0.2107146829366684,
                    -0.13113385438919068,
                    0.34115540981292727,
                    0.30848878622055056,
                    -0.1409701704978943,
                    0.08011966943740845,
                    -0.4713888168334961,
                    0.08401244878768921,
                    -0.4512758255004883,
                    0.3754732608795166,
                    0.13707135617733003,
                    0.29913949966430666,
                    0.2941986918449402,
                    -0.3750840425491333,
                    0.019451797008514406,
                    -0.31451380252838137,
                    -0.12256473302841187,
                    0.4725419282913208,
                    -0.4634002447128296,
                    -0.060467302799224856,
                    0.10365444421768189,
                    0.40144407749176028,
                    -0.07920938730239868,
                    -0.2151924967765808,
                    -0.16217690706253053,
                    -0.15184813737869264,
                    -0.2733227014541626,
                    0.1312079280614853,
                    -0.028404057025909425,
                    0.4790184497833252,
                    -0.47999107837677,
                    0.14006708562374116,
                    -0.006713569164276123,
                    -0.2859685719013214,
                    0.22250662744045258,
                    0.4572819471359253,
                    0.20385204255580903,
                    0.1654813140630722,
                    0.2318333238363266,
                    -0.04460042715072632,
                    -0.19013243913650514,
                    -0.3105733394622803,
                    -0.40718936920166018,
                    0.3120579719543457
                ],
                "biases": [
                    -0.4610307216644287,
                    -0.42620980739593508,
                    -0.4802737236022949,
                    -0.4513683319091797,
                    0.45556598901748659,
                    -0.48223423957824709,
                    0.06302672624588013,
                    0.12245786935091019,
                    0.11262112855911255,
                    -0.17448323965072633
                ]
            }
        },
        {
            "speciesName": "Fish",
            "position": {
                "x": -14.986531257629395,
                "y": 81.1026611328125,
                "z": 0.0
            },
            "velocity": {
                "x": 0.27213340997695925,
                "y": -0.5426902770996094
            },
            "brainData": {
                "layers": [
                    11,
                    8,
                    2
                ],
                "weights": [
                    -0.4139678478240967,
                    -0.012570798397064209,
                    -0.4711644649505615,
                    0.06483381986618042,
                    -0.03390902280807495,
                    -0.1135217547416687,
                    0.2919355630874634,
                    0.2963520288467407,
                    0.12736718356609345,
                    -0.15834110975265504,
                    0.001518242061138153,
                    -0.2376834750175476,
                    -0.11630004644393921,
                    -0.3914923667907715,
                    -0.002621494233608246,
                    0.25582048296928408,
                    -0.07516944408416748,
                    -0.06650533527135849,
                    -0.045637667179107669,
                    -0.33565664291381838,
                    0.10832184553146362,
                    0.44204044342041018,
                    0.08542424440383911,
                    -0.05559819936752319,
                    -0.49937212467193606,
                    -0.5657990574836731,
                    0.17462806403636933,
                    0.20871815085411073,
                    0.44964849948883059,
                    -0.418634295463562,
                    0.3186110258102417,
                    -0.18287140130996705,
                    -0.2876240015029907,
                    -0.4490342140197754,
                    0.3303661346435547,
                    0.17597411572933198,
                    -0.3039982318878174,
                    0.4894499182701111,
                    -0.2781327962875366,
                    -0.38879716396331789,
                    0.11603347957134247,
                    -0.3239670991897583,
                    0.03329664468765259,
                    -0.007139980792999268,
                    0.10407906770706177,
                    0.10017722845077515,
                    0.3600867986679077,
                    -0.4755202531814575,
                    -0.3858809471130371,
                    0.07627180963754654,
                    -0.05387932062149048,
                    0.21907316148281098,
                    0.006926238536834717,
                    -0.005694448947906494,
                    -0.2816774845123291,
                    0.3309420347213745,
                    -0.20930689573287965,
                    -0.49036192893981936,
                    0.24132607877254487,
                    0.04514831304550171,
                    0.438446044921875,
                    -0.3991241157054901,
                    0.4210805892944336,
                    0.37947404384613039,
                    0.2426183521747589,
                    0.011103332042694092,
                    -0.1900305151939392,
                    -0.4532823860645294,
                    0.4457904100418091,
                    0.37389039993286135,
                    -0.4803352355957031,
                    0.21343789994716645,
                    0.3518035411834717,
                    -0.3935411870479584,
                    -0.07539588212966919,
                    -0.31451380252838137,
                    -0.12256473302841187,
                    0.49191105365753176,
                    -0.4634002447128296,
                    -0.26693618297576907,
                    0.10365444421768189,
                    0.4901725649833679,
                    -0.07920938730239868,
                    -0.2588138282299042,
                    -0.16217690706253053,
                    -0.15184813737869264,
                    -0.3152451515197754,
                    0.1507568210363388,
                    0.3024013042449951,
                    0.3326343297958374,
                    -0.13727742433547975,
                    0.14006708562374116,
                    -0.006713569164276123,
                    -0.29030704498291018,
                    0.22250662744045258,
                    0.4572819471359253,
                    0.12154263257980347,
                    -0.010447442531585694,
                    0.17365619540214539,
                    -0.14285939931869508,
                    0.26675945520401,
                    -0.3105733394622803,
                    0.26108476519584658,
                    -0.07037240266799927
                ],
                "biases": [
                    -0.45638760924339297,
                    -0.42620980739593508,
                    -0.5796741247177124,
                    0.11810356378555298,
                    0.49580979347229006,
                    -0.48223423957824709,
                    0.011077605187892914,
                    0.28315258026123049,
                    0.11262112855911255,
                    -0.17448323965072633
                ]
            }
        },
        {
            "speciesName": "Fish",
            "position": {
                "x": 41.74238967895508,
                "y": 16.255414962768556,
                "z": 0.0
            },
            "velocity": {
                "x": -5.902472496032715,
                "y": 3.392636299133301
            },
            "brainData": {
                "layers": [
                    11,
                    8,
                    2
                ],
                "weights": [
                    -0.3171004056930542,
                    0.0070223212242126469,
                    -0.2609422206878662,
                    -0.13648897409439088,
                    -0.15808969736099244,
                    -0.2763185501098633,
                    -0.3868807554244995,
                    0.35051095485687258,
                    0.11819702386856079,
                    0.39628756046295168,
                    -0.27687954902648928,
                    -0.47425568103790285,
                    -0.31462228298187258,
                    -0.27821052074432375,
                    -0.2086358666419983,
                    -0.33206987380981448,
                    0.2113618701696396,
                    0.05310744047164917,
                    -0.059065043926239017,
                    -0.3664517402648926,
                    -0.30156683921813967,
                    -0.3014014959335327,
                    0.33819127082824709,
                    -0.12556393444538117,
                    0.04971498250961304,
                    -0.4941807985305786,
                    0.47132956981658938,
                    0.18349789083003999,
                    0.27221331000328066,
                    0.19919954240322114,
                    0.0397745817899704,
                    -0.13702267408370973,
                    -0.21151572465896607,
                    -0.32194840908050539,
                    -0.1805114895105362,
                    0.28650450706481936,
                    -0.09127813577651978,
                    0.06372091919183731,
                    0.20173388719558717,
                    -0.4354797601699829,
                    0.020914852619171144,
                    0.3063487708568573,
                    0.39077675342559817,
                    -0.3660414218902588,
                    0.22397294640541078,
                    -0.34903469681739809,
                    0.29578840732574465,
                    -0.42134296894073489,
                    -0.2113134264945984,
                    0.10016387701034546,
                    -0.3500121831893921,
                    0.05071645975112915,
                    -0.3187437057495117,
                    -0.4332329034805298,
                    -0.16574221849441529,
                    -0.48897838592529299,
                    0.349029541015625,
                    -0.45960378646850588,
                    -0.01054316759109497,
                    0.11890500783920288,
                    0.27890288829803469,
                    -0.13113385438919068,
                    -0.38262128829956057,
                    0.007837951183319092,
                    -0.1409701704978943,
                    0.1723107099533081,
                    -0.4713888168334961,
                    0.17559298872947694,
                    -0.4512758255004883,
                    0.3610581159591675,
                    0.13707135617733003,
                    0.29913949966430666,
                    -0.42365747690200808,
                    -0.10268986225128174,
                    -0.3302346467971802,
                    0.21535061299800874,
                    -0.3377279043197632,
                    0.4725419282913208,
                    -0.1765781044960022,
                    -0.060467302799224856,
                    0.27701103687286379,
                    0.2932978868484497,
                    -0.48451459407806399,
                    0.3424333333969116,
                    0.18152688443660737,
                    -0.023470871150493623,
                    0.49692070484161379,
                    0.1312079280614853,
                    0.3876521587371826,
                    0.4790184497833252,
                    0.03855031728744507,
                    0.40205466747283938,
                    -0.49709439277648928,
                    0.08892351388931275,
                    0.16047970950603486,
                    -0.23356324434280396,
                    -0.38727056980133059,
                    -0.14364701509475709,
                    0.45275694131851199,
                    -0.48294997215270998,
                    -0.19013243913650514,
                    0.1322018951177597,
                    -0.40718936920166018,
                    0.4108768701553345
                ],
                "biases": [
                    0.36900222301483157,
                    -0.2996823787689209,
                    0.07602185010910034,
                    -0.4513683319091797,
                    -0.2911792993545532,
                    -0.3969404995441437,
                    0.24315045773983003,
                    -0.2324175238609314,
                    0.23188672959804536,
                    -0.36526477336883547
                ]
            }
        },
        {
            "speciesName": "Fish",
            "position": {
                "x": 50.496421813964847,
                "y": 62.36005401611328,
                "z": 0.0
            },
            "velocity": {
                "x": -1.9883981394741569e-7,
                "y": -0.7139006853103638
            },
            "brainData": {
                "layers": [
                    11,
                    8,
                    2
                ],
                "weights": [
                    -0.40064263343811037,
                    0.0070223212242126469,
                    -0.46472108364105227,
                    0.04383540898561478,
                    -0.19319790601730348,
                    -0.1135217547416687,
                    -0.3868807554244995,
                    0.2799793481826782,
                    -0.1696358323097229,
                    0.39628756046295168,
                    -0.27687954902648928,
                    -0.2376834750175476,
                    -0.11630004644393921,
                    -0.27821052074432375,
                    -0.09194010496139527,
                    0.32195985317230227,
                    -0.0913894772529602,
                    -0.08144956827163696,
                    -0.059065043926239017,
                    -0.33565664291381838,
                    0.10832184553146362,
                    -0.3014014959335327,
                    0.42895781993865969,
                    -0.0780600905418396,
                    -0.006331745535135269,
                    -0.47572827339172366,
                    0.1692410558462143,
                    0.23195742070674897,
                    0.026736795902252198,
                    -0.418634295463562,
                    0.027323424816131593,
                    -0.13702267408370973,
                    -0.4274248778820038,
                    -0.32194840908050539,
                    -0.1295742392539978,
                    0.24998962879180909,
                    -0.3039982318878174,
                    0.04284018278121948,
                    0.2857781648635864,
                    0.46693265438079836,
                    0.0681329295039177,
                    -0.3074635863304138,
                    0.020564019680023195,
                    -0.3660414218902588,
                    0.10407906770706177,
                    0.10017722845077515,
                    -0.11810499429702759,
                    -0.4755202531814575,
                    -0.3858809471130371,
                    0.16230057179927827,
                    0.14015041291713715,
                    0.18426212668418885,
                    -0.3187437057495117,
                    -0.005694448947906494,
                    -0.307122141122818,
                    -0.48897838592529299,
                    0.349029541015625,
                    -0.49036192893981936,
                    0.24132607877254487,
                    0.04514831304550171,
                    0.2107146829366684,
                    -0.13113385438919068,
                    -0.38262128829956057,
                    0.007837951183319092,
                    -0.2070462703704834,
                    0.07492142915725708,
                    -0.5704091787338257,
                    0.08401244878768921,
                    -0.4591996669769287,
                    0.40381136536598208,
                    -0.4803352355957031,
                    0.21343789994716645,
                    -0.33350038528442385,
                    -0.28231585025787356,
                    0.019451797008514406,
                    -0.31451380252838137,
                    -0.18290475010871888,
                    0.4725419282913208,
                    0.13598965108394624,
                    -0.26693618297576907,
                    -0.3480754494667053,
                    0.40144407749176028,
                    -0.07920938730239868,
                    0.36815404891967776,
                    -0.13173560798168183,
                    0.07563179731369019,
                    -0.2733227014541626,
                    0.1312079280614853,
                    -0.028404057025909425,
                    0.4790184497833252,
                    -0.13727742433547975,
                    0.40205466747283938,
                    -0.1797681450843811,
                    -0.3155768811702728,
                    0.10700720548629761,
                    -0.3184767961502075,
                    0.20385204255580903,
                    0.17533037066459657,
                    0.2318333238363266,
                    -0.14285939931869508,
                    0.33479565382003786,
                    -0.3105733394622803,
                    -0.3983677625656128,
                    -0.13629144430160523
                ],
                "biases": [
                    -0.5513050556182861,
                    0.20296353101730348,
                    -0.3495856523513794,
                    -0.4513683319091797,
                    -0.2911792993545532,
                    0.4463859498500824,
                    -0.3610248565673828,
                    0.28315258026123049,
                    0.1791992038488388,
                    -0.2981133460998535
                ]
            }
        },
        {
            "speciesName": "Fish",
            "position": {
                "x": -50.49645233154297,
                "y": 61.891258239746097,
                "z": 0.0
            },
            "velocity": {
                "x": 5.588587441707205e-7,
                "y": -1.7946685552597047
            },
            "brainData": {
                "layers": [
                    11,
                    8,
                    2
                ],
                "weights": [
                    0.42900753021240237,
                    -0.012570798397064209,
                    -0.2609422206878662,
                    0.06483381986618042,
                    -0.03390902280807495,
                    -0.1135217547416687,
                    0.24086926877498628,
                    0.33932527899742129,
                    0.16688941419124604,
                    -0.15834110975265504,
                    0.08498114347457886,
                    -0.0550723671913147,
                    -0.11630004644393921,
                    -0.06514126062393189,
                    -0.40065526962280276,
                    0.011597931385040284,
                    -0.0913894772529602,
                    0.05310744047164917,
                    -0.045637667179107669,
                    0.07162807881832123,
                    0.025766409933567048,
                    0.44204044342041018,
                    0.15412014722824098,
                    -0.05559819936752319,
                    -0.42895710468292239,
                    -0.47572827339172366,
                    0.2526533603668213,
                    0.18349789083003999,
                    0.23585210740566255,
                    -0.418634295463562,
                    0.3186110258102417,
                    -0.18287140130996705,
                    -0.2180948257446289,
                    -0.4490342140197754,
                    -0.2061629593372345,
                    0.26033341884613039,
                    -0.3039982318878174,
                    -0.23940223455429078,
                    -0.4215526580810547,
                    -0.38879716396331789,
                    0.020914852619171144,
                    0.020853817462921144,
                    0.39077675342559817,
                    -0.007139980792999268,
                    0.10407906770706177,
                    0.15924571454524995,
                    0.29578840732574465,
                    0.01843315362930298,
                    -0.3858809471130371,
                    0.12485112994909287,
                    -0.29001516103744509,
                    0.05071645975112915,
                    0.006926238536834717,
                    0.4727262258529663,
                    -0.2816774845123291,
                    0.3309420347213745,
                    0.4365665912628174,
                    -0.49036192893981936,
                    -0.01054316759109497,
                    0.04514831304550171,
                    0.4891829788684845,
                    0.26242807507514956,
                    -0.20537501573562623,
                    0.09089738130569458,
                    -0.4193958044052124,
                    0.19216667115688325,
                    0.006779372692108154,
                    -0.07470530271530152,
                    0.4457904100418091,
                    -0.19537407159805299,
                    0.41179609298706057,
                    0.21343789994716645,
                    0.3518035411834717,
                    -0.07725805044174195,
                    -0.3302346467971802,
                    -0.44809460639953616,
                    -0.12256473302841187,
                    0.49191105365753176,
                    -0.4634002447128296,
                    -0.35022056102752688,
                    0.27701103687286379,
                    0.2932978868484497,
                    -0.48451459407806399,
                    -0.31205523014068606,
                    -0.16217690706253053,
                    -0.23231375217437745,
                    -0.3152451515197754,
                    -0.2874715328216553,
                    0.3876521587371826,
                    0.06700026988983154,
                    -0.13727742433547975,
                    0.14006708562374116,
                    -0.49709439277648928,
                    0.08892351388931275,
                    0.19586263597011567,
                    -0.2578073740005493,
                    -0.38727056980133059,
                    -0.14364701509475709,
                    0.2318333238363266,
                    -0.3853189945220947,
                    -0.3949272632598877,
                    -0.3105733394622803,
                    0.2937217950820923,
                    -0.07037240266799927
                ],
                "biases": [
                    0.36900222301483157,
                    -0.42620980739593508,
                    -0.4802737236022949,
                    0.11810356378555298,
                    -0.18055051565170289,
                    -0.48223423957824709,
                    0.1008085310459137,
                    0.28315258026123049,
                    0.11262112855911255,
                    -0.272660493850708
                ]
            }
        },
        {
            "speciesName": "Fish",
            "position": {
                "x": -2.7559456825256349,
                "y": 90.49142456054688,
                "z": 0.0
            },
            "velocity": {
                "x": 1.5987999439239503,
                "y": 0.13011951744556428
            },
            "brainData": {
                "layers": [
                    11,
                    8,
                    2
                ],
                "weights": [
                    -0.3171004056930542,
                    0.0070223212242126469,
                    -0.37822186946868899,
                    -0.2548518180847168,
                    -0.19933992624282838,
                    0.34602901339530947,
                    -0.3868807554244995,
                    0.35865330696105959,
                    0.561431884765625,
                    0.39628756046295168,
                    -0.3351173400878906,
                    -0.47425568103790285,
                    -0.09989947080612183,
                    0.3583031892776489,
                    -0.2086358666419983,
                    0.39260339736938479,
                    0.45371854305267336,
                    -0.24911266565322877,
                    -0.059065043926239017,
                    -0.3664517402648926,
                    0.21131466329097749,
                    -0.3014014959335327,
                    0.42895781993865969,
                    0.36121857166290285,
                    0.04971498250961304,
                    -0.41635915637016299,
                    0.2804931104183197,
                    0.3709903955459595,
                    -0.0195554718375206,
                    -0.14242368936538697,
                    0.027323424816131593,
                    0.0377081036567688,
                    -0.4273958206176758,
                    -0.32194840908050539,
                    -0.1295742392539978,
                    -0.34006619453430178,
                    0.04066971316933632,
                    0.04284018278121948,
                    0.2857781648635864,
                    -0.33978939056396487,
                    0.0024238228797912599,
                    0.36301350593566897,
                    -0.19139045476913453,
                    -0.3660414218902588,
                    0.12158423662185669,
                    -0.06203740835189819,
                    0.5207650065422058,
                    -0.1675223410129547,
                    -0.2113134264945984,
                    0.06041918694972992,
                    0.14015041291713715,
                    0.19940684735774995,
                    -0.3187437057495117,
                    -0.4332329034805298,
                    0.3544173240661621,
                    0.2957116365432739,
                    -0.04841989278793335,
                    -0.4264497756958008,
                    0.03839904069900513,
                    0.11890500783920288,
                    -0.4829137325286865,
                    -0.43001818656921389,
                    -0.38262128829956057,
                    0.007837951183319092,
                    -0.1409701704978943,
                    0.08011966943740845,
                    0.38611066341400149,
                    0.08401244878768921,
                    0.37703388929367068,
                    0.14340196549892426,
                    0.13707135617733003,
                    0.29913949966430666,
                    -0.1948968768119812,
                    -0.15504151582717896,
                    -0.2654748558998108,
                    0.21535061299800874,
                    -0.31368398666381838,
                    0.4725419282913208,
                    0.43820953369140627,
                    -0.060467302799224856,
                    -0.3947051763534546,
                    -0.15195757150650025,
                    0.3812161684036255,
                    -0.11536794900894165,
                    0.21005068719387055,
                    0.07563179731369019,
                    0.20237289369106294,
                    0.15200214087963105,
                    -0.03726013004779816,
                    0.057455480098724368,
                    -0.4549187421798706,
                    0.40205466747283938,
                    -0.1797681450843811,
                    -0.37332332134246828,
                    0.10700720548629761,
                    -0.3184767961502075,
                    0.20385204255580903,
                    0.1654813140630722,
                    0.28014612197875979,
                    -0.04460042715072632,
                    -0.19013243913650514,
                    -0.027818791568279268,
                    -0.4934852719306946,
                    0.4108768701553345
                ],
                "biases": [
                    -0.49614274501800539,
                    0.23862908780574799,
                    -0.3495856523513794,
                    -0.4513683319091797,
                    -0.11499148607254029,
                    0.12953758239746095,
                    -0.42617711424827578,
                    0.047714877873659137,
                    0.23188672959804536,
                    -0.2981133460998535
                ]
            }
        },
        {
            "speciesName": "Fish",
            "position": {
                "x": 26.398807525634767,
                "y": 84.77525329589844,
                "z": 0.0
            },
            "velocity": {
                "x": 0.23822040855884553,
                "y": -2.763845920562744
            },
            "brainData": {
                "layers": [
                    11,
                    8,
                    2
                ],
                "weights": [
                    0.20250092446804048,
                    0.07964009046554566,
                    -0.29166844487190249,
                    0.04920327663421631,
                    -0.19933992624282838,
                    0.3688403367996216,
                    -0.07054721564054489,
                    0.09765513986349106,
                    0.4884532690048218,
                    0.3739020824432373,
                    -0.19751575589179994,
                    0.0025039315223693849,
                    -0.21587762236595155,
                    -0.4736882150173187,
                    -0.2425345778465271,
                    0.2969820201396942,
                    0.3297300338745117,
                    0.23093760013580323,
                    0.3732175827026367,
                    0.28870415687561037,
                    -0.12047809362411499,
                    -0.42393577098846438,
                    -0.12292081117630005,
                    0.36121857166290285,
                    -0.24532347917556764,
                    0.22151468694210053,
                    0.2778424024581909,
                    0.47177624702453616,
                    0.3422929048538208,
                    -0.4322131872177124,
                    0.43609118461608889,
                    0.30431318283081057,
                    -0.06423181295394898,
                    -0.006437122821807861,
                    0.24455033242702485,
                    -0.34006619453430178,
                    -0.04813414812088013,
                    -0.3976314067840576,
                    0.36838406324386599,
                    -0.33978939056396487,
                    0.0024238228797912599,
                    0.11769392341375351,
                    -0.43538951873779299,
                    0.14848004281520844,
                    -0.38165390491485598,
                    -0.06203740835189819,
                    -0.02742975950241089,
                    -0.21673649549484254,
                    -0.06997162103652954,
                    -0.023794297128915788,
                    -0.4379991292953491,
                    -0.08925801515579224,
                    -0.46529650688171389,
                    -0.08480700105428696,
                    -0.39331161975860598,
                    0.2957116365432739,
                    -0.04841989278793335,
                    -0.04992437735199928,
                    0.01590411365032196,
                    -0.17083066701889039,
                    -0.405895471572876,
                    0.4702979326248169,
                    -0.1367543339729309,
                    -0.354092001914978,
                    0.18644605576992036,
                    0.2134535163640976,
                    0.38611066341400149,
                    0.3062143325805664,
                    0.44103169441223147,
                    0.09189242124557495,
                    -0.4355844259262085,
                    -0.075428307056427,
                    -0.36589905619621279,
                    -0.20868107676506043,
                    -0.33093059062957766,
                    0.051354825496673587,
                    0.24360066652297975,
                    0.1490635722875595,
                    0.43820953369140627,
                    0.3145143687725067,
                    0.29334497451782229,
                    -0.4378424882888794,
                    0.3812161684036255,
                    0.3231416940689087,
                    -0.17480522394180299,
                    -0.4249964952468872,
                    0.20237289369106294,
                    0.4278339147567749,
                    -0.4403371810913086,
                    -0.4588165283203125,
                    -0.09607626497745514,
                    0.0013578534126281739,
                    0.23681388795375825,
                    -0.37332332134246828,
                    -0.33879220485687258,
                    -0.39226317405700686,
                    0.20716546475887299,
                    0.1372152417898178,
                    -0.20307332277297975,
                    0.09948152303695679,
                    -0.28713905811309817,
                    -0.13565164804458619,
                    0.356921911239624,
                    0.37006115913391116
                ],
                "biases": [
                    0.07228106260299683,
                    0.4929462671279907,
                    -0.18423980474472047,
                    0.18680690228939057,
                    0.4175184965133667,
                    -0.0457572340965271,
                    0.2560003995895386,
                    -0.38193535804748537,
                    -0.2587040662765503,
                    0.12190300226211548
                ]
            }
        },
        {
            "speciesName": "Fish",
            "position": {
                "x": 50.496421813964847,
                "y": 61.38069152832031,
                "z": 0.0
            },
            "velocity": {
                "x": -1.9930230621412194e-7,
                "y": -0.7139006853103638
            },
            "brainData": {
                "layers": [
                    11,
                    8,
                    2
                ],
                "weights": [
                    -0.015489384531974793,
                    -0.012570798397064209,
                    -0.014315187931060791,
                    0.06483381986618042,
                    -0.03390902280807495,
                    -0.1874740719795227,
                    -0.19910210371017457,
                    0.36983588337898257,
                    0.16688941419124604,
                    0.4359252452850342,
                    0.08498114347457886,
                    -0.2376834750175476,
                    -0.11630004644393921,
                    -0.3914923667907715,
                    -0.10855156183242798,
                    -0.12111884355545044,
                    -0.06328314542770386,
                    -0.08144956827163696,
                    -0.03731757402420044,
                    0.2133086919784546,
                    0.10832184553146362,
                    0.39135217666625979,
                    0.3173940181732178,
                    0.39593613147735598,
                    -0.37050771713256838,
                    -0.34879815578460696,
                    0.11377523839473725,
                    0.23195742070674897,
                    0.44964849948883059,
                    -0.1010625958442688,
                    0.3186110258102417,
                    0.22191832959651948,
                    -0.2876240015029907,
                    -0.49904924631118777,
                    0.3303661346435547,
                    0.2758524417877197,
                    -0.3039982318878174,
                    0.4389724135398865,
                    -0.3604222536087036,
                    -0.38879716396331789,
                    0.16124390065670014,
                    -0.3239670991897583,
                    -0.344596803188324,
                    0.17017649114131928,
                    0.10407906770706177,
                    0.09407355636358261,
                    0.3600867986679077,
                    -0.20829135179519654,
                    -0.3858809471130371,
                    0.33993470668792727,
                    -0.08359332382678986,
                    0.21907316148281098,
                    -0.09155730158090592,
                    -0.005694448947906494,
                    -0.2816774845123291,
                    0.3309420347213745,
                    0.02521449327468872,
                    -0.5390768051147461,
                    0.2244359850883484,
                    0.4038550853729248,
                    0.438446044921875,
                    -0.46489548683166506,
                    0.4964246153831482,
                    0.2637186050415039,
                    0.20222221314907075,
                    0.07492142915725708,
                    -0.1900305151939392,
                    -0.265625,
                    -0.2573676109313965,
                    0.36420148611068728,
                    -0.4803352355957031,
                    -0.24805599451065064,
                    0.3518035411834717,
                    0.04942959547042847,
                    -0.09207898378372193,
                    -0.31451380252838137,
                    -0.12256473302841187,
                    0.49191105365753176,
                    0.14260528981685639,
                    0.16269367933273316,
                    0.10365444421768189,
                    0.40144407749176028,
                    -0.07920938730239868,
                    0.048574626445770267,
                    -0.3904212713241577,
                    0.40047740936279299,
                    0.1523800492286682,
                    0.032654158771038058,
                    0.3024013042449951,
                    -0.24048477411270142,
                    0.44260501861572268,
                    -0.478529691696167,
                    -0.006713569164276123,
                    -0.29030704498291018,
                    0.22250662744045258,
                    0.4572819471359253,
                    0.12154263257980347,
                    -0.3204195499420166,
                    -0.41142332553863528,
                    -0.14285939931869508,
                    0.3605644702911377,
                    -0.3105733394622803,
                    -0.18087023496627809,
                    -0.388230562210083
                ],
                "biases": [
                    -0.17194217443466187,
                    -0.42620980739593508,
                    0.25824105739593508,
                    0.11810356378555298,
                    -0.24495543539524079,
                    -0.48223423957824709,
                    0.06302672624588013,
                    0.28315258026123049,
                    -0.3167504072189331,
                    -0.11336490511894226
                ]
            }
        },
        {
            "speciesName": "Fish",
            "position": {
                "x": -38.87387466430664,
                "y": 90.46400451660156,
                "z": 0.0
            },
            "velocity": {
                "x": -1.1427340507507325,
                "y": 0.03451031818985939
            },
            "brainData": {
                "layers": [
                    11,
                    8,
                    2
                ],
                "weights": [
                    0.3196678161621094,
                    -0.19190102815628053,
                    -0.30178236961364748,
                    -0.20090216398239137,
                    0.443705677986145,
                    -0.472054123878479,
                    -0.19910210371017457,
                    0.1666649430990219,
                    0.035228073596954349,
                    0.4359252452850342,
                    -0.1268358826637268,
                    0.0025039315223693849,
                    -0.4455760717391968,
                    -0.4577147960662842,
                    -0.2425345778465271,
                    -0.12111884355545044,
                    -0.4192392826080322,
                    0.20308130979537965,
                    -0.03731757402420044,
                    0.28870415687561037,
                    -0.26966428756713869,
                    -0.13908439874649049,
                    0.3740236163139343,
                    0.3465067148208618,
                    -0.37050771713256838,
                    -0.2966996729373932,
                    0.13611482083797456,
                    0.3044663071632385,
                    0.3422929048538208,
                    -0.1010625958442688,
                    0.43609118461608889,
                    0.22191832959651948,
                    0.19119951128959657,
                    0.2947896718978882,
                    -0.2333737015724182,
                    -0.4259582757949829,
                    -0.04813414812088013,
                    -0.18283718824386598,
                    0.08353990316390991,
                    -0.2026788592338562,
                    -0.07250505685806275,
                    0.13169334828853608,
                    -0.28257596492767336,
                    0.17017649114131928,
                    -0.38165390491485598,
                    -0.4725918769836426,
                    0.2560570240020752,
                    -0.20829135179519654,
                    -0.41962099075317385,
                    0.33993470668792727,
                    0.03520699590444565,
                    0.30484262108802798,
                    -0.30190908908843996,
                    0.05800908803939819,
                    -0.2417030930519104,
                    0.3772469758987427,
                    0.10848003625869751,
                    0.16866658627986909,
                    -0.06011241674423218,
                    0.4038550853729248,
                    -0.25937318801879885,
                    0.4905734062194824,
                    0.3722708225250244,
                    -0.354092001914978,
                    0.4734588861465454,
                    0.2134535163640976,
                    -0.21260449290275575,
                    0.43928563594818118,
                    0.352764368057251,
                    0.09189242124557495,
                    0.11127442121505737,
                    -0.24805599451065064,
                    -0.43901526927948,
                    0.04942959547042847,
                    -0.09207898378372193,
                    -0.21649307012557984,
                    0.08516281098127365,
                    -0.005851924419403076,
                    -0.18505626916885377,
                    0.10863548517227173,
                    -0.5532367825508118,
                    -0.31966543197631838,
                    -0.16352802515029908,
                    0.048574626445770267,
                    -0.17480522394180299,
                    0.41981369256973269,
                    0.15207284688949586,
                    -0.09597545862197876,
                    -0.4403371810913086,
                    -0.4588165283203125,
                    -0.32731470465660097,
                    -0.42546188831329348,
                    -0.16251260042190553,
                    -0.44658100605010989,
                    -0.33879220485687258,
                    -0.39226317405700686,
                    -0.35113033652305605,
                    0.06376300007104874,
                    -0.38512733578681948,
                    0.09948152303695679,
                    -0.3257744312286377,
                    -0.13565164804458619,
                    -0.24023956060409547,
                    -0.388230562210083
                ],
                "biases": [
                    -0.23534709215164185,
                    -0.13001936674118043,
                    0.25824105739593508,
                    0.18680690228939057,
                    0.4175184965133667,
                    -0.066411592066288,
                    0.2560003995895386,
                    -0.38193535804748537,
                    -0.3380241394042969,
                    -0.19695132970809937
                ]
            }
        },
        {
            "speciesName": "Fish",
            "position": {
                "x": 19.399192810058595,
                "y": 88.91049194335938,
                "z": 0.0
            },
            "velocity": {
                "x": 0.7324153184890747,
                "y": 0.4690651297569275
            },
            "brainData": {
                "layers": [
                    11,
                    8,
                    2
                ],
                "weights": [
                    0.20250092446804048,
                    -0.14274060726165772,
                    -0.23755796253681184,
                    -0.2548518180847168,
                    -0.19933992624282838,
                    -0.472054123878479,
                    0.20041285455226899,
                    0.1666649430990219,
                    0.1071348786354065,
                    0.3739020824432373,
                    -0.3351173400878906,
                    -0.22521740198135377,
                    -0.09989947080612183,
                    -0.4577147960662842,
                    0.2784506678581238,
                    0.248912513256073,
                    0.45371854305267336,
                    -0.24911266565322877,
                    0.3732175827026367,
                    0.28870415687561037,
                    0.20822928845882417,
                    -0.13908439874649049,
                    -0.12292081117630005,
                    -0.48153746128082278,
                    -0.050953686237335208,
                    0.22151468694210053,
                    0.3643026351928711,
                    0.47177624702453616,
                    0.3952963948249817,
                    -0.14242368936538697,
                    0.43609118461608889,
                    0.30431318283081057,
                    -0.2885945439338684,
                    -0.006437122821807861,
                    -0.24434733390808106,
                    -0.34006619453430178,
                    -0.0156518816947937,
                    0.36875808238983157,
                    0.17997315526008607,
                    -0.2921714782714844,
                    0.0024238228797912599,
                    0.13169334828853608,
                    -0.23209929466247559,
                    0.14848004281520844,
                    -0.38165390491485598,
                    -0.4725918769836426,
                    0.578305721282959,
                    -0.21673649549484254,
                    -0.06997162103652954,
                    0.015962302684783937,
                    -0.4379991292953491,
                    0.25261807441711428,
                    -0.46529650688171389,
                    -0.01998823881149292,
                    -0.24560052156448365,
                    0.2957116365432739,
                    -0.04841989278793335,
                    -0.018670618534088136,
                    -0.36148178577423098,
                    -0.4681887626647949,
                    0.28439515829086306,
                    -0.43001818656921389,
                    -0.2776172161102295,
                    -0.354092001914978,
                    0.46958351135253909,
                    0.29925811290740969,
                    0.38611066341400149,
                    0.3062143325805664,
                    0.44103169441223147,
                    0.09189242124557495,
                    0.13417409360408784,
                    0.2472205013036728,
                    -0.43901526927948,
                    -0.3885035514831543,
                    -0.25969481468200686,
                    0.051354825496673587,
                    0.24771974980831147,
                    0.44161486625671389,
                    0.43820953369140627,
                    0.192763090133667,
                    -0.4571046829223633,
                    -0.5024648904800415,
                    0.1715768426656723,
                    -0.17598086595535279,
                    -0.08061837404966355,
                    -0.4249964952468872,
                    -0.3839515447616577,
                    -0.09597545862197876,
                    -0.4403371810913086,
                    -0.4588165283203125,
                    -0.39144766330718996,
                    0.0607791543006897,
                    0.23681388795375825,
                    -0.37332332134246828,
                    -0.05029851198196411,
                    -0.39226317405700686,
                    -0.37832677364349368,
                    0.1372152417898178,
                    0.28014612197875979,
                    0.45237624645233157,
                    -0.28713905811309817,
                    -0.13565164804458619,
                    0.08303815126419068,
                    0.32956719398498537
                ],
                "biases": [
                    -0.49614274501800539,
                    -0.1421368569135666,
                    -0.19811087846755982,
                    0.18680690228939057,
                    -0.11499148607254029,
                    0.10845440626144409,
                    0.33824992179870608,
                    0.08403366804122925,
                    0.46671855449676516,
                    0.2843153476715088
                ]
            }
        },
        {
            "speciesName": "Fish",
            "position": {
                "x": -13.536635398864746,
                "y": 81.64387512207031,
                "z": 0.0
            },
            "velocity": {
                "x": 0.19225457310676576,
                "y": -0.5104337334632874
            },
            "brainData": {
                "layers": [
                    11,
                    8,
                    2
                ],
                "weights": [
                    -0.40064263343811037,
                    -0.012570798397064209,
                    -0.4711644649505615,
                    0.06483381986618042,
                    -0.03390902280807495,
                    -0.1135217547416687,
                    0.19636720418930055,
                    0.2963520288467407,
                    0.16688941419124604,
                    -0.15834110975265504,
                    0.08498114347457886,
                    -0.2376834750175476,
                    -0.11630004644393921,
                    -0.3914923667907715,
                    -0.09194010496139527,
                    0.32195985317230227,
                    -0.0913894772529602,
                    -0.08144956827163696,
                    -0.045637667179107669,
                    -0.33565664291381838,
                    0.10832184553146362,
                    0.4856933355331421,
                    0.08542424440383911,
                    -0.13445335626602174,
                    -0.49937212467193606,
                    -0.47572827339172366,
                    0.1692410558462143,
                    0.23195742070674897,
                    0.44964849948883059,
                    -0.418634295463562,
                    0.3186110258102417,
                    -0.18287140130996705,
                    -0.2876240015029907,
                    -0.4490342140197754,
                    0.33241307735443118,
                    0.17597411572933198,
                    -0.3039982318878174,
                    0.40458786487579348,
                    -0.3604222536087036,
                    -0.38879716396331789,
                    0.1130967065691948,
                    -0.39465710520744326,
                    0.03329664468765259,
                    -0.007139980792999268,
                    0.10407906770706177,
                    0.10017722845077515,
