{
    "layers": [
        13,
        9,
        2
    ],
    "weights": [
        0.2316226065158844,
        0.6795415282249451,
        -0.3319609761238098,
        0.2572549283504486,
        0.7604713439941406,
        -0.5792527198791504,
        0.8485914468765259,
        -0.2570636570453644,
        -0.2867407500743866,
        0.02366304025053978,
        -0.6374211311340332,
        -0.17797568440437318,
        0.5888856649398804,
        -0.511742115020752,
        0.13683360815048219,
        0.8706933856010437,
        0.2082146406173706,
        -0.7664960026741028,
        0.3823518753051758,
        0.7295923829078674,
        0.16307002305984498,
        -0.832513689994812,
        1.031666874885559,
        -0.12464218586683274,
        -0.19973385334014893,
        1.5768752098083497,
        -0.19445323944091798,
        0.8635665774345398,
        0.8273957967758179,
        -0.8426797389984131,
        -0.6300603747367859,
        0.20785540342330934,
        0.5734713077545166,
        -1.1429258584976197,
        -0.03661531209945679,
        0.5375744700431824,
        -0.11152967810630799,
        0.3499507009983063,
        0.4886733591556549,
        0.36318889260292055,
        -0.036407701671123508,
        -1.2514805793762208,
        -0.14767271280288697,
        0.7640746831893921,
        -0.9517672061920166,
        0.45828795433044436,
        -0.03879424184560776,
        -0.3985889256000519,
        0.3321424424648285,
        0.5516029000282288,
        -0.3295136094093323,
        -0.17686238884925843,
        -0.3762418031692505,
        -0.1916835606098175,
        0.5463966131210327,
        0.5318170189857483,
        -0.46575728058815,
        0.4318903684616089,
        0.23195138573646546,
        -1.1120960712432862,
        0.525155246257782,
        -0.428997278213501,
        -0.23964163661003114,
        -0.030037764459848405,
        -0.6206198930740356,
        0.1849125623703003,
        -0.7633847594261169,
        0.23554155230522157,
        0.033824168145656589,
        0.1996016502380371,
        -1.0355589389801026,
        -0.014117125421762467,
        -0.8425856232643127,
        0.36993324756622317,
        -0.22527563571929933,
        -0.19069693982601167,
        -0.4336448907852173,
        0.6434078812599182,
        1.1913565397262574,
        -0.07852235436439514,
        -0.4375600218772888,
        -0.004505224525928497,
        1.0217983722686768,
        -0.28880009055137637,
        -0.21965745091438294,
        -0.47047141194343569,
        0.11716017127037049,
        0.06930477172136307,
        0.6545552015304565,
        -0.2640105187892914,
        -1.3671879768371583,
        -0.18745601177215577,
        -0.0523914098739624,
        1.7446563243865967,
        -0.17855480313301087,
        0.2282087206840515,
        -0.4169679284095764,
        0.816520094871521,
        0.32961365580558779,
        -0.6150757670402527,
        0.7804655432701111,
        -0.08958671987056732,
        0.611784815788269,
        -0.6931125521659851,
        0.12302200496196747,
        -0.0063914954662323,
        -0.860657811164856,
        -0.18944773077964784,
        0.10395924746990204,
        0.1376875936985016,
        0.0639231726527214,
        -0.3966033458709717,
        1.143458604812622,
        -0.2624281942844391,
        -0.2885488271713257,
        0.16987447440624238,
        -0.4827371835708618,
        -1.0551365613937379,
        0.41747891902923586,
        0.42258235812187197,
        -0.11161050200462342,
        0.6095720529556274,
        -0.15838253498077393,
        -0.5225269198417664,
        -0.12185079604387284,
        -0.38188695907592776,
        1.3245458602905274,
        1.3610326051712037,
        1.2306904792785645,
        0.7245014905929565,
        0.6980250477790833,
        -0.8361572027206421,
        -0.3246697783470154,
        1.1398354768753052,
        -0.2852269411087036
    ],
    "biases": [
        -0.13343952596187592,
        0.7670570611953735,
        -0.9255345463752747,
        -0.8973349332809448,
        -0.14049306511878968,
        1.0828661918640137,
        0.9710351824760437,
        0.24116875231266023,
        -0.27665045857429507,
        0.3877464532852173,
        1.496303677558899
    ]
}