{
    "layers": [
        9,
        7,
        2
    ],
    "weights": [
        -0.32157647609710696,
        0.19477258622646333,
        -0.38500773906707766,
        0.12397557497024536,
        -0.4803663492202759,
        0.1541668027639389,
        -0.23172754049301148,
        -0.13474422693252564,
        -0.47604167461395266,
        -0.17875367403030396,
        -0.23878663778305055,
        0.14439724385738374,
        0.33129310607910159,
        -0.12904804944992066,
        -0.39227020740509035,
        -0.28134429454803469,
        0.2675778865814209,
        -0.41465866565704348,
        -0.48030734062194826,
        -0.20835596323013307,
        -0.14535242319107057,
        -0.27486467361450198,
        -0.0028315186500549318,
        -0.11130756139755249,
        -0.28883659839630129,
        0.15752016007900239,
        -0.06185728311538696,
        0.16432331502437592,
        -0.23931676149368287,
        0.423620343208313,
        0.2993006706237793,
        -0.23825889825820924,
        0.31700706481933596,
        -0.09756702184677124,
        -0.15224438905715943,
        0.2686959505081177,
        -0.3770843744277954,
        0.039787232875823978,
        0.2786318063735962,
        -0.4344363212585449,
        0.324337363243103,
        -0.41000843048095705,
        0.4311467409133911,
        0.3738434314727783,
        -0.3270280361175537,
        -0.30137205123901369,
        0.47100019454956057,
        0.3706248998641968,
        -0.11005634069442749,
        -0.4506124258041382,
        -0.3793916702270508,
        0.2382713407278061,
        -0.08567553758621216,
        0.0031389594078063967,
        0.24975059926509858,
        0.009166061878204346,
        -0.3524360656738281,
        -0.18582004308700562,
        -0.22499626874923707,
        0.40171337127685549,
        -0.10863906145095825,
        0.4125852584838867,
        -0.17286688089370728,
        -0.11164456605911255,
        -0.38022804260253909,
        0.306451678276062,
        -0.23572641611099244,
        -0.44223499298095705,
        0.17271755635738374,
        0.48404717445373537,
        0.36841702461242678,
        0.312467098236084,
        0.37341082096099856,
        -0.2538081407546997,
        0.4091600179672241,
        0.30421626567840578,
        0.08160620927810669
    ],
    "biases": [
        -0.36344587802886965,
        0.08010691404342652,
        -0.18854278326034547,
        -0.042665064334869388,
        -0.14511877298355103,
        -0.009060442447662354,
        0.2482219785451889,
        -0.33436858654022219,
        -0.025983154773712159
    ]
}